{"learner":{"attributes":{"scikit_learn":"{\"_estimator_type\": \"regressor\"}"},"feature_names":["month","is_coastal","is_hill","is_south_west","is_east"],"feature_types":["int","int","int","int","int"],"gradient_booster":{"model":{"cats":{"enc":[],"feature_segments":[],"sorted_idx":[]},"gbtree_model_param":{"num_parallel_tree":"1","num_trees":"100"},"iteration_indptr":[0,1,2,3,4,5,6,7,8,9,10,11,12,13,14,15,16,17,18,19,20,21,22,23,24,25,26,27,28,29,30,31,32,33,34,35,36,37,38,39,40,41,42,43,44,45,46,47,48,49,50,51,52,53,54,55,56,57,58,59,60,61,62,63,64,65,66,67,68,69,70,71,72,73,74,75,76,77,78,79,80,81,82,83,84,85,86,87,88,89,90,91,92,93,94,95,96,97,98,99,100],"tree_info":[0,0,0,0,0,0,0,0,0,0,0,0,0,0,0,0,0,0,0,0,0,0,0,0,0,0,0,0,0,0,0,0,0,0,0,0,0,0,0,0,0,0,0,0,0,0,0,0,0,0,0,0,0,0,0,0,0,0,0,0,0,0,0,0,0,0,0,0,0,0,0,0,0,0,0,0,0,0,0,0,0,0,0,0,0,0,0,0,0,0,0,0,0,0,0,0,0,0,0,0],"trees":[{"base_weights":[-3.2928727E-7,5.1582494E0,-1.5151851E1,1.3376373E1,9.755422E-1,-2.1307756E1,-3.3643477E0,2.2275225E1,-1.8948507E1,-4.8205256E0,2.430952E1,-1.866668E1,-8.615297E0,-1.7703182E1,9.3806095E0,1.6444191E1,9.475452E0,-1.1606727E1,-2.6373107E0,-1.141713E1,1.8442388E0,-2.6114793E0,9.38504E0,-2.5889018E0,-2.3922073E1,-2.5353553E0,-1.1637894E1,3.379492E0,6.430234E0,1.5937703E0,-5.9513006E0,2.3906276E0,-2.606095E0,-8.035679E0,-6.2815695E0],"categories":[],"categories_nodes":[],"categories_segments":[],"categories_sizes":[],"default_left":[0,0,0,0,0,0,0,0,0,0,0,0,0,0,0,0,0,0,0,0,0,0,0,0,0,0,0,0,0,0,0,0,0,0,0],"id":0,"left_children":[1,3,5,7,9,11,13,15,17,19,21,23,-1,25,-1,27,-1,-1,-1,29,31,-1,-1,-1,33,-1,-1,-1,-1,-1,-1,-1,-1,-1,-1],"loss_changes":[1.563297E6,5.129158E5,3.68547E5,1.4481864E6,1.3376935E6,6.47695E4,8.6661956E5,2.1374225E5,2.1761906E5,3.4835428E5,4.5338662E5,1.29713E5,0E0,2.4045356E5,0E0,6.2533438E4,0E0,0E0,0E0,5.610619E5,2.5432303E5,0E0,0E0,0E0,1.324525E4,0E0,0E0,0E0,0E0,0E0,0E0,0E0,0E0,0E0,0E0],"parents":[2147483647,0,0,1,1,2,2,3,3,4,4,5,5,6,6,7,7,8,8,9,9,10,10,11,11,13,13,15,15,19,19,20,20,24,24],"right_children":[2,4,6,8,10,12,14,16,18,20,22,24,-1,26,-1,28,-1,-1,-1,30,32,-1,-1,-1,34,-1,-1,-1,-1,-1,-1,-1,-1,-1,-1],"split_conditions":[1E1,4E0,1.2E1,1E0,1E0,1E0,1E0,1E0,2E0,7E0,5E0,1E0,-8.615297E0,1E0,9.3806095E0,1E0,9.475452E0,-1.1606727E1,-2.6373107E0,5E0,1E0,-2.6114793E0,9.38504E0,-2.5889018E0,1.1E1,-2.5353553E0,-1.1637894E1,3.379492E0,6.430234E0,1.5937703E0,-5.9513006E0,2.3906276E0,-2.606095E0,-8.035679E0,-6.2815695E0],"split_indices":[0,0,0,4,4,2,3,1,0,0,0,1,0,1,0,2,0,0,0,0,1,0,0,0,0,0,0,0,0,0,0,0,0,0,0],"split_type":[0,0,0,0,0,0,0,0,0,0,0,0,0,0,0,0,0,0,0,0,0,0,0,0,0,0,0,0,0,0,0,0,0,0,0],"sum_hessian":[2E4,1.4921E4,5.079E3,5.032E3,9.889E3,3.336E3,1.743E3,3.946E3,1.086E3,7.922E3,1.967E3,2.462E3,8.74E2,1.233E3,5.1E2,2.428E3,1.518E3,3.68E2,7.18E2,3.981E3,3.941E3,3.43E2,1.624E3,8.47E2,1.615E3,8.58E2,3.75E2,1.193E3,1.235E3,1.333E3,2.648E3,2.492E3,1.449E3,8.2E2,7.95E2],"tree_param":{"num_deleted":"0","num_feature":"5","num_nodes":"35","size_leaf_vector":"1"}},{"base_weights":[-1.153721E-3,3.61126E0,-1.0612263E1,9.364463E0,6.831022E-1,-1.4923078E1,-2.3577912E0,1.5597544E1,-1.327706E1,-3.374945E0,1.7020107E1,-1.307354E1,-6.0336623E0,-1.2403713E1,6.571934E0,1.151497E1,6.634689E0,-8.134145E0,-1.8472183E0,-7.9930844E0,1.2909114E0,-1.8303124E0,6.571261E0,-1.8131471E0,-1.675431E1,-1.7756344E0,-8.15581E0,2.3664927E0,4.5027237E0,1.1159979E0,-4.1665835E0,1.9587837E0,-2.7322476E0,-5.6279116E0,-4.3994656E0],"categories":[],"categories_nodes":[],"categories_segments":[],"categories_sizes":[],"default_left":[0,0,0,0,0,0,0,0,0,0,0,0,0,0,0,0,0,0,0,0,0,0,0,0,0,0,0,0,0,0,0,0,0,0,0],"id":1,"left_children":[1,3,5,7,9,11,13,15,17,19,21,23,-1,25,-1,27,-1,-1,-1,29,31,-1,-1,-1,33,-1,-1,-1,-1,-1,-1,-1,-1,-1,-1],"loss_changes":[7.66711E5,2.5137386E5,1.8072894E5,7.104964E5,6.557282E5,3.1763875E4,4.2538328E5,1.0477725E5,1.0691678E5,1.7073177E5,2.2237181E5,6.3628312E4,0E0,1.18133234E5,0E0,3.0661812E4,0E0,0E0,0E0,2.7502778E5,2.1478278E5,0E0,0E0,0E0,6.496125E3,0E0,0E0,0E0,0E0,0E0,0E0,0E0,0E0,0E0,0E0],"parents":[2147483647,0,0,1,1,2,2,3,3,4,4,5,5,6,6,7,7,8,8,9,9,10,10,11,11,13,13,15,15,19,19,20,20,24,24],"right_children":[2,4,6,8,10,12,14,16,18,20,22,24,-1,26,-1,28,-1,-1,-1,30,32,-1,-1,-1,34,-1,-1,-1,-1,-1,-1,-1,-1,-1,-1],"split_conditions":[1E1,4E0,1.2E1,1E0,1E0,1E0,1E0,1E0,2E0,7E0,5E0,1E0,-6.0336623E0,1E0,6.571934E0,1E0,6.634689E0,-8.134145E0,-1.8472183E0,5E0,9E0,-1.8303124E0,6.571261E0,-1.8131471E0,1.1E1,-1.7756344E0,-8.15581E0,2.3664927E0,4.5027237E0,1.1159979E0,-4.1665835E0,1.9587837E0,-2.7322476E0,-5.6279116E0,-4.3994656E0],"split_indices":[0,0,0,4,4,2,3,1,0,0,0,1,0,1,0,2,0,0,0,0,0,0,0,0,0,0,0,0,0,0,0,0,0,0,0],"split_type":[0,0,0,0,0,0,0,0,0,0,0,0,0,0,0,0,0,0,0,0,0,0,0,0,0,0,0,0,0,0,0,0,0,0,0],"sum_hessian":[2E4,1.4921E4,5.079E3,5.032E3,9.889E3,3.336E3,1.743E3,3.946E3,1.086E3,7.922E3,1.967E3,2.462E3,8.74E2,1.233E3,5.1E2,2.428E3,1.518E3,3.68E2,7.18E2,3.981E3,3.941E3,3.43E2,1.624E3,8.47E2,1.615E3,8.58E2,3.75E2,1.193E3,1.235E3,1.333E3,2.648E3,2.621E3,1.32E3,8.2E2,7.95E2],"tree_param":{"num_deleted":"0","num_feature":"5","num_nodes":"35","size_leaf_vector":"1"}},{"base_weights":[-1.6470063E-3,2.52818E0,-7.432764E0,6.5558233E0,4.7826496E-1,-1.0451509E1,-1.652381E0,1.0921701E1,-9.303124E0,4.162507E0,-8.368895E0,-9.156284E0,-4.2256327E0,-8.690647E0,4.604211E0,8.063307E0,4.6455927E0,-5.700515E0,-1.2938237E0,-9.223805E0,6.958615E0,8.367527E0,-1.5370699E1,-4.232813E0,-1.1734221E1,-1.2435641E0,-5.7155743E0,1.6571394E0,3.1529994E0,-3.3549206E0,-1.2828153E0,1.1035866E0,4.6010966E0,-8.502455E0,-1.9539322E0,-1.3210844E0,-1.2142273E0,-3.9415948E0,-3.0812836E0],"categories":[],"categories_nodes":[],"categories_segments":[],"categories_sizes":[],"default_left":[0,0,0,0,0,0,0,0,0,0,0,0,0,0,0,0,0,0,0,0,0,0,0,0,0,0,0,0,0,0,0,0,0,0,0,0,0,0,0],"id":2,"left_children":[1,3,5,7,9,11,13,15,17,19,21,23,-1,25,-1,27,-1,-1,-1,29,31,-1,33,35,37,-1,-1,-1,-1,-1,-1,-1,-1,-1,-1,-1,-1,-1,-1],"loss_changes":[3.7602634E5,1.23197766E5,8.862622E4,3.4857762E5,3.2240016E5,1.5577531E4,2.0880083E5,5.1362156E4,5.252847E4,2.6143492E5,7.3874075E5,3.1211703E4,0E0,5.803804E4,0E0,1.5034266E4,0E0,0E0,0E0,1.1652773E4,1.5870134E5,0E0,2.7991775E5,9.02832E0,3.1860469E3,0E0,0E0,0E0,0E0,0E0,0E0,0E0,0E0,0E0,0E0,0E0,0E0,0E0,0E0],"parents":[2147483647,0,0,1,1,2,2,3,3,4,4,5,5,6,6,7,7,8,8,9,9,10,10,11,11,13,13,15,15,19,19,20,20,22,22,23,23,24,24],"right_children":[2,4,6,8,10,12,14,16,18,20,22,24,-1,26,-1,28,-1,-1,-1,30,32,-1,34,36,38,-1,-1,-1,-1,-1,-1,-1,-1,-1,-1,-1,-1,-1,-1],"split_conditions":[1E1,4E0,1.2E1,1E0,1E0,1E0,1E0,1E0,2E0,5E0,5E0,1E0,-4.2256327E0,1E0,4.604211E0,1E0,4.6455927E0,-5.700515E0,-1.2938237E0,1E0,1E0,8.367527E0,7E0,1.1E1,1.1E1,-1.2435641E0,-5.7155743E0,1.6571394E0,3.1529994E0,-3.3549206E0,-1.2828153E0,1.1035866E0,4.6010966E0,-8.502455E0,-1.9539322E0,-1.3210844E0,-1.2142273E0,-3.9415948E0,-3.0812836E0],"split_indices":[0,0,0,4,3,2,3,1,0,0,0,1,0,1,0,2,0,0,0,1,1,0,0,0,0,0,0,0,0,0,0,0,0,0,0,0,0,0,0],"split_type":[0,0,0,0,0,0,0,0,0,0,0,0,0,0,0,0,0,0,0,0,0,0,0,0,0,0,0,0,0,0,0,0,0,0,0,0,0,0,0],"sum_hessian":[2E4,1.4921E4,5.079E3,5.032E3,9.889E3,3.336E3,1.743E3,3.946E3,1.086E3,6.982E3,2.907E3,2.462E3,8.74E2,1.233E3,5.1E2,2.428E3,1.518E3,3.68E2,7.18E2,1.206E3,5.776E3,4.7E2,2.437E3,8.47E2,1.615E3,8.58E2,3.75E2,1.193E3,1.235E3,8.63E2,3.43E2,4.152E3,1.624E3,9.88E2,1.449E3,4.29E2,4.18E2,8.2E2,7.95E2],"tree_param":{"num_deleted":"0","num_feature":"5","num_nodes":"39","size_leaf_vector":"1"}},{"base_weights":[-1.8882572E-3,2.3346312E0,-4.594214E0,1.1951145E0,5.7948036E0,-5.7913623E0,-1.1580168E0,3.6526647E0,-3.853538E0,1.0833438E1,-1.8290203E0,-6.954073E0,-1.0842807E0,-6.0890923E0,3.225651E0,-2.4755941E-1,1.2908222E1,3.0920455E0,-5.9542975E0,8.123462E0,4.6911154E0,-9.178896E0,-2.4975617E0,1.032902E1,-7.4593596E0,-8.709291E-1,-4.005463E0,5.6578416E-1,-1.9381522E0,3.2528327E0,5.8625984E0,7.946728E-2,3.205678E0,1.8584241E0,3.144631E0,-1.9162793E0,-3.5680141E0,-1.9534998E0,1.440207E0,3.3789818E0,2.7917302E0],"categories":[],"categories_nodes":[],"categories_segments":[],"categories_sizes":[],"default_left":[0,0,0,0,0,0,0,0,0,0,0,0,0,0,0,0,0,0,0,0,0,0,0,0,0,0,0,0,0,0,0,0,0,0,0,0,0,0,0,0,0],"id":3,"left_children":[1,3,5,7,9,11,13,15,17,19,-1,21,23,25,-1,27,29,31,-1,33,-1,35,37,39,-1,-1,-1,-1,-1,-1,-1,-1,-1,-1,-1,-1,-1,-1,-1,-1,-1],"loss_changes":[2.1462264E5,5.226443E4,2.7739766E4,1.2376465E5,1.9683384E5,2.7368281E4,1.0249065E5,2.4218972E5,3.628764E5,2.990475E4,0E0,3.9745938E4,2.694967E5,2.8513688E4,0E0,6.259076E4,2.7040812E4,4.8901566E4,0E0,6.6541562E3,0E0,2.0192328E4,3.919993E4,5.3664844E2,0E0,0E0,0E0,0E0,0E0,0E0,0E0,0E0,0E0,0E0,0E0,0E0,0E0,0E0,0E0,0E0,0E0],"parents":[2147483647,0,0,1,1,2,2,3,3,4,4,5,5,6,6,7,7,8,8,9,9,11,11,12,12,13,13,15,15,16,16,17,17,19,19,21,21,22,22,23,23],"right_children":[2,4,6,8,10,12,14,16,18,20,-1,22,24,26,-1,28,30,32,-1,34,-1,36,38,40,-1,-1,-1,-1,-1,-1,-1,-1,-1,-1,-1,-1,-1,-1,-1,-1,-1],"split_conditions":[9E0,7E0,1.2E1,5E0,1E0,1E0,1E0,1E0,1E0,1E0,-1.8290203E0,1.1E1,1.1E1,1E0,3.225651E0,4E0,4E0,1E0,-5.9542975E0,1E0,4.6911154E0,1E1,1E0,1E1,-7.4593596E0,-8.709291E-1,-4.005463E0,5.6578416E-1,-1.9381522E0,3.2528327E0,5.8625984E0,7.946728E-2,3.205678E0,1.8584241E0,3.144631E0,-1.9162793E0,-3.5680141E0,-1.9534998E0,1.440207E0,3.3789818E0,2.7917302E0],"split_indices":[0,0,0,0,3,4,3,3,3,2,0,0,0,1,0,0,0,1,0,1,0,0,1,0,0,0,0,0,0,0,0,0,0,0,0,0,0,0,0,0,0],"split_type":[0,0,0,0,0,0,0,0,0,0,0,0,0,0,0,0,0,0,0,0,0,0,0,0,0,0,0,0,0,0,0,0,0,0,0,0,0,0,0,0,0],"sum_hessian":[2E4,1.3256E4,6.744E3,9.973E3,3.283E3,5.001E3,1.743E3,6.708E3,3.265E3,2.306E3,9.77E2,4.01E3,9.91E2,1.233E3,5.1E2,4.72E3,1.988E3,2.277E3,9.88E2,1.476E3,8.3E2,2.674E3,1.336E3,6.7E2,3.21E2,8.58E2,3.75E2,3.514E3,1.206E3,1.518E3,4.7E2,1.66E3,6.17E2,8.14E2,6.62E2,1.32E3,1.354E3,8.62E2,4.74E2,3.45E2,3.25E2],"tree_param":{"num_deleted":"0","num_feature":"5","num_nodes":"41","size_leaf_vector":"1"}},{"base_weights":[-1.1215154E-3,1.6352185E0,-3.2172756E0,6.631976E-1,4.543179E0,-2.2943397E0,-5.8666177E0,2.2190511E0,-9.424159E-1,2.4035068E0,3.2854738E0,-4.9719494E-2,-3.032994E0,-7.1833143E0,-5.9331894E-1,-2.2169614E0,9.040339E0,4.549824E0,-9.116044E0,2.0382679E0,-1.9192102E0,-2.161227E0,3.649973E0,-1.60916E0,-6.852924E0,-6.746327E0,-2.4026222E0,2.3644216E-1,-1.692242E0,2.2776258E0,4.107552E0,6.9564784E-1,2.2250812E0,-4.169815E0,-1.2808748E0,-1.7070926E0,9.019612E-3,2.3682168E0,1.6131157E-1,-2.7951474E0,6.9277513E-1,1.9567806E0,-3.929723E0,-2.1888993E0,-1.8557327E0],"categories":[],"categories_nodes":[],"categories_segments":[],"categories_sizes":[],"default_left":[0,0,0,0,0,0,0,0,0,0,0,0,0,0,0,0,0,0,0,0,0,0,0,0,0,0,0,0,0,0,0,0,0,0,0,0,0,0,0,0,0,0,0,0,0],"id":4,"left_children":[1,3,5,7,9,11,13,15,17,19,-1,21,23,25,-1,27,29,31,33,-1,35,-1,37,39,41,43,-1,-1,-1,-1,-1,-1,-1,-1,-1,-1,-1,-1,-1,-1,-1,-1,-1,-1,-1],"loss_changes":[1.0526496E5,3.7469207E4,1.6479234E4,2.4825703E4,4.551082E4,8.296477E3,8.905672E3,1.5273881E5,2.1960594E5,4.7291805E4,0E0,3.2847816E4,2.0466605E4,4.152422E2,0E0,3.1478508E4,1.32950625E4,1.8699027E4,4.5517016E4,0E0,9.232914E3,0E0,1.080049E4,8.289881E4,8.546901E4,2.1908594E2,0E0,0E0,0E0,0E0,0E0,0E0,0E0,0E0,0E0,0E0,0E0,0E0,0E0,0E0,0E0,0E0,0E0,0E0,0E0],"parents":[2147483647,0,0,1,1,2,2,3,3,4,4,5,5,6,6,7,7,8,8,9,9,11,11,12,12,13,13,15,15,16,16,17,17,18,18,20,20,22,22,23,23,24,24,25,25],"right_children":[2,4,6,8,10,12,14,16,18,20,-1,22,24,26,-1,28,30,32,34,-1,36,-1,38,40,42,44,-1,-1,-1,-1,-1,-1,-1,-1,-1,-1,-1,-1,-1,-1,-1,-1,-1,-1,-1],"split_conditions":[9E0,1E0,1E0,5E0,7E0,1E1,1.2E1,1E0,1E0,4E0,3.2854738E0,1E0,1E0,1.1E1,-5.9331894E-1,1E0,4E0,1E0,7E0,2.0382679E0,5E0,-2.161227E0,1E0,1.1E1,1.1E1,1E1,-2.4026222E0,2.3644216E-1,-1.692242E0,2.2776258E0,4.107552E0,6.9564784E-1,2.2250812E0,-4.169815E0,-1.2808748E0,-1.7070926E0,9.019612E-3,2.3682168E0,1.6131157E-1,-2.7951474E0,6.9277513E-1,1.9567806E0,-3.929723E0,-2.1888993E0,-1.8557327E0],"split_indices":[0,2,2,0,0,0,0,3,3,0,0,1,4,0,0,1,0,1,0,0,0,0,3,0,0,0,0,0,0,0,0,0,0,0,0,0,0,0,0,0,0,0,0,0,0],"split_type":[0,0,0,0,0,0,0,0,0,0,0,0,0,0,0,0,0,0,0,0,0,0,0,0,0,0,0,0,0,0,0,0,0,0,0,0,0,0,0,0,0,0,0,0,0],"sum_hessian":[2E4,1.3256E4,6.744E3,9.936E3,3.32E3,5.003E3,1.741E3,5.046E3,4.89E3,2.49E3,8.3E2,1.239E3,3.764E3,1.3E3,4.41E2,3.058E3,1.988E3,2.925E3,1.965E3,1.235E3,1.255E3,4.22E2,8.17E2,2.743E3,1.021E3,8.56E2,4.44E2,1.629E3,1.429E3,1.518E3,4.7E2,1.646E3,1.279E3,9.88E2,9.77E2,4.27E2,8.28E2,3.45E2,4.72E2,9.24E2,1.819E3,3.25E2,6.96E2,4.26E2,4.3E2],"tree_param":{"num_deleted":"0","num_feature":"5","num_nodes":"45","size_leaf_vector":"1"}},{"base_weights":[-1.0213747E-3,1.145107E0,-2.2536862E0,4.6447954E-1,3.1813164E0,-2.9745808E0,-1.847821E-1,1.5543121E0,-6.602086E-1,1.6825911E0,2.301017E0,-2.2502868E0,-5.0332756E0,-3.0941825E0,2.0524235E0,-1.5523492E0,6.3314476E0,3.1858745E0,-6.3840027E0,1.4272819E0,-1.3447981E0,-3.450663E-2,-3.3649101E0,-4.7271485E0,-1.6834553E0,-2.0648851E0,-1.6312381E0,1.655529E-1,-1.1849246E0,1.594788E0,2.8779027E0,4.870801E-1,1.5580779E0,-2.9201355E0,-8.970049E-1,-1.1961615E0,6.317492E-3,-1.5143913E0,7.674219E-1,2.6237386E-1,-1.6762532E0,-1.5337671E0,-1.3003047E0,-8.334212E-1,-4.1572592E-1],"categories":[],"categories_nodes":[],"categories_segments":[],"categories_sizes":[],"default_left":[0,0,0,0,0,0,0,0,0,0,0,0,0,0,0,0,0,0,0,0,0,0,0,0,0,0,0,0,0,0,0,0,0,0,0,0,0,0,0,0,0,0,0,0,0],"id":5,"left_children":[1,3,5,7,9,11,13,15,17,19,-1,21,23,25,-1,27,29,31,33,-1,35,37,39,41,-1,43,-1,-1,-1,-1,-1,-1,-1,-1,-1,-1,-1,-1,-1,-1,-1,-1,-1,-1,-1],"loss_changes":[5.1642027E4,1.83714E4,1.0059359E4,1.2181023E4,2.2328742E4,7.4471562E3,3.567204E4,7.491206E4,1.0769173E5,2.3195781E4,0E0,9.142934E3,2.0376953E2,2.9650938E3,0E0,1.5433578E4,6.5367344E3,9.169281E3,2.2322578E4,0E0,4.533174E3,1.6130189E4,2.3212977E4,1.0758008E2,0E0,4.1220435E2,0E0,0E0,0E0,0E0,0E0,0E0,0E0,0E0,0E0,0E0,0E0,0E0,0E0,0E0,0E0,0E0,0E0,0E0,0E0],"parents":[2147483647,0,0,1,1,2,2,3,3,4,4,5,5,6,6,7,7,8,8,9,9,11,11,12,12,13,13,15,15,16,16,17,17,18,18,20,20,21,21,22,22,23,23,25,25],"right_children":[2,4,6,8,10,12,14,16,18,20,-1,22,24,26,-1,28,30,32,34,-1,36,38,40,42,-1,44,-1,-1,-1,-1,-1,-1,-1,-1,-1,-1,-1,-1,-1,-1,-1,-1,-1,-1,-1],"split_conditions":[9E0,1E0,1.2E1,5E0,7E0,1E0,1E0,1E0,1E0,4E0,2.301017E0,1E1,1.1E1,1E0,2.0524235E0,1E0,4E0,1E0,7E0,1.4272819E0,5E0,1E0,1E0,1E1,-1.6834553E0,1E0,-1.6312381E0,1.655529E-1,-1.1849246E0,1.594788E0,2.8779027E0,4.870801E-1,1.5580779E0,-2.9201355E0,-8.970049E-1,-1.1961615E0,6.317492E-3,-1.5143913E0,7.674219E-1,2.6237386E-1,-1.6762532E0,-1.5337671E0,-1.3003047E0,-8.334212E-1,-4.1572592E-1],"split_indices":[0,2,0,0,0,2,3,3,3,0,0,0,0,1,0,1,0,1,0,0,0,1,1,0,0,2,0,0,0,0,0,0,0,0,0,0,0,0,0,0,0,0,0,0,0],"split_type":[0,0,0,0,0,0,0,0,0,0,0,0,0,0,0,0,0,0,0,0,0,0,0,0,0,0,0,0,0,0,0,0,0,0,0,0,0,0,0,0,0,0,0,0,0],"sum_hessian":[2E4,1.3256E4,6.744E3,9.936E3,3.32E3,5.001E3,1.743E3,5.046E3,4.89E3,2.49E3,8.3E2,3.701E3,1.3E3,1.233E3,5.1E2,3.058E3,1.988E3,2.925E3,1.965E3,1.235E3,1.255E3,1.239E3,2.462E3,8.56E2,4.44E2,8.58E2,3.75E2,1.629E3,1.429E3,1.518E3,4.7E2,1.646E3,1.279E3,9.88E2,9.77E2,4.27E2,8.28E2,4.22E2,8.17E2,8.47E2,1.615E3,4.26E2,4.3E2,4.17E2,4.41E2],"tree_param":{"num_deleted":"0","num_feature":"5","num_nodes":"45","size_leaf_vector":"1"}},{"base_weights":[-8.790943E-4,8.018935E-1,-1.578693E0,3.2864797E-1,2.2389667E0,-2.0835416E0,-1.2982185E-1,1.7206575E0,-1.0890598E0,4.074829E0,-6.281791E-1,-2.5664952E0,-1.2869279E-1,-2.1682622E0,1.437902E0,3.3533442E0,-4.209366E0,-2.082977E0,3.0304692E0,3.342355E0,1.6115423E0,-3.677519E0,-3.4169626E-1,5.4914217E0,-3.551932E0,-1.4468745E0,-1.1431679E0,9.3638474E-1,1.1166666E0,-3.303459E0,-2.1376628E-1,-1.9433345E-1,-8.4148127E-1,5.4130656E-1,1.1124189E0,1.0988528E0,9.0930736E-1,-5.34738E-1,-2.1052446E0,-8.7625223E-1,1.3034763E0,1.4302425E0,1.872881E0,-5.839934E-1,-2.912904E-1],"categories":[],"categories_nodes":[],"categories_segments":[],"categories_sizes":[],"default_left":[0,0,0,0,0,0,0,0,0,0,0,0,0,0,0,0,0,0,0,0,0,0,0,0,0,0,0,0,0,0,0,0,0,0,0,0,0,0,0,0,0,0,0,0,0],"id":6,"left_children":[1,3,5,7,9,11,13,15,17,19,-1,21,23,25,-1,27,29,31,33,35,-1,37,39,41,-1,43,-1,-1,-1,-1,-1,-1,-1,-1,-1,-1,-1,-1,-1,-1,-1,-1,-1,-1,-1],"loss_changes":[2.5335047E4,9.015196E3,4.9334297E3,1.9685191E4,2.6131447E4,4.7220625E3,1.7511244E4,4.874297E4,2.0241188E4,2.1737031E3,0E0,9.913152E3,6.535609E4,1.4564468E3,0E0,3.262578E2,2.5847406E4,4.124158E3,7.9171484E2,1.3627148E2,0E0,1.691871E4,1.6173629E4,3.3530078E2,0E0,2.024176E2,0E0,0E0,0E0,0E0,0E0,0E0,0E0,0E0,0E0,0E0,0E0,0E0,0E0,0E0,0E0,0E0,0E0,0E0,0E0],"parents":[2147483647,0,0,1,1,2,2,3,3,4,4,5,5,6,6,7,7,8,8,9,9,11,11,12,12,13,13,15,15,16,16,17,17,18,18,19,19,21,21,22,22,23,23,25,25],"right_children":[2,4,6,8,10,12,14,16,18,20,-1,22,24,26,-1,28,30,32,34,36,-1,38,40,42,-1,44,-1,-1,-1,-1,-1,-1,-1,-1,-1,-1,-1,-1,-1,-1,-1,-1,-1,-1,-1],"split_conditions":[9E0,7E0,1.2E1,4E0,1E0,1E0,1E0,1E0,1E0,1E0,-6.281791E-1,1.1E1,1.1E1,1E0,1.437902E0,1E0,2E0,5E0,5E0,8E0,1.6115423E0,1E0,1E0,1E1,-3.551932E0,1E0,-1.1431679E0,9.3638474E-1,1.1166666E0,-3.303459E0,-2.1376628E-1,-1.9433345E-1,-8.4148127E-1,5.4130656E-1,1.1124189E0,1.0988528E0,9.0930736E-1,-5.34738E-1,-2.1052446E0,-8.7625223E-1,1.3034763E0,1.4302425E0,1.872881E0,-5.839934E-1,-2.912904E-1],"split_indices":[0,0,0,0,3,4,3,4,4,2,0,0,0,1,0,1,0,0,0,0,0,1,1,0,0,2,0,0,0,0,0,0,0,0,0,0,0,0,0,0,0,0,0,0,0],"split_type":[0,0,0,0,0,0,0,0,0,0,0,0,0,0,0,0,0,0,0,0,0,0,0,0,0,0,0,0,0,0,0,0,0,0,0,0,0,0,0,0,0,0,0,0,0],"sum_hessian":[2E4,1.3256E4,6.744E3,9.973E3,3.283E3,5.001E3,1.743E3,5.032E3,4.941E3,2.306E3,9.77E2,4.01E3,9.91E2,1.233E3,5.1E2,3.946E3,1.086E3,3.981E3,9.6E2,1.476E3,8.3E2,2.674E3,1.336E3,6.7E2,3.21E2,8.58E2,3.75E2,2.428E3,1.518E3,3.68E2,7.18E2,1.333E3,2.648E3,3.43E2,6.17E2,7.22E2,7.54E2,1.707E3,9.67E2,8.62E2,4.74E2,3.45E2,3.25E2,4.17E2,4.41E2],"tree_param":{"num_deleted":"0","num_feature":"5","num_nodes":"45","size_leaf_vector":"1"}},{"base_weights":[-6.610826E-4,5.6148654E-1,-1.1055373E0,1.7709333E-1,1.7114877E0,-6.823761E-1,-2.320459E0,8.0087847E-1,-4.6662384E-1,1.0266793E0,1.1286616E0,5.6064534E-1,-1.091583E0,-2.8758883E0,-2.0410101E-1,-1.0375779E0,3.6279457E0,1.7300451E0,-3.7356913E0,2.395848E0,-3.2150468E-1,-9.0110576E-1,2.4031286E0,4.307622E-1,-1.8611453E0,-2.778198E0,-9.172687E-1,-1.13110654E-1,-8.9011914E-1,7.818864E-1,2.0745432E0,3.2031593E-1,7.74276E-1,-1.7927911E0,-4.3991852E-1,7.577125E-1,6.982114E-1,-7.7998763E-1,2.565642E-1,1.0024093E0,5.1351833E-1,1.0603458E0,-3.4984976E-1,-1.5128949E0,-9.180887E-2,-9.146691E-1,-7.510697E-1],"categories":[],"categories_nodes":[],"categories_segments":[],"categories_sizes":[],"default_left":[0,0,0,0,0,0,0,0,0,0,0,0,0,0,0,0,0,0,0,0,0,0,0,0,0,0,0,0,0,0,0,0,0,0,0,0,0,0,0,0,0,0,0,0,0,0,0],"id":7,"left_children":[1,3,5,7,9,11,13,15,17,19,-1,21,23,25,-1,27,29,31,33,35,37,-1,39,41,43,45,-1,-1,-1,-1,-1,-1,-1,-1,-1,-1,-1,-1,-1,-1,-1,-1,-1,-1,-1,-1,-1],"loss_changes":[1.2423313E4,5.859989E3,3.4660732E3,3.9904885E3,4.6599775E3,2.5459116E3,1.584957E3,2.6235242E4,3.512902E4,4.598885E3,0E0,8.1505723E3,4.411648E3,1.4595703E1,0E0,3.8975981E3,6.6618164E3,1.646208E3,9.986104E3,5.112793E0,3.369684E3,0E0,5.2491504E2,6.2739966E3,1.2373716E4,5.6078125E1,0E0,0E0,0E0,0E0,0E0,0E0,0E0,0E0,0E0,0E0,0E0,0E0,0E0,0E0,0E0,0E0,0E0,0E0,0E0,0E0,0E0],"parents":[2147483647,0,0,1,1,2,2,3,3,4,4,5,5,6,6,7,7,8,8,9,9,11,11,12,12,13,13,15,15,16,16,17,17,18,18,19,19,20,20,22,22,23,23,24,24,25,25],"right_children":[2,4,6,8,10,12,14,16,18,20,-1,22,24,26,-1,28,30,32,34,36,38,-1,40,42,44,46,-1,-1,-1,-1,-1,-1,-1,-1,-1,-1,-1,-1,-1,-1,-1,-1,-1,-1,-1,-1,-1],"split_conditions":[9E0,1E0,1E0,5E0,7E0,1E1,1.2E1,1E0,1E0,4E0,1.1286616E0,1E0,1E0,1.1E1,-2.0410101E-1,4E0,4E0,1E0,7E0,2E0,5E0,-9.0110576E-1,1E0,1.1E1,1.1E1,1E1,-9.172687E-1,-1.13110654E-1,-8.9011914E-1,7.818864E-1,2.0745432E0,3.2031593E-1,7.74276E-1,-1.7927911E0,-4.3991852E-1,7.577125E-1,6.982114E-1,-7.7998763E-1,2.565642E-1,1.0024093E0,5.1351833E-1,1.0603458E0,-3.4984976E-1,-1.5128949E0,-9.180887E-2,-9.146691E-1,-7.510697E-1],"split_indices":[0,2,2,0,0,0,0,3,3,0,0,1,1,0,0,0,0,1,0,0,0,0,3,0,0,0,0,0,0,0,0,0,0,0,0,0,0,0,0,0,0,0,0,0,0,0,0],"split_type":[0,0,0,0,0,0,0,0,0,0,0,0,0,0,0,0,0,0,0,0,0,0,0,0,0,0,0,0,0,0,0,0,0,0,0,0,0,0,0,0,0,0,0,0,0,0,0],"sum_hessian":[2E4,1.3256E4,6.744E3,9.936E3,3.32E3,5.003E3,1.741E3,5.046E3,4.89E3,2.49E3,8.3E2,1.239E3,3.764E3,1.3E3,4.41E2,3.058E3,1.988E3,2.925E3,1.965E3,1.235E3,1.255E3,4.22E2,8.17E2,1.264E3,2.5E3,8.56E2,4.44E2,2.279E3,7.79E2,1.518E3,4.7E2,1.646E3,1.279E3,9.88E2,9.77E2,4.14E2,8.21E2,4.27E2,8.28E2,3.45E2,4.72E2,4.29E2,8.35E2,8.2E2,1.68E3,4.26E2,4.3E2],"tree_param":{"num_deleted":"0","num_feature":"5","num_nodes":"47","size_leaf_vector":"1"}},{"base_weights":[-4.7702913E-4,3.9325035E-1,-7.7433074E-1,1.2403795E-1,1.1986614E0,-1.0757577E0,9.064185E-2,5.6098306E-1,-3.26869E-1,7.190493E-1,7.9047036E-1,-2.5508803E-1,-1.4851553E0,-1.3003565E0,1.0348645E0,-7.266319E-1,2.5409997E0,1.2114061E0,-2.6161194E0,1.678271E0,-2.2547068E-1,-6.36934E-1,1.6840421E0,-6.873116E-1,-3.4313502E0,-7.392147E-1,-7.736605E-1,-8.7253636E-1,-7.999813E-3,5.474759E-1,1.4535004E0,1.7797521E-1,5.452324E-1,-1.2554976E0,-3.080779E-1,5.3094625E-1,4.890027E-1,-5.465381E-1,1.7968751E-1,7.0255524E-1,3.5978824E-1,5.6381404E-1,-9.766772E-1,-2.914062E0,9.407407E-1,-3.045111E-1,-1.4300907E-1],"categories":[],"categories_nodes":[],"categories_segments":[],"categories_sizes":[],"default_left":[0,0,0,0,0,0,0,0,0,0,0,0,0,0,0,0,0,0,0,0,0,0,0,0,0,0,0,0,0,0,0,0,0,0,0,0,0,0,0,0,0,0,0,0,0,0,0],"id":8,"left_children":[1,3,5,7,9,11,13,15,17,19,-1,21,23,25,-1,27,29,31,33,35,37,-1,39,41,43,45,-1,-1,-1,-1,-1,-1,-1,-1,-1,-1,-1,-1,-1,-1,-1,-1,-1,-1,-1,-1,-1],"loss_changes":[6.094357E3,2.8743223E3,1.7586953E3,1.9579869E3,2.2857358E3,1.6801938E3,8.152861E3,1.2869167E4,1.7226812E4,2.2572344E3,0E0,6.0384004E3,5.1792E3,8.833977E2,0E0,4.6716304E3,3.27271E3,1.0950713E3,4.897414E3,2.5766602E0,1.6540563E3,0E0,2.5802832E2,1.5615926E4,4.0048875E4,6.1714844E1,0E0,0E0,0E0,0E0,0E0,0E0,0E0,0E0,0E0,0E0,0E0,0E0,0E0,0E0,0E0,0E0,0E0,0E0,0E0,0E0,0E0],"parents":[2147483647,0,0,1,1,2,2,3,3,4,4,5,5,6,6,7,7,8,8,9,9,11,11,12,12,13,13,15,15,16,16,17,17,18,18,19,19,20,20,22,22,23,23,24,24,25,25],"right_children":[2,4,6,8,10,12,14,16,18,20,-1,22,24,26,-1,28,30,32,34,36,38,-1,40,42,44,46,-1,-1,-1,-1,-1,-1,-1,-1,-1,-1,-1,-1,-1,-1,-1,-1,-1,-1,-1,-1,-1],"split_conditions":[9E0,1E0,1.2E1,5E0,7E0,1E1,1E0,1E0,1E0,4E0,7.9047036E-1,1E0,1E0,1E0,1.0348645E0,2E0,4E0,7E0,7E0,2E0,5E0,-6.36934E-1,1E0,1.1E1,1.1E1,1E0,-7.736605E-1,-8.7253636E-1,-7.999813E-3,5.474759E-1,1.4535004E0,1.7797521E-1,5.452324E-1,-1.2554976E0,-3.080779E-1,5.3094625E-1,4.890027E-1,-5.465381E-1,1.7968751E-1,7.0255524E-1,3.5978824E-1,5.6381404E-1,-9.766772E-1,-2.914062E0,9.407407E-1,-3.045111E-1,-1.4300907E-1],"split_indices":[0,2,0,0,0,0,3,3,3,0,0,1,3,1,0,0,0,0,0,0,0,0,3,0,0,2,0,0,0,0,0,0,0,0,0,0,0,0,0,0,0,0,0,0,0,0,0],"split_type":[0,0,0,0,0,0,0,0,0,0,0,0,0,0,0,0,0,0,0,0,0,0,0,0,0,0,0,0,0,0,0,0,0,0,0,0,0,0,0,0,0,0,0,0,0,0,0],"sum_hessian":[2E4,1.3256E4,6.744E3,9.936E3,3.32E3,5.001E3,1.743E3,5.046E3,4.89E3,2.49E3,8.3E2,1.665E3,3.336E3,1.233E3,5.1E2,3.058E3,1.988E3,2.925E3,1.965E3,1.235E3,1.255E3,8.48E2,8.17E2,2.367E3,9.69E2,8.58E2,3.75E2,7.42E2,2.316E3,1.518E3,4.7E2,1.449E3,1.476E3,9.88E2,9.77E2,4.14E2,8.21E2,4.27E2,8.28E2,3.45E2,4.72E2,1.184E3,1.183E3,4.95E2,4.74E2,4.17E2,4.41E2],"tree_param":{"num_deleted":"0","num_feature":"5","num_nodes":"47","size_leaf_vector":"1"}},{"base_weights":[-3.5556874E-4,6.858534E-1,-2.3107836E-1,1.5730042E0,-2.5361063E0,-4.4559658E-1,6.288661E-1,1.7535361E0,1.1756132E0,-2.0202138E0,-3.7814295E-1,-7.3324674E-1,5.41086E-1,2.1319082E0,-4.316765E0,2.3572936E0,1.2778022E0,3.7204662E-1,3.4247935E-1,-1.5472394E-1,-7.298203E-2,-4.1037792E-1,-2.6205947E0,-4.735002E-1,2.31323E0,1.6023902E0,1.5965908E0,-2.170112E0,-5.421796E-1,7.7704227E-1,6.743802E-1,4.8902112E-1,3.311607E-1,-3.2180226E-1,7.762286E-2,-6.1203923E-2,-2.0416057E0,-5.295131E-2,-2.2596033E-1,6.591121E-1,7.250122E-1,5.43857E-1,3.589633E-1],"categories":[],"categories_nodes":[],"categories_segments":[],"categories_sizes":[],"default_left":[0,0,0,0,0,0,0,0,0,0,0,0,0,0,0,0,0,0,0,0,0,0,0,0,0,0,0,0,0,0,0,0,0,0,0,0,0,0,0,0,0,0,0],"id":9,"left_children":[1,3,5,7,9,11,13,15,17,-1,19,21,23,25,27,29,31,-1,-1,-1,-1,33,35,37,39,41,-1,-1,-1,-1,-1,-1,-1,-1,-1,-1,-1,-1,-1,-1,-1,-1,-1],"loss_changes":[3.1667979E3,1.4390137E4,2.7616677E3,2.8110254E2,9.844586E3,3.4008376E3,2.222791E4,7.759502E2,1.2979736E0,0E0,1.3218109E1,5.652012E3,4.864666E3,3.8647969E3,5.089009E3,2.4582031E1,9.1271484E1,0E0,0E0,0E0,0E0,3.5114045E3,1.3701469E4,1.4283054E2,6.533203E0,1.6593115E2,0E0,0E0,0E0,0E0,0E0,0E0,0E0,0E0,0E0,0E0,0E0,0E0,0E0,0E0,0E0,0E0,0E0],"parents":[2147483647,0,0,1,1,2,2,3,3,4,4,5,5,6,6,7,7,8,8,10,10,11,11,12,12,13,13,14,14,15,15,16,16,21,21,22,22,23,23,24,24,25,25],"right_children":[2,4,6,8,10,12,14,16,18,-1,20,22,24,26,28,30,32,-1,-1,-1,-1,34,36,38,40,42,-1,-1,-1,-1,-1,-1,-1,-1,-1,-1,-1,-1,-1,-1,-1,-1,-1],"split_conditions":[4E0,1E0,1E0,1E0,2E0,1.1E1,1.1E1,1E0,2E0,-2.0202138E0,3E0,1E1,1E0,1E1,1.2E1,2E0,2E0,3.7204662E-1,3.4247935E-1,-1.5472394E-1,-7.298203E-2,7E0,1E0,1E0,1.2E1,8E0,1.5965908E0,-2.170112E0,-5.421796E-1,7.7704227E-1,6.743802E-1,4.8902112E-1,3.311607E-1,-3.2180226E-1,7.762286E-2,-6.1203923E-2,-2.0416057E0,-5.295131E-2,-2.2596033E-1,6.591121E-1,7.250122E-1,5.43857E-1,3.589633E-1],"split_indices":[0,4,4,2,0,0,0,1,0,0,0,0,1,0,0,0,0,0,0,0,0,0,1,2,0,0,0,0,0,0,0,0,0,0,0,0,0,0,0,0,0,0,0],"split_type":[0,0,0,0,0,0,0,0,0,0,0,0,0,0,0,0,0,0,0,0,0,0,0,0,0,0,0,0,0,0,0,0,0,0,0,0,0,0,0,0,0,0,0],"sum_hessian":[2E4,5.032E3,1.4968E4,3.946E3,1.086E3,1.198E4,2.988E3,2.711E3,1.235E3,3.68E2,7.18E2,9.276E3,2.704E3,2.292E3,6.96E2,1.193E3,1.518E3,4.14E2,8.21E2,3.54E2,3.64E2,7.922E3,1.354E3,1.72E3,9.84E2,1.967E3,3.25E2,3.21E2,3.75E2,3.74E2,8.19E2,4.99E2,1.019E3,3.981E3,3.941E3,8.59E2,4.95E2,8.35E2,8.85E2,4.74E2,5.1E2,1.293E3,6.74E2],"tree_param":{"num_deleted":"0","num_feature":"5","num_nodes":"43","size_leaf_vector":"1"}},{"base_weights":[-2.8392946E-4,2.1668258E-1,-4.26722E-1,1.8149927E-2,8.1066096E-1,-1.5282078E-1,-1.2132747E0,2.9490802E-1,-2.6743916E-1,4.9101624E-1,1.7678504E0,1.21453814E-1,-2.4311233E-1,-1.9208435E0,-5.2749634E-1,-5.2997804E-1,1.5634005E0,7.0120215E-1,-1.7089331E0,8.235093E-1,1.634267E-1,5.538119E-1,5.077282E-1,-4.6401703E-1,9.8394465E-1,5.897065E-1,-6.6425294E-1,-4.7351065E-1,-6.76705E-1,-2.827261E-1,-3.256881E-2,5.2250153E-3,-6.388127E-1,2.6850027E-1,1.1147116E0,1.10588074E-1,3.0816695E-1,-7.827863E-1,-2.390114E-1,2.6070133E-1,2.3986158E-1,-2.8664374E-1,2.2227105E-1,3.8502088E-1,2.2884314E-1,5.9255E-1,-3.7084766E-2,-3.8061807E-1,1.3170405E-1],"categories":[],"categories_nodes":[],"categories_segments":[],"categories_sizes":[],"default_left":[0,0,0,0,0,0,0,0,0,0,0,0,0,0,0,0,0,0,0,0,0,0,0,0,0,0,0,0,0,0,0,0,0,0,0,0,0,0,0,0,0,0,0,0,0,0,0,0,0],"id":10,"left_children":[1,3,5,7,9,11,13,15,17,19,21,23,25,27,29,31,33,35,37,39,41,-1,-1,-1,43,45,47,-1,-1,-1,-1,-1,-1,-1,-1,-1,-1,-1,-1,-1,-1,-1,-1,-1,-1,-1,-1,-1,-1],"loss_changes":[1.8506405E3,1.5633052E3,1.4529421E3,7.8549036E2,1.01522705E3,1.2395196E2,8.442666E2,5.281817E3,6.830456E3,2.7118823E2,1.7763672E0,1.7856184E3,1.3209045E3,9.471533E1,1.539072E2,2.6781975E3,2.8580493E3,3.1687732E2,1.6126538E3,6.530762E-1,8.1226245E2,0E0,0E0,0E0,5.3189392E1,1.2504176E3,1.6684628E3,0E0,0E0,0E0,0E0,0E0,0E0,0E0,0E0,0E0,0E0,0E0,0E0,0E0,0E0,0E0,0E0,0E0,0E0,0E0,0E0,0E0,0E0],"parents":[2147483647,0,0,1,1,2,2,3,3,4,4,5,5,6,6,7,7,8,8,9,9,10,10,11,11,12,12,13,13,14,14,15,15,16,16,17,17,18,18,19,19,20,20,24,24,25,25,26,26],"right_children":[2,4,6,8,10,12,14,16,18,20,22,24,26,28,30,32,34,36,38,40,42,-1,-1,-1,44,46,48,-1,-1,-1,-1,-1,-1,-1,-1,-1,-1,-1,-1,-1,-1,-1,-1,-1,-1,-1,-1,-1,-1],"split_conditions":[9E0,1E0,1E0,5E0,7E0,1E1,1.1E1,1E0,1E0,4E0,8E0,1E0,1E0,1E1,1.2E1,4E0,4E0,7E0,7E0,2E0,5E0,5.538119E-1,5.077282E-1,-4.6401703E-1,1E0,1.1E1,1.2E1,-4.7351065E-1,-6.76705E-1,-2.827261E-1,-3.256881E-2,5.2250153E-3,-6.388127E-1,2.6850027E-1,1.1147116E0,1.10588074E-1,3.0816695E-1,-7.827863E-1,-2.390114E-1,2.6070133E-1,2.3986158E-1,-2.8664374E-1,2.2227105E-1,3.8502088E-1,2.2884314E-1,5.9255E-1,-3.7084766E-2,-3.8061807E-1,1.3170405E-1],"split_indices":[0,2,2,0,0,0,0,3,3,0,0,1,1,0,0,0,0,0,0,0,0,0,0,0,3,0,0,0,0,0,0,0,0,0,0,0,0,0,0,0,0,0,0,0,0,0,0,0,0],"split_type":[0,0,0,0,0,0,0,0,0,0,0,0,0,0,0,0,0,0,0,0,0,0,0,0,0,0,0,0,0,0,0,0,0,0,0,0,0,0,0,0,0,0,0,0,0,0,0,0,0],"sum_hessian":[2E4,1.3256E4,6.744E3,9.936E3,3.32E3,5.003E3,1.741E3,5.046E3,4.89E3,2.49E3,8.3E2,1.239E3,3.764E3,8.56E2,8.85E2,3.058E3,1.988E3,2.925E3,1.965E3,1.235E3,1.255E3,3.96E2,4.34E2,4.22E2,8.17E2,1.264E3,2.5E3,4.26E2,4.3E2,4.44E2,4.41E2,2.279E3,7.79E2,1.518E3,4.7E2,1.449E3,1.476E3,9.88E2,9.77E2,4.14E2,8.21E2,4.27E2,8.28E2,3.45E2,4.72E2,4.29E2,8.35E2,1.615E3,8.85E2],"tree_param":{"num_deleted":"0","num_feature":"5","num_nodes":"49","size_leaf_vector":"1"}},{"base_weights":[-1.67034E-4,1.5180163E-1,-2.9885474E-1,1.2719388E-2,5.6791383E-1,-1.0688305E-1,-8.501334E-1,2.0658387E-1,-1.8733107E-1,3.4388644E-1,1.2387733E0,8.51389E-2,-1.7009695E-1,-1.3459327E0,-3.6960268E-1,-3.7119228E-1,1.0950758E0,4.9098486E-1,-1.1967741E0,5.7686126E-1,1.1434758E-1,3.8808736E-1,3.557598E-1,-3.251413E-1,6.8951285E-1,4.1323528E-1,-4.6507704E-1,-3.317901E-1,-4.7416463E-1,-1.9809882E-1,-2.2819947E-2,3.657955E-3,-4.4741452E-1,1.8800293E-1,7.810093E-1,1.0001575E-2,1.9218384E-1,-5.481881E-1,-1.6738176E-1,1.8267858E-1,1.6799094E-1,-2.0085147E-1,1.556702E-1,2.6984948E-1,1.6033517E-1,2.7682805E-1,-1.8642914E-1,-2.6650327E-1,9.2237E-2],"categories":[],"categories_nodes":[],"categories_segments":[],"categories_sizes":[],"default_left":[0,0,0,0,0,0,0,0,0,0,0,0,0,0,0,0,0,0,0,0,0,0,0,0,0,0,0,0,0,0,0,0,0,0,0,0,0,0,0,0,0,0,0,0,0,0,0,0,0],"id":11,"left_children":[1,3,5,7,9,11,13,15,17,19,21,23,25,27,29,31,33,35,37,39,41,-1,-1,-1,43,45,47,-1,-1,-1,-1,-1,-1,-1,-1,-1,-1,-1,-1,-1,-1,-1,-1,-1,-1,-1,-1,-1,-1],"loss_changes":[9.0791425E2,7.6722595E2,7.137318E2,3.8542215E2,4.9869006E2,6.075532E1,4.1452856E2,2.5912815E3,3.3495593E3,1.3314471E2,8.775635E-1,8.767811E2,6.48041E2,4.6500854E1,7.555996E1,1.3137495E3,1.4035603E3,2.0034143E2,7.908811E2,3.284607E-1,3.9863745E2,0E0,0E0,0E0,2.6154022E1,6.6746606E2,8.180705E2,0E0,0E0,0E0,0E0,0E0,0E0,0E0,0E0,0E0,0E0,0E0,0E0,0E0,0E0,0E0,0E0,0E0,0E0,0E0,0E0,0E0,0E0],"parents":[2147483647,0,0,1,1,2,2,3,3,4,4,5,5,6,6,7,7,8,8,9,9,10,10,11,11,12,12,13,13,14,14,15,15,16,16,17,17,18,18,19,19,20,20,24,24,25,25,26,26],"right_children":[2,4,6,8,10,12,14,16,18,20,22,24,26,28,30,32,34,36,38,40,42,-1,-1,-1,44,46,48,-1,-1,-1,-1,-1,-1,-1,-1,-1,-1,-1,-1,-1,-1,-1,-1,-1,-1,-1,-1,-1,-1],"split_conditions":[9E0,1E0,1E0,5E0,7E0,1E1,1.1E1,1E0,1E0,4E0,8E0,1E0,1E0,1E1,1.2E1,4E0,4E0,6E0,7E0,2E0,5E0,3.8808736E-1,3.557598E-1,-3.251413E-1,1E0,1.2E1,1.2E1,-3.317901E-1,-4.7416463E-1,-1.9809882E-1,-2.2819947E-2,3.657955E-3,-4.4741452E-1,1.8800293E-1,7.810093E-1,1.0001575E-2,1.9218384E-1,-5.481881E-1,-1.6738176E-1,1.8267858E-1,1.6799094E-1,-2.0085147E-1,1.556702E-1,2.6984948E-1,1.6033517E-1,2.7682805E-1,-1.8642914E-1,-2.6650327E-1,9.2237E-2],"split_indices":[0,2,2,0,0,0,0,3,3,0,0,1,1,0,0,0,0,0,0,0,0,0,0,0,3,0,0,0,0,0,0,0,0,0,0,0,0,0,0,0,0,0,0,0,0,0,0,0,0],"split_type":[0,0,0,0,0,0,0,0,0,0,0,0,0,0,0,0,0,0,0,0,0,0,0,0,0,0,0,0,0,0,0,0,0,0,0,0,0,0,0,0,0,0,0,0,0,0,0,0,0],"sum_hessian":[2E4,1.3256E4,6.744E3,9.936E3,3.32E3,5.003E3,1.741E3,5.046E3,4.89E3,2.49E3,8.3E2,1.239E3,3.764E3,8.56E2,8.85E2,3.058E3,1.988E3,2.925E3,1.965E3,1.235E3,1.255E3,3.96E2,4.34E2,4.22E2,8.17E2,1.264E3,2.5E3,4.26E2,4.3E2,4.44E2,4.41E2,2.279E3,7.79E2,1.518E3,4.7E2,7.21E2,2.204E3,9.88E2,9.77E2,4.14E2,8.21E2,4.27E2,8.28E2,3.45E2,4.72E2,8.47E2,4.17E2,1.615E3,8.85E2],"tree_param":{"num_deleted":"0","num_feature":"5","num_nodes":"49","size_leaf_vector":"1"}},{"base_weights":[-1.142253E-4,1.0634139E-1,-2.0934802E-1,8.904902E-3,3.97856E-1,-7.481482E-2,-5.956826E-1,-5.8301634E-1,9.344461E-2,2.4084297E-1,8.680385E-1,-9.282677E-3,-2.4916092E-1,-9.430928E-1,-2.5897127E-1,1.1677192E0,-1.4184496E0,-1.0452063E-1,6.30896E-1,4.0408626E-1,8.0007344E-2,2.719553E-1,2.4927756E-1,-9.413414E-1,9.2226905E-1,2.450837E0,-2.848084E0,-2.3248594E-1,-3.322452E-1,-1.3880265E-1,-1.598958E-2,5.418952E-1,2.0593059E-1,2.6215854E-1,-1.5082105E-1,-8.216651E-2,3.0939987E-1,1.2800716E-1,1.1765476E-1,-1.4073682E-1,1.09025486E-1,5.4619506E-2,-5.787457E-1,-3.9599136E-2,5.4483634E-1,1.8912795E-1,1.3126234E0,-1.3275671E0,-4.469623E-1],"categories":[],"categories_nodes":[],"categories_segments":[],"categories_sizes":[],"default_left":[0,0,0,0,0,0,0,0,0,0,0,0,0,0,0,0,0,0,0,0,0,0,0,0,0,0,0,0,0,0,0,0,0,0,0,0,0,0,0,0,0,0,0,0,0,0,0,0,0],"id":12,"left_children":[1,3,5,7,9,11,13,15,17,19,21,23,25,27,29,31,-1,33,35,37,39,-1,-1,41,43,45,47,-1,-1,-1,-1,-1,-1,-1,-1,-1,-1,-1,-1,-1,-1,-1,-1,-1,-1,-1,-1,-1,-1],"loss_changes":[4.4552676E2,3.7655035E2,3.5052567E2,4.973104E2,2.4496301E2,5.7169746E1,2.035296E2,9.018789E3,9.2529144E2,6.5369705E1,4.335327E-1,3.1596016E3,9.599338E3,2.2829834E1,3.709553E1,2.6738147E2,0E0,2.476786E3,8.4844775E2,1.6523743E-1,1.9564108E2,0E0,0E0,2.0189191E3,1.7153313E3,2.3480999E3,1.4864409E3,0E0,0E0,0E0,0E0,0E0,0E0,0E0,0E0,0E0,0E0,0E0,0E0,0E0,0E0,0E0,0E0,0E0,0E0,0E0,0E0,0E0,0E0],"parents":[2147483647,0,0,1,1,2,2,3,3,4,4,5,5,6,6,7,7,8,8,9,9,10,10,11,11,12,12,13,13,14,14,15,15,17,17,18,18,19,19,20,20,23,23,24,24,25,25,26,26],"right_children":[2,4,6,8,10,12,14,16,18,20,22,24,26,28,30,32,-1,34,36,38,40,-1,-1,42,44,46,48,-1,-1,-1,-1,-1,-1,-1,-1,-1,-1,-1,-1,-1,-1,-1,-1,-1,-1,-1,-1,-1,-1],"split_conditions":[9E0,1E0,1E0,2E0,7E0,1E0,1.1E1,1E0,1E0,4E0,8E0,1.1E1,1.1E1,1E1,1.2E1,1E0,-1.4184496E0,4E0,4E0,2E0,5E0,2.719553E-1,2.4927756E-1,1E0,1E0,1E1,1.2E1,-2.3248594E-1,-3.322452E-1,-1.3880265E-1,-1.598958E-2,5.418952E-1,2.0593059E-1,2.6215854E-1,-1.5082105E-1,-8.216651E-2,3.0939987E-1,1.2800716E-1,1.1765476E-1,-1.4073682E-1,1.09025486E-1,5.4619506E-2,-5.787457E-1,-3.9599136E-2,5.4483634E-1,1.8912795E-1,1.3126234E0,-1.3275671E0,-4.469623E-1],"split_indices":[0,2,2,0,0,4,0,4,4,0,0,0,0,0,0,1,0,0,0,0,0,0,0,1,1,0,0,0,0,0,0,0,0,0,0,0,0,0,0,0,0,0,0,0,0,0,0,0,0],"split_type":[0,0,0,0,0,0,0,0,0,0,0,0,0,0,0,0,0,0,0,0,0,0,0,0,0,0,0,0,0,0,0,0,0,0,0,0,0,0,0,0,0,0,0,0,0,0,0,0,0],"sum_hessian":[2E4,1.3256E4,6.744E3,9.936E3,3.32E3,5.003E3,1.741E3,1.241E3,8.695E3,2.49E3,8.3E2,3.637E3,1.366E3,8.56E2,8.85E2,8.73E2,3.68E2,6.355E3,2.34E3,1.235E3,1.255E3,3.96E2,4.34E2,1.818E3,1.819E3,6.7E2,6.96E2,4.26E2,4.3E2,4.44E2,4.41E2,3.74E2,4.99E2,1.838E3,4.517E3,7.18E2,1.622E3,4.14E2,8.21E2,4.27E2,8.28E2,8.51E2,9.67E2,8.35E2,9.84E2,3.45E2,3.25E2,3.21E2,3.75E2],"tree_param":{"num_deleted":"0","num_feature":"5","num_nodes":"49","size_leaf_vector":"1"}},{"base_weights":[-1.1065636E-4,6.796961E-2,-2.0008972E-1,-2.3155989E-1,1.0535206E-1,-4.635037E-2,-3.586053E-1,6.5158415E-1,-9.9406797E-1,1.9916281E-2,4.4190305E-1,2.9695177E-1,-3.7631303E-1,-9.2359996E-1,-8.24487E-2,8.182589E-1,8.96979E-2,5.0787985E-1,-1.4391093E-1,-1.9183788E-1,6.7321295E-1,3.1599578E-1,-9.244411E-2,-2.3280299E-1,-1.8145336E-1,9.200447E-1,-1.0633413E0,-1.9962051E0,1.2718363E0,3.7976083E-1,1.4427435E-1,2.3670721E-1,1.65212E-2,-1.5008037E-1,6.482954E-2,-8.651528E-2,-2.9223306E-2,7.1772707E-1,9.265651E-2,6.3165255E-2,-1.1878284E-1,-9.725517E-2,-1.120307E-2,-9.30534E-1,-3.1323022E-1,4.9241552E-1,2.7775002E-1],"categories":[],"categories_nodes":[],"categories_segments":[],"categories_sizes":[],"default_left":[0,0,0,0,0,0,0,0,0,0,0,0,0,0,0,0,0,0,0,0,0,0,0,0,0,0,0,0,0,0,0,0,0,0,0,0,0,0,0,0,0,0,0,0,0,0,0],"id":13,"left_children":[1,3,5,7,9,11,13,15,-1,17,19,21,23,25,27,29,-1,31,33,35,37,-1,39,-1,41,-1,-1,43,45,-1,-1,-1,-1,-1,-1,-1,-1,-1,-1,-1,-1,-1,-1,-1,-1,-1,-1],"loss_changes":[2.723198E2,1.6710818E2,1.2378339E2,4.509542E3,3.814638E2,2.9236612E2,3.9014734E2,7.544861E1,0E0,8.460163E2,3.9387134E2,3.7267325E2,1.02355606E2,8.597186E3,4.3593066E3,1.3136426E2,0E0,3.385869E2,1.01656433E3,6.526726E0,1.2320317E3,0E0,7.6960724E1,0E0,1.8211908E1,0E0,0E0,7.3043945E2,1.24427246E2,0E0,0E0,0E0,0E0,0E0,0E0,0E0,0E0,0E0,0E0,0E0,0E0,0E0,0E0,0E0,0E0,0E0,0E0],"parents":[2147483647,0,0,1,1,2,2,3,3,4,4,5,5,6,6,7,7,9,9,10,10,11,11,12,12,13,13,14,14,15,15,17,17,18,18,19,19,20,20,22,22,24,24,27,27,28,28],"right_children":[2,4,6,8,10,12,14,16,-1,18,20,22,24,26,28,30,-1,32,34,36,38,-1,40,-1,42,-1,-1,44,46,-1,-1,-1,-1,-1,-1,-1,-1,-1,-1,-1,-1,-1,-1,-1,-1,-1,-1],"split_conditions":[1E1,2E0,1E0,1E0,1E0,1E0,1.1E1,1E0,-9.9406797E-1,4E0,4E0,1.1E1,1.1E1,1E0,1E0,1E0,8.96979E-2,1E0,7E0,3E0,5E0,3.1599578E-1,1.2E1,-2.3280299E-1,1.2E1,9.200447E-1,-1.0633413E0,1.2E1,1.2E1,3.7976083E-1,1.4427435E-1,2.3670721E-1,1.65212E-2,-1.5008037E-1,6.482954E-2,-8.651528E-2,-2.9223306E-2,7.1772707E-1,9.265651E-2,6.3165255E-2,-1.1878284E-1,-9.725517E-2,-1.120307E-2,-9.30534E-1,-3.1323022E-1,4.9241552E-1,2.7775002E-1],"split_indices":[0,0,1,4,4,2,0,2,0,0,0,0,0,3,3,1,0,1,0,0,0,0,0,0,0,0,0,0,0,0,0,0,0,0,0,0,0,0,0,0,0,0,0,0,0,0,0],"split_type":[0,0,0,0,0,0,0,0,0,0,0,0,0,0,0,0,0,0,0,0,0,0,0,0,0,0,0,0,0,0,0,0,0,0,0,0,0,0,0,0,0,0,0,0,0,0,0],"sum_hessian":[2E4,1.4921E4,5.079E3,1.655E3,1.3266E4,2.579E3,2.5E3,1.287E3,3.68E2,1.0581E4,2.685E3,1.264E3,1.315E3,8.2E2,1.68E3,8.73E2,4.14E2,2.659E3,7.922E3,7.18E2,1.967E3,4.29E2,8.35E2,4.3E2,8.85E2,3.25E2,4.95E2,6.96E2,9.84E2,3.74E2,4.99E2,1.64E3,1.019E3,3.981E3,3.941E3,3.54E2,3.64E2,3.43E2,1.624E3,4.18E2,4.17E2,4.44E2,4.41E2,3.21E2,3.75E2,4.74E2,5.1E2],"tree_param":{"num_deleted":"0","num_feature":"5","num_nodes":"47","size_leaf_vector":"1"}},{"base_weights":[-8.814981E-5,6.0419746E-2,-1.19013734E-1,-2.7897311E-3,2.4953511E-1,-3.9221425E-2,-3.4815365E-1,-2.8643346E-1,3.77218E-2,2.5125487E-2,4.743354E-1,1.3625003E-1,-9.70024E-2,-5.762408E-1,-1.2713915E-1,5.7338226E-1,-6.966557E-1,3.1983373E-1,-7.976971E-2,9.5784165E-2,-5.369548E-2,4.0442634E-1,5.4350543E-1,-2.6357952E-1,6.608767E-1,2.0807283E-1,-2.5126997E-1,-1.8230693E-1,-1.6312402E-1,-6.8144016E-2,-7.849544E-3,2.661364E-1,1.0107937E-1,3.2017398E-1,-9.895401E-3,-8.6128704E-2,1.4922592E-1,6.2853105E-2,1.1475342E-2,1.5241946E-1,8.593914E-2,1.711745E-1,1.5526354E-1,1.0483705E-1,2.6618505E-1,2.2141798E-1,-1.9433115E-2,-1.9400828E-1,-1.7398607E-2],"categories":[],"categories_nodes":[],"categories_segments":[],"categories_sizes":[],"default_left":[0,0,0,0,0,0,0,0,0,0,0,0,0,0,0,0,0,0,0,0,0,0,0,0,0,0,0,0,0,0,0,0,0,0,0,0,0,0,0,0,0,0,0,0,0,0,0,0,0],"id":14,"left_children":[1,3,5,7,9,11,13,15,17,19,21,23,25,27,29,31,-1,33,35,37,-1,39,41,-1,43,45,47,-1,-1,-1,-1,-1,-1,-1,-1,-1,-1,-1,-1,-1,-1,-1,-1,-1,-1,-1,-1,-1,-1],"loss_changes":[1.4393314E2,1.5847333E2,1.2330924E2,1.1419531E2,1.6752373E2,5.0748333E1,8.774196E1,2.175293E3,2.8826102E2,2.4001217E1,7.80249E0,6.607771E2,1.7724529E2,5.453186E-1,8.941028E0,6.453787E1,0E0,6.743186E2,7.3489417E2,8.079146E0,0E0,9.989365E0,2.888031E-1,0E0,5.7365112E1,1.8297552E2,1.9110263E2,0E0,0E0,0E0,0E0,0E0,0E0,0E0,0E0,0E0,0E0,0E0,0E0,0E0,0E0,0E0,0E0,0E0,0E0,0E0,0E0,0E0,0E0],"parents":[2147483647,0,0,1,1,2,2,3,3,4,4,5,5,6,6,7,7,8,8,9,9,10,10,11,11,12,12,13,13,14,14,15,15,17,17,18,18,19,19,21,21,22,22,24,24,25,25,26,26],"right_children":[2,4,6,8,10,12,14,16,18,20,22,24,26,28,30,32,-1,34,36,38,-1,40,42,-1,44,46,48,-1,-1,-1,-1,-1,-1,-1,-1,-1,-1,-1,-1,-1,-1,-1,-1,-1,-1,-1,-1,-1,-1],"split_conditions":[9E0,1E0,1E0,2E0,5E0,1E1,1.1E1,1E0,4E0,4E0,7E0,1E0,1E0,1E1,1.2E1,1E0,-6.966557E-1,1E0,1E0,2E0,-5.369548E-2,6E0,8E0,-2.6357952E-1,1E0,1.1E1,1.1E1,-1.8230693E-1,-1.6312402E-1,-6.8144016E-2,-7.849544E-3,2.661364E-1,1.0107937E-1,3.2017398E-1,-9.895401E-3,-8.6128704E-2,1.4922592E-1,6.2853105E-2,1.1475342E-2,1.5241946E-1,8.593914E-2,1.711745E-1,1.5526354E-1,1.0483705E-1,2.6618505E-1,2.2141798E-1,-1.9433115E-2,-1.9400828E-1,-1.7398607E-2],"split_indices":[0,2,2,0,0,0,0,4,0,0,0,1,1,0,0,1,0,1,4,0,0,0,0,0,3,0,0,0,0,0,0,0,0,0,0,0,0,0,0,0,0,0,0,0,0,0,0,0,0],"split_type":[0,0,0,0,0,0,0,0,0,0,0,0,0,0,0,0,0,0,0,0,0,0,0,0,0,0,0,0,0,0,0,0,0,0,0,0,0,0,0,0,0,0,0,0,0,0,0,0,0],"sum_hessian":[2E4,1.3256E4,6.744E3,9.936E3,3.32E3,5.003E3,1.741E3,1.241E3,8.695E3,1.662E3,1.658E3,1.239E3,3.764E3,8.56E2,8.85E2,8.73E2,3.68E2,2.556E3,6.139E3,1.235E3,4.27E2,8.28E2,8.3E2,4.22E2,8.17E2,1.264E3,2.5E3,4.26E2,4.3E2,4.44E2,4.41E2,3.74E2,4.99E2,8.19E2,1.737E3,4.517E3,1.622E3,4.14E2,8.21E2,4.39E2,3.89E2,3.96E2,4.34E2,3.45E2,4.72E2,4.29E2,8.35E2,8.2E2,1.68E3],"tree_param":{"num_deleted":"0","num_feature":"5","num_nodes":"49","size_leaf_vector":"1"}},{"base_weights":[-4.6443525E-5,4.234129E-2,-8.3357655E-2,-9.5284805E-3,1.9986466E-1,-2.7435727E-2,-2.439489E-1,8.074147E-2,-1.014587E-1,6.327491E-1,-2.3446143E-1,9.54621E-2,-6.790475E-2,-4.0377095E-1,-8.908271E-2,2.7779382E-1,-6.348486E-1,-5.5270904E-1,3.6942074E-1,2.6664633E-1,3.808461E-1,-3.2050304E-2,-4.2861205E-1,-1.8469235E-1,4.630675E-1,1.4581047E-1,-1.7597426E-1,-1.2774256E-1,-1.1430034E-1,-4.7746804E-2,-5.4996787E-3,1.12113275E-1,2.013308E-2,-4.8822546E-1,-3.7369873E-2,-5.655524E-1,4.2219132E-2,5.773862E-1,-1.2571838E-1,1.1995191E-1,1.0879087E-1,4.830096E-2,-5.0664656E-2,-2.0392655E-1,-7.9387255E-2,7.34773E-2,1.8649815E-1,1.0341475E-1,-7.74178E-2,-1.3587682E-1,-1.2182408E-2],"categories":[],"categories_nodes":[],"categories_segments":[],"categories_sizes":[],"default_left":[0,0,0,0,0,0,0,0,0,0,0,0,0,0,0,0,0,0,0,0,0,0,0,0,0,0,0,0,0,0,0,0,0,0,0,0,0,0,0,0,0,0,0,0,0,0,0,0,0,0,0],"id":15,"left_children":[1,3,5,7,9,11,13,15,17,19,21,23,25,27,29,31,33,35,37,-1,39,41,43,-1,45,47,49,-1,-1,-1,-1,-1,-1,-1,-1,-1,-1,-1,-1,-1,-1,-1,-1,-1,-1,-1,-1,-1,-1,-1,-1],"loss_changes":[7.063452E1,1.08320885E2,6.0567272E1,8.2777794E1,6.1758307E2,2.4894152E1,4.308033E1,7.098733E2,1.0503027E3,1.05772705E2,6.443539E1,3.2442776E2,8.698247E1,2.6779175E-1,4.389619E0,7.973645E1,5.503528E2,2.3324014E3,2.9670981E3,0E0,1.4242554E-1,2.1265553E1,3.4291473E1,0E0,2.8147247E1,1.0170877E2,9.3742775E1,0E0,0E0,0E0,0E0,0E0,0E0,0E0,0E0,0E0,0E0,0E0,0E0,0E0,0E0,0E0,0E0,0E0,0E0,0E0,0E0,0E0,0E0,0E0,0E0],"parents":[2147483647,0,0,1,1,2,2,3,3,4,4,5,5,6,6,7,7,8,8,9,9,10,10,11,11,12,12,13,13,14,14,15,15,16,16,17,17,18,18,20,20,21,21,22,22,24,24,25,25,26,26],"right_children":[2,4,6,8,10,12,14,16,18,20,22,24,26,28,30,32,34,36,38,-1,40,42,44,-1,46,48,50,-1,-1,-1,-1,-1,-1,-1,-1,-1,-1,-1,-1,-1,-1,-1,-1,-1,-1,-1,-1,-1,-1,-1,-1],"split_conditions":[9E0,7E0,1E0,4E0,1E0,1E1,1.1E1,1E0,1E0,1E0,8E0,1E0,1E0,1E1,1.2E1,1E0,2E0,5E0,5E0,2.6664633E-1,8E0,1E0,1E0,-1.8469235E-1,1E0,1.2E1,1.1E1,-1.2774256E-1,-1.1430034E-1,-4.7746804E-2,-5.4996787E-3,1.12113275E-1,2.013308E-2,-4.8822546E-1,-3.7369873E-2,-5.655524E-1,4.2219132E-2,5.773862E-1,-1.2571838E-1,1.1995191E-1,1.0879087E-1,4.830096E-2,-5.0664656E-2,-2.0392655E-1,-7.9387255E-2,7.34773E-2,1.8649815E-1,1.0341475E-1,-7.74178E-2,-1.3587682E-1,-1.2182408E-2],"split_indices":[0,0,2,0,1,0,0,4,1,2,0,1,1,0,0,2,0,0,0,0,0,3,3,0,3,0,0,0,0,0,0,0,0,0,0,0,0,0,0,0,0,0,0,0,0,0,0,0,0,0,0],"split_type":[0,0,0,0,0,0,0,0,0,0,0,0,0,0,0,0,0,0,0,0,0,0,0,0,0,0,0,0,0,0,0,0,0,0,0,0,0,0,0,0,0,0,0,0,0,0,0,0,0,0,0],"sum_hessian":[2E4,1.3256E4,6.744E3,9.973E3,3.283E3,5.003E3,1.741E3,5.032E3,4.941E3,1.644E3,1.639E3,1.239E3,3.764E3,8.56E2,8.85E2,3.946E3,1.086E3,2.523E3,2.418E3,8.14E2,8.3E2,8.03E2,8.36E2,4.22E2,8.17E2,1.264E3,2.5E3,4.26E2,4.3E2,4.44E2,4.41E2,2.711E3,1.235E3,3.68E2,7.18E2,8.63E2,1.66E3,8.13E2,1.605E3,3.96E2,4.34E2,3.33E2,4.7E2,3.29E2,5.07E2,3.45E2,4.72E2,8.47E2,4.17E2,8.2E2,1.68E3],"tree_param":{"num_deleted":"0","num_feature":"5","num_nodes":"51","size_leaf_vector":"1"}},{"base_weights":[-6.228412E-5,-2.4840442E-2,7.3068045E-2,5.949988E-2,-5.358492E-2,2.0103486E-1,-1.7093359E-1,5.965681E-1,-1.8668783E-1,-2.4166335E-1,4.2539988E-2,4.6992578E-2,2.9221186E-1,-2.8292227E-1,-6.241751E-2,1.5296397E-1,6.3548464E-1,-4.4487813E-1,-1.8033448E-3,-9.1203636E-1,1.2532365E-1,1.347945E0,-1.1939878E-1,3.8017616E-2,6.6810106E-3,1.3164471E-1,2.5421387E-1,-8.9509465E-2,-8.008997E-2,-3.3454996E-2,-3.8531742E-3,2.0595273E-1,1.7498678E-1,-3.4215462E-1,-2.6174832E-2,3.7248537E-2,-1.9064758E-2,-8.790721E-2,5.5673353E-2,2.8568467E-1,4.9021792E-1,9.182209E-3,-6.621E-2,4.47961E-3,-5.803944E-4,9.416098E-2,6.974707E-2],"categories":[],"categories_nodes":[],"categories_segments":[],"categories_sizes":[],"default_left":[0,0,0,0,0,0,0,0,0,0,0,0,0,0,0,0,0,0,0,0,0,0,0,0,0,0,0,0,0,0,0,0,0,0,0,0,0,0,0,0,0,0,0,0,0,0,0],"id":16,"left_children":[1,3,5,7,9,11,13,15,17,19,21,23,25,27,29,-1,31,33,35,-1,37,39,41,-1,43,-1,45,-1,-1,-1,-1,-1,-1,-1,-1,-1,-1,-1,-1,-1,-1,-1,-1,-1,-1,-1,-1],"loss_changes":[3.6244328E1,3.6222504E1,1.580908E2,5.0228143E2,2.0146483E2,4.663008E1,2.1152122E1,3.704071E0,1.2434987E2,3.8711348E3,1.559204E3,3.971848E0,1.1508835E1,1.3150787E-1,2.1551101E0,0E0,1.7834473E0,2.703242E2,1.1822405E1,0E0,8.406997E1,9.0592896E1,9.9721634E1,0E0,5.8463216E-2,0E0,2.0770035E0,0E0,0E0,0E0,0E0,0E0,0E0,0E0,0E0,0E0,0E0,0E0,0E0,0E0,0E0,0E0,0E0,0E0,0E0,0E0,0E0],"parents":[2147483647,0,0,1,1,2,2,3,3,4,4,5,5,6,6,7,7,8,8,9,9,10,10,11,11,12,12,13,13,14,14,16,16,17,17,18,18,20,20,21,21,22,22,24,24,26,26],"right_children":[2,4,6,8,10,12,14,16,18,20,22,24,26,28,30,-1,32,34,36,-1,38,40,42,-1,44,-1,46,-1,-1,-1,-1,-1,-1,-1,-1,-1,-1,-1,-1,-1,-1,-1,-1,-1,-1,-1,-1],"split_conditions":[1E0,4E0,9E0,1E0,1E0,4E0,1.1E1,2E0,1E0,5E0,5E0,2E0,5E0,1E1,1.2E1,1.5296397E-1,3E0,2E0,2E0,-9.1203636E-1,6E0,1E0,1E0,3.8017616E-2,3E0,1.3164471E-1,6E0,-8.9509465E-2,-8.008997E-2,-3.3454996E-2,-3.8531742E-3,2.0595273E-1,1.7498678E-1,-3.4215462E-1,-2.6174832E-2,3.7248537E-2,-1.9064758E-2,-8.790721E-2,5.5673353E-2,2.8568467E-1,4.9021792E-1,9.182209E-3,-6.621E-2,4.47961E-3,-5.803944E-4,9.416098E-2,6.974707E-2],"split_indices":[2,0,0,1,1,0,0,0,3,0,0,0,0,0,0,0,0,0,0,0,0,3,3,0,0,0,0,0,0,0,0,0,0,0,0,0,0,0,0,0,0,0,0,0,0,0,0],"split_type":[0,0,0,0,0,0,0,0,0,0,0,0,0,0,0,0,0,0,0,0,0,0,0,0,0,0,0,0,0,0,0,0,0,0,0,0,0,0,0,0,0,0,0,0,0,0,0],"sum_hessian":[2E4,1.4939E4,5.061E3,3.797E3,1.1142E4,3.32E3,1.741E3,1.193E3,2.604E3,3.768E3,7.374E3,1.235E3,2.085E3,8.56E2,8.85E2,3.74E2,8.19E2,1.086E3,1.518E3,4.36E2,3.332E3,8.13E2,6.561E3,4.14E2,8.21E2,4.27E2,1.658E3,4.26E2,4.3E2,4.44E2,4.41E2,4.08E2,4.11E2,3.68E2,7.18E2,4.99E2,1.019E3,4.19E2,2.913E3,3.43E2,4.7E2,2.645E3,3.916E3,4.19E2,4.02E2,4.39E2,1.219E3],"tree_param":{"num_deleted":"0","num_feature":"5","num_nodes":"47","size_leaf_vector":"1"}},{"base_weights":[-3.9143702E-5,1.8730318E-2,-5.5172585E-2,-8.850816E-3,1.00990266E-1,-3.0617913E-2,-1.5264052E-1,-5.847456E-2,9.171592E-2,1.4082563E-1,-6.271994E-2,-7.1005994E-1,3.0974236E-1,7.407935E-1,-1.3787578E0,4.1699033E-2,-1.616481E-1,1.5193605E-1,-6.884261E-2,3.292904E-2,2.0468917E-1,8.547115E-2,-6.26393E-1,-7.7923745E-2,9.867613E-1,-6.4613986E-1,-2.134075E-1,1.2541328E-1,-3.924437E-2,-2.2537671E-1,4.431752E-2,6.308017E-2,1.04920855E-2,-5.684069E-2,4.8749626E-2,2.6639916E-2,1.4045299E-3,9.2243426E-2,5.3414285E-2,1.0753205E-1,-5.6118842E-2,-1.0890665E-2,-3.5894513E-2,3.7367952E-1,2.2326852E-1],"categories":[],"categories_nodes":[],"categories_segments":[],"categories_sizes":[],"default_left":[0,0,0,0,0,0,0,0,0,0,0,0,0,0,0,0,0,0,0,0,0,0,0,0,0,0,0,0,0,0,0,0,0,0,0,0,0,0,0,0,0,0,0,0,0],"id":17,"left_children":[1,3,5,7,9,11,13,15,17,19,-1,21,23,-1,25,27,29,31,33,35,37,39,-1,41,43,-1,-1,-1,-1,-1,-1,-1,-1,-1,-1,-1,-1,-1,-1,-1,-1,-1,-1,-1,-1],"loss_changes":[2.0698568E1,3.3856266E1,1.21532545E1,5.5779163E1,4.6309464E1,9.388842E2,3.2889514E3,7.735585E1,3.5717552E1,2.2877144E1,0E0,1.4854962E3,7.100239E2,0E0,3.5899988E2,2.4663853E2,6.7265216E2,1.8318024E1,2.8159899E1,1.9502325E0,5.657669E0,6.40453E1,0E0,2.984418E0,6.0907715E1,0E0,0E0,0E0,0E0,0E0,0E0,0E0,0E0,0E0,0E0,0E0,0E0,0E0,0E0,0E0,0E0,0E0,0E0,0E0,0E0],"parents":[2147483647,0,0,1,1,2,2,3,3,4,4,5,5,6,6,7,7,8,8,9,9,11,11,12,12,14,14,15,15,16,16,17,17,18,18,19,19,20,20,21,21,23,23,24,24],"right_children":[2,4,6,8,10,12,14,16,18,20,-1,22,24,-1,26,28,30,32,34,36,38,40,-1,42,44,-1,-1,-1,-1,-1,-1,-1,-1,-1,-1,-1,-1,-1,-1,-1,-1,-1,-1,-1,-1],"split_conditions":[1E1,1E0,1E0,7E0,9E0,1.1E1,1.1E1,4E0,1E0,4E0,-6.271994E-2,1E0,1E0,7.407935E-1,1.2E1,1E0,1E0,9E0,9E0,2E0,5E0,1E0,-6.26393E-1,1.2E1,1.2E1,-6.4613986E-1,-2.134075E-1,1.2541328E-1,-3.924437E-2,-2.2537671E-1,4.431752E-2,6.308017E-2,1.04920855E-2,-5.684069E-2,4.8749626E-2,2.6639916E-2,1.4045299E-3,9.2243426E-2,5.3414285E-2,1.0753205E-1,-5.6118842E-2,-1.0890665E-2,-3.5894513E-2,3.7367952E-1,2.2326852E-1],"split_indices":[0,2,4,0,0,0,0,0,4,0,0,1,1,0,0,1,1,0,0,0,0,2,0,0,0,0,0,0,0,0,0,0,0,0,0,0,0,0,0,0,0,0,0,0,0],"split_type":[0,0,0,0,0,0,0,0,0,0,0,0,0,0,0,0,0,0,0,0,0,0,0,0,0,0,0,0,0,0,0,0,0,0,0,0,0,0,0,0,0,0,0,0,0],"sum_hessian":[2E4,1.4921E4,5.079E3,1.1175E4,3.746E3,4.058E3,1.021E3,7.483E3,3.692E3,3.32E3,4.26E2,1.354E3,2.704E3,3.25E2,6.96E2,3.797E3,3.686E3,2.685E3,1.007E3,1.235E3,2.085E3,8.59E2,4.95E2,1.72E3,9.84E2,3.21E2,3.75E2,1.193E3,2.604E3,1.268E3,2.418E3,1.791E3,8.94E2,6.62E2,3.45E2,4.14E2,8.21E2,4.27E2,1.658E3,4.29E2,4.3E2,8.62E2,8.58E2,4.74E2,5.1E2],"tree_param":{"num_deleted":"0","num_feature":"5","num_nodes":"45","size_leaf_vector":"1"}},{"base_weights":[-3.0288707E-5,1.3116918E-2,-3.8648907E-2,-6.198071E-3,7.072332E-2,-2.143826E-2,-1.0696531E-1,-4.09447E-2,6.421892E-2,9.863065E-2,-4.3947626E-2,-4.9746692E-1,2.1702395E-1,5.192367E-1,-9.66364E-1,-8.814092E-2,8.4455386E-2,1.6190626E-1,1.5011176E-2,2.307285E-2,1.43353E-1,5.9888948E-2,-4.3885416E-1,-5.457277E-2,6.913396E-1,-4.5290017E-1,-1.4955552E-1,4.50449E-2,-9.7526535E-2,-2.2804496E-1,8.100812E-2,1.5116853E-1,-1.4921732E-1,-4.2958923E-2,9.9654496E-2,1.8666621E-2,9.838996E-4,5.72768E-2,3.2828953E-2,7.534732E-2,-3.93225E-2,-2.7214145E-2,-6.122906E-3,2.6181147E-1,1.564196E-1],"categories":[],"categories_nodes":[],"categories_segments":[],"categories_sizes":[],"default_left":[0,0,0,0,0,0,0,0,0,0,0,0,0,0,0,0,0,0,0,0,0,0,0,0,0,0,0,0,0,0,0,0,0,0,0,0,0,0,0,0,0,0,0,0,0],"id":18,"left_children":[1,3,5,7,9,11,13,15,17,19,-1,21,23,-1,25,27,29,31,33,35,37,39,-1,41,43,-1,-1,-1,-1,-1,-1,-1,-1,-1,-1,-1,-1,-1,-1,-1,-1,-1,-1,-1,-1],"loss_changes":[1.0155554E1,1.6603655E1,5.9706154E0,2.7347544E1,2.2728401E1,4.6086475E2,1.6157822E3,4.430082E1,1.7749722E1,1.1218758E1,0E0,7.291594E2,3.485028E2,0E0,1.7641223E2,3.0709113E2,3.2104144E2,2.7915985E2,1.2333681E2,9.5755726E-1,3.3453102E0,3.1444798E1,0E0,2.1230497E0,2.9904022E1,0E0,0E0,0E0,0E0,0E0,0E0,0E0,0E0,0E0,0E0,0E0,0E0,0E0,0E0,0E0,0E0,0E0,0E0,0E0,0E0],"parents":[2147483647,0,0,1,1,2,2,3,3,4,4,5,5,6,6,7,7,8,8,9,9,11,11,12,12,14,14,15,15,16,16,17,17,18,18,19,19,20,20,21,21,23,23,24,24],"right_children":[2,4,6,8,10,12,14,16,18,20,-1,22,24,-1,26,28,30,32,34,36,38,40,-1,42,44,-1,-1,-1,-1,-1,-1,-1,-1,-1,-1,-1,-1,-1,-1,-1,-1,-1,-1,-1,-1],"split_conditions":[1E1,1E0,1E0,7E0,9E0,1.1E1,1.1E1,1E0,1E0,4E0,-4.3947626E-2,1E0,1E0,5.192367E-1,1.2E1,4E0,2E0,9E0,9E0,2E0,6E0,1E0,-4.3885416E-1,1E0,1.2E1,-4.5290017E-1,-1.4955552E-1,4.50449E-2,-9.7526535E-2,-2.2804496E-1,8.100812E-2,1.5116853E-1,-1.4921732E-1,-4.2958923E-2,9.9654496E-2,1.8666621E-2,9.838996E-4,5.72768E-2,3.2828953E-2,7.534732E-2,-3.93225E-2,-2.7214145E-2,-6.122906E-3,2.6181147E-1,1.564196E-1],"split_indices":[0,2,4,0,0,0,0,4,1,0,0,1,1,0,0,0,0,0,0,0,0,2,0,2,0,0,0,0,0,0,0,0,0,0,0,0,0,0,0,0,0,0,0,0,0],"split_type":[0,0,0,0,0,0,0,0,0,0,0,0,0,0,0,0,0,0,0,0,0,0,0,0,0,0,0,0,0,0,0,0,0,0,0,0,0,0,0,0,0,0,0,0,0],"sum_hessian":[2E4,1.4921E4,5.079E3,1.1175E4,3.746E3,4.058E3,1.021E3,7.483E3,3.692E3,3.32E3,4.26E2,1.354E3,2.704E3,3.25E2,6.96E2,5.437E3,2.046E3,1.236E3,2.456E3,1.235E3,2.085E3,8.59E2,4.95E2,1.72E3,9.84E2,3.21E2,3.75E2,2.711E3,2.726E3,3.68E2,1.678E3,8.14E2,4.22E2,1.639E3,8.17E2,4.14E2,8.21E2,8.66E2,1.219E3,4.29E2,4.3E2,8.35E2,8.85E2,4.74E2,5.1E2],"tree_param":{"num_deleted":"0","num_feature":"5","num_nodes":"45","size_leaf_vector":"1"}},{"base_weights":[-3.0118199E-5,9.17666E-3,-2.7074117E-2,-7.780495E-3,4.334952E-2,-1.501105E-2,-7.4957594E-2,-2.8687797E-2,5.5036858E-2,1.3237992E-1,1.2451917E-3,-3.4852448E-1,1.5205945E-1,3.6394322E-1,-6.773194E-1,-6.170781E-2,5.9046216E-2,1.616586E-2,9.3245074E-2,2.1842867E-1,-2.170063E-2,4.710694E-2,-1.8132038E-1,4.196356E-2,-3.0746332E-1,-3.8220517E-2,4.843638E-1,-3.174521E-1,-1.0480828E-1,3.15367E-2,-6.8279296E-2,-7.465463E-2,1.2217468E-1,1.3079378E-2,6.890012E-4,4.0113315E-2,9.141042E-4,8.0895245E-2,3.7378445E-2,2.1264376E-3,3.5041787E-2,-1.158322E-1,4.3562036E-3,5.2795514E-2,-2.7553301E-2,-2.7277763E-3,-2.0231877E-2,1.8343373E-1,1.0958608E-1],"categories":[],"categories_nodes":[],"categories_segments":[],"categories_sizes":[],"default_left":[0,0,0,0,0,0,0,0,0,0,0,0,0,0,0,0,0,0,0,0,0,0,0,0,0,0,0,0,0,0,0,0,0,0,0,0,0,0,0,0,0,0,0,0,0,0,0,0,0],"id":19,"left_children":[1,3,5,7,9,11,13,15,17,19,21,23,25,-1,27,29,31,33,35,37,-1,39,41,43,-1,45,47,-1,-1,-1,-1,-1,-1,-1,-1,-1,-1,-1,-1,-1,-1,-1,-1,-1,-1,-1,-1,-1,-1],"loss_changes":[4.9802594E0,8.647256E0,2.933192E0,1.3100846E1,1.8551483E1,2.2622153E2,7.9379486E2,2.1684628E1,3.6981044E0,2.800683E1,2.8149443E1,3.5790912E2,1.71058E2,0E0,8.668866E1,1.5052287E2,2.1955994E2,4.701491E-1,4.583933E0,5.3447304E0,0E0,7.4939456E0,2.7076944E1,1.5438657E1,0E0,1.4641149E0,1.4682159E1,0E0,0E0,0E0,0E0,0E0,0E0,0E0,0E0,0E0,0E0,0E0,0E0,0E0,0E0,0E0,0E0,0E0,0E0,0E0,0E0,0E0,0E0],"parents":[2147483647,0,0,1,1,2,2,3,3,4,4,5,5,6,6,7,7,8,8,9,9,10,10,11,11,12,12,14,14,15,15,16,16,17,17,18,18,19,19,21,21,22,22,23,23,25,25,26,26],"right_children":[2,4,6,8,10,12,14,16,18,20,22,24,26,-1,28,30,32,34,36,38,-1,40,42,44,-1,46,48,-1,-1,-1,-1,-1,-1,-1,-1,-1,-1,-1,-1,-1,-1,-1,-1,-1,-1,-1,-1,-1,-1],"split_conditions":[1E1,7E0,1E0,1E0,8E0,1.1E1,1.1E1,1E0,4E0,1E0,1E0,1E0,1E0,3.6394322E-1,1.2E1,4E0,4E0,2E0,6E0,1E0,-2.170063E-2,1E0,9E0,1E0,-3.0746332E-1,1.2E1,1.2E1,-3.174521E-1,-1.0480828E-1,3.15367E-2,-6.8279296E-2,-7.465463E-2,1.2217468E-1,1.3079378E-2,6.890012E-4,4.0113315E-2,9.141042E-4,8.0895245E-2,3.7378445E-2,2.1264376E-3,3.5041787E-2,-1.158322E-1,4.3562036E-3,5.2795514E-2,-2.7553301E-2,-2.7277763E-3,-2.0231877E-2,1.8343373E-1,1.0958608E-1],"split_indices":[0,0,4,2,0,0,0,4,0,3,4,1,1,0,0,0,0,0,0,2,0,1,0,2,0,0,0,0,0,0,0,0,0,0,0,0,0,0,0,0,0,0,0,0,0,0,0,0,0],"split_type":[0,0,0,0,0,0,0,0,0,0,0,0,0,0,0,0,0,0,0,0,0,0,0,0,0,0,0,0,0,0,0,0,0,0,0,0,0,0,0,0,0,0,0,0,0,0,0,0,0],"sum_hessian":[2E4,1.4921E4,5.079E3,9.973E3,4.948E3,4.058E3,1.021E3,7.483E3,2.49E3,1.588E3,3.36E3,1.354E3,2.704E3,3.25E2,6.96E2,5.437E3,2.046E3,1.235E3,1.255E3,1.118E3,4.7E2,2.686E3,6.74E2,8.59E2,4.95E2,1.72E3,9.84E2,3.21E2,3.75E2,2.711E3,2.726E3,1.086E3,9.6E2,4.14E2,8.21E2,8.66E2,3.89E2,7.22E2,3.96E2,1.707E3,9.79E2,3.29E2,3.45E2,4.29E2,4.3E2,8.62E2,8.58E2,4.74E2,5.1E2],"tree_param":{"num_deleted":"0","num_feature":"5","num_nodes":"49","size_leaf_vector":"1"}},{"base_weights":[-2.0467784E-5,-4.4147644E-2,3.962669E-3,7.452886E-2,-1.3748103E-1,-5.6361603E-3,4.1870113E-2,9.532474E-2,9.165797E-3,-3.1057948E-2,1.0654133E-1,1.6144103E-1,-4.7472945E-1,4.676066E-2,1.49178E-2,-3.765813E-3,-2.4417554E-1,-2.67672E-2,3.393509E-1,7.777218E-2,2.5509468E-1,-2.2251244E-1,-7.344926E-2,-1.0611685E-2,1.4844559E-2,8.821207E-3,-2.1541047E-1,-1.5622858E-2,-8.5688155E-4,1.2851952E-1,7.677383E-2,4.393873E-2,-3.8127255E-2],"categories":[],"categories_nodes":[],"categories_segments":[],"categories_sizes":[],"default_left":[0,0,0,0,0,0,0,0,0,0,0,0,0,0,0,0,0,0,0,0,0,0,0,0,0,0,0,0,0,0,0,0,0],"id":20,"left_children":[1,3,5,7,-1,9,11,13,-1,15,17,19,21,-1,-1,23,25,27,29,31,-1,-1,-1,-1,-1,-1,-1,-1,-1,-1,-1,-1,-1],"loss_changes":[3.5156422E0,8.142093E1,6.6757417E0,1.174994E0,0E0,4.1752968E1,2.2905907E2,2.4051323E0,0E0,6.942404E1,8.396012E1,1.7347989E2,4.2598877E1,0E0,0E0,1.7810951E1,1.7568091E2,1.041334E0,7.20887E0,3.781625E1,0E0,0E0,0E0,0E0,0E0,0E0,0E0,0E0,0E0,0E0,0E0,0E0,0E0],"parents":[2147483647,0,0,1,1,2,2,3,3,5,5,6,6,7,7,9,9,10,10,11,11,12,12,15,15,16,16,17,17,18,18,19,19],"right_children":[2,4,6,8,-1,10,12,14,-1,16,18,20,22,-1,-1,24,26,28,30,32,-1,-1,-1,-1,-1,-1,-1,-1,-1,-1,-1,-1,-1],"split_conditions":[2E0,1E0,1E0,1E0,-1.3748103E-1,1.1E1,1.1E1,1E0,9.165797E-3,1E1,1E0,1E1,1.2E1,4.676066E-2,1.49178E-2,7E0,1E0,1E0,1.2E1,8E0,2.5509468E-1,-2.2251244E-1,-7.344926E-2,-1.0611685E-2,1.4844559E-2,8.821207E-3,-2.1541047E-1,-1.5622858E-2,-8.5688155E-4,1.2851952E-1,7.677383E-2,4.393873E-2,-3.8127255E-2],"split_indices":[0,4,4,2,0,0,0,1,0,0,1,0,0,0,0,0,1,2,0,0,0,0,0,0,0,0,0,0,0,0,0,0,0],"split_type":[0,0,0,0,0,0,0,0,0,0,0,0,0,0,0,0,0,0,0,0,0,0,0,0,0,0,0,0,0,0,0,0,0],"sum_hessian":[2E4,1.655E3,1.8345E4,1.287E3,3.68E2,1.4639E4,3.706E3,8.73E2,4.14E2,1.1935E4,2.704E3,3.01E3,6.96E2,3.74E2,4.99E2,1.0581E4,1.354E3,1.72E3,9.84E2,2.685E3,3.25E2,3.21E2,3.75E2,6.64E3,3.941E3,8.59E2,4.95E2,8.35E2,8.85E2,4.74E2,5.1E2,2.011E3,6.74E2],"tree_param":{"num_deleted":"0","num_feature":"5","num_nodes":"33","size_leaf_vector":"1"}},{"base_weights":[-1.9777453E-5,-6.3286205E-3,1.8600162E-2,-2.0031715E-2,7.4249376E-3,5.375312E-2,-4.8427142E-2,-7.9001285E-2,8.8759335E-3,7.1499355E-2,-4.77749E-3,1.5309782E-2,7.6505855E-2,-8.317743E-2,1.6190335E-2,-3.1063524E-1,3.743509E-1,1.4785695E-1,-2.8691858E-1,6.9114625E-2,-5.659554E-3,1.4831311E-2,-5.761207E-2,1.9711327E-2,1.8488654E-3,3.866292E-2,6.294883E-2,-3.5872176E-2,-6.532089E-2,6.265502E-2,-5.187889E-1,5.8653105E-2,1.6646375E-1,-2.5978908E-2,2.6939505E-1,4.9643826E-2,-1.70796E-1,2.3619216E-2,-1.9647352E-2,-1.4821763E-2,3.3576045E-2,4.0261753E-2,-9.982034E-2,6.4235493E-3,5.3952406E-3,1.4541369E-2,2.3194754E-2,-2.1946717E-2,-1.7275728E-2],"categories":[],"categories_nodes":[],"categories_segments":[],"categories_sizes":[],"default_left":[0,0,0,0,0,0,0,0,0,0,0,0,0,0,0,0,0,0,0,0,0,0,0,0,0,0,0,0,0,0,0,0,0,0,0,0,0,0,0,0,0,0,0,0,0,0,0,0,0],"id":21,"left_children":[1,3,5,7,9,11,13,15,17,19,21,23,25,27,-1,29,31,33,35,-1,37,39,41,43,-1,-1,45,-1,47,-1,-1,-1,-1,-1,-1,-1,-1,-1,-1,-1,-1,-1,-1,-1,-1,-1,-1,-1,-1],"loss_changes":[2.3496406E0,2.815835E0,1.1929728E1,1.2758463E1,5.8306975E0,2.903678E0,6.2029667E0,2.5865524E2,2.0653705E2,1.4626553E1,6.4915366E0,4.9640477E-2,1.4729242E0,8.377285E-1,0E0,1.2016279E3,2.6785568E1,6.0120026E2,2.0527332E2,0E0,4.064718E0,2.8507309E1,8.954833E1,2.0644665E-3,0E0,0E0,3.4132338E-1,0E0,4.881549E-2,0E0,0E0,0E0,0E0,0E0,0E0,0E0,0E0,0E0,0E0,0E0,0E0,0E0,0E0,0E0,0E0,0E0,0E0,0E0,0E0],"parents":[2147483647,0,0,1,1,2,2,3,3,4,4,5,5,6,6,7,7,8,8,9,9,10,10,11,11,12,12,13,13,15,15,16,16,17,17,18,18,20,20,21,21,22,22,23,23,26,26,28,28],"right_children":[2,4,6,8,10,12,14,16,18,20,22,24,26,28,-1,30,32,34,36,-1,38,40,42,44,-1,-1,46,-1,48,-1,-1,-1,-1,-1,-1,-1,-1,-1,-1,-1,-1,-1,-1,-1,-1,-1,-1,-1,-1],"split_conditions":[1E0,7E0,9E0,1E0,8E0,4E0,1.2E1,5E0,5E0,1E0,1E0,3E0,5E0,1E1,1.6190335E-2,4E0,6E0,4E0,1E0,6.9114625E-2,1E0,1.1E1,1.1E1,2E0,1.8488654E-3,3.866292E-2,7E0,-3.5872176E-2,1.1E1,6.265502E-2,-5.187889E-1,5.8653105E-2,1.6646375E-1,-2.5978908E-2,2.6939505E-1,4.9643826E-2,-1.70796E-1,2.3619216E-2,-1.9647352E-2,-1.4821763E-2,3.3576045E-2,4.0261753E-2,-9.982034E-2,6.4235493E-3,5.3952406E-3,1.4541369E-2,2.3194754E-2,-2.1946717E-2,-1.7275728E-2],"split_indices":[2,0,0,1,0,0,0,0,0,1,4,0,0,0,0,0,0,0,3,0,3,0,0,0,0,0,0,0,0,0,0,0,0,0,0,0,0,0,0,0,0,0,0,0,0,0,0,0,0],"split_type":[0,0,0,0,0,0,0,0,0,0,0,0,0,0,0,0,0,0,0,0,0,0,0,0,0,0,0,0,0,0,0,0,0,0,0,0,0,0,0,0,0,0,0,0,0,0,0,0,0],"sum_hessian":[2E4,1.4939E4,5.061E3,7.483E3,7.456E3,3.32E3,1.741E3,2.461E3,5.022E3,1.192E3,6.264E3,1.235E3,2.085E3,1.3E3,4.41E2,1.629E3,8.32E2,3.417E3,1.605E3,3.89E2,8.03E2,4.569E3,1.695E3,8.33E2,4.02E2,4.27E2,1.658E3,4.26E2,8.74E2,1.193E3,4.36E2,4.19E2,4.13E2,2.604E3,8.13E2,6.17E2,9.88E2,3.33E2,4.7E2,2.75E3,1.819E3,9.99E2,6.96E2,4.14E2,4.19E2,8.28E2,8.3E2,4.3E2,4.44E2],"tree_param":{"num_deleted":"0","num_feature":"5","num_nodes":"49","size_leaf_vector":"1"}},{"base_weights":[-1.6108947E-5,-2.3073053E-2,4.6274103E-3,2.7385678E-2,-2.0666067E-1,6.383752E-2,-2.0221204E-3,7.559136E-2,-4.931489E-2,-8.8576E-2,-3.419763E-2,8.254062E-2,1.2963458E-3,-2.4622172E-2,2.1252377E-2,1.4129756E-1,1.3812534E-2,1.822995E-2,-4.670436E-2,4.6592057E-2,4.790671E-2,-5.681258E-1,4.5135956E-2,6.289205E-1,-5.4130603E-2,1.4024244E-2,6.8292685E-2,4.5010084E-3,3.7808993E-3,5.9587443E-3,2.0436442E-2,-3.635088E-1,2.7091434E-2,4.6677463E-2,-1.841086E-2,3.246708E-2,3.023646E-1,-4.663719E-2,1.3494927E-2],"categories":[],"categories_nodes":[],"categories_segments":[],"categories_sizes":[],"default_left":[0,0,0,0,0,0,0,0,0,0,0,0,0,0,0,0,0,0,0,0,0,0,0,0,0,0,0,0,0,0,0,0,0,0,0,0,0,0,0],"id":22,"left_children":[1,3,5,7,9,11,13,15,17,-1,-1,19,-1,21,23,25,27,-1,-1,-1,29,31,33,35,37,-1,-1,-1,-1,-1,-1,-1,-1,-1,-1,-1,-1,-1,-1],"loss_changes":[2.141521E0,3.1066505E1,6.555164E0,9.731597E0,5.9019966E0,1.8708315E0,7.87429E0,6.5578003E0,1.1905754E1,0E0,0E0,3.215868E0,0E0,2.879809E2,3.378668E2,6.381693E0,1.0121614E-3,0E0,0E0,0E0,4.9072278E-1,3.662261E2,7.9205635E1,1.605127E2,6.590825E1,0E0,0E0,0E0,0E0,0E0,0E0,0E0,0E0,0E0,0E0,0E0,0E0,0E0,0E0],"parents":[2147483647,0,0,1,1,2,2,3,3,4,4,5,5,6,6,7,7,8,8,11,11,13,13,14,14,15,15,16,16,20,20,21,21,22,22,23,23,24,24],"right_children":[2,4,6,8,10,12,14,16,18,-1,-1,20,-1,22,24,26,28,-1,-1,-1,30,32,34,36,38,-1,-1,-1,-1,-1,-1,-1,-1,-1,-1,-1,-1,-1,-1],"split_conditions":[3E0,1E0,4E0,1E0,2E0,1E0,1E0,1E0,2E0,-8.8576E-2,-3.419763E-2,1E0,1.2963458E-3,5E0,5E0,2E0,2E0,1.822995E-2,-4.670436E-2,4.6592057E-2,1E0,1E0,9E0,1E0,9E0,1.4024244E-2,6.8292685E-2,4.5010084E-3,3.7808993E-3,5.9587443E-3,2.0436442E-2,-3.635088E-1,2.7091434E-2,4.6677463E-2,-1.841086E-2,3.246708E-2,3.023646E-1,-4.663719E-2,1.3494927E-2],"split_indices":[0,4,0,1,0,2,1,2,0,0,0,1,0,0,0,0,0,0,0,0,3,2,0,3,0,0,0,0,0,0,0,0,0,0,0,0,0,0,0],"split_type":[0,0,0,0,0,0,0,0,0,0,0,0,0,0,0,0,0,0,0,0,0,0,0,0,0,0,0,0,0,0,0,0,0,0,0,0,0,0,0],"sum_hessian":[2E4,3.352E3,1.6648E4,2.63E3,7.22E2,1.68E3,1.4968E4,1.615E3,1.015E3,3.68E2,3.54E2,1.278E3,4.02E2,7.594E3,7.374E3,7.82E2,8.33E2,4.99E2,5.16E2,4.11E2,8.67E2,8.63E2,6.731E3,8.13E2,6.561E3,3.74E2,4.08E2,4.14E2,4.19E2,3.64E2,5.03E2,4.36E2,4.27E2,3.304E3,3.427E3,3.43E2,4.7E2,3.244E3,3.317E3],"tree_param":{"num_deleted":"0","num_feature":"5","num_nodes":"39","size_leaf_vector":"1"}},{"base_weights":[-1.0905293E-5,-1.6168302E-2,3.24309E-3,1.9194698E-2,-1.4483204E-1,4.4729367E-2,-1.415984E-3,5.296991E-2,-3.4545396E-2,-6.20754E-2,-2.3966903E-2,5.7834275E-2,9.082122E-4,-1.7275978E-2,1.4917314E-2,9.901513E-2,9.6768895E-3,1.2772898E-2,-3.2719314E-2,3.264817E-2,3.3563618E-2,-3.9807698E-1,3.1599447E-2,4.406537E-1,-3.7896514E-2,9.828613E-3,4.7855563E-2,3.1538594E-3,2.6483482E-3,4.1760746E-3,1.4316863E-2,-2.547053E-1,1.898283E-2,3.267871E-2,-1.2889407E-2,2.2755325E-2,2.1184672E-1,-3.2650128E-2,9.447433E-3],"categories":[],"categories_nodes":[],"categories_segments":[],"categories_sizes":[],"default_left":[0,0,0,0,0,0,0,0,0,0,0,0,0,0,0,0,0,0,0,0,0,0,0,0,0,0,0,0,0,0,0,0,0,0,0,0,0,0,0],"id":23,"left_children":[1,3,5,7,9,11,13,15,17,-1,-1,19,-1,21,23,25,27,-1,-1,-1,29,31,33,35,37,-1,-1,-1,-1,-1,-1,-1,-1,-1,-1,-1,-1,-1,-1],"loss_changes":[1.0516269E0,1.5258716E1,3.2181094E0,4.777313E0,2.898613E0,9.1849256E-1,3.8779173E0,3.220436E0,5.843628E0,0E0,0E0,1.5792794E0,0E0,1.413693E2,1.6584189E2,3.133459E0,4.9916655E-4,0E0,0E0,0E0,2.4075735E-1,1.7980275E2,3.8821476E1,7.8787094E1,3.230284E1,0E0,0E0,0E0,0E0,0E0,0E0,0E0,0E0,0E0,0E0,0E0,0E0,0E0,0E0],"parents":[2147483647,0,0,1,1,2,2,3,3,4,4,5,5,6,6,7,7,8,8,11,11,13,13,14,14,15,15,16,16,20,20,21,21,22,22,23,23,24,24],"right_children":[2,4,6,8,10,12,14,16,18,-1,-1,20,-1,22,24,26,28,-1,-1,-1,30,32,34,36,38,-1,-1,-1,-1,-1,-1,-1,-1,-1,-1,-1,-1,-1,-1],"split_conditions":[3E0,1E0,4E0,1E0,2E0,1E0,1E0,1E0,2E0,-6.20754E-2,-2.3966903E-2,1E0,9.082122E-4,5E0,5E0,2E0,2E0,1.2772898E-2,-3.2719314E-2,3.264817E-2,1E0,1E0,9E0,1E0,9E0,9.828613E-3,4.7855563E-2,3.1538594E-3,2.6483482E-3,4.1760746E-3,1.4316863E-2,-2.547053E-1,1.898283E-2,3.267871E-2,-1.2889407E-2,2.2755325E-2,2.1184672E-1,-3.2650128E-2,9.447433E-3],"split_indices":[0,4,0,1,0,2,1,2,0,0,0,1,0,0,0,0,0,0,0,0,3,2,0,3,0,0,0,0,0,0,0,0,0,0,0,0,0,0,0],"split_type":[0,0,0,0,0,0,0,0,0,0,0,0,0,0,0,0,0,0,0,0,0,0,0,0,0,0,0,0,0,0,0,0,0,0,0,0,0,0,0],"sum_hessian":[2E4,3.352E3,1.6648E4,2.63E3,7.22E2,1.68E3,1.4968E4,1.615E3,1.015E3,3.68E2,3.54E2,1.278E3,4.02E2,7.594E3,7.374E3,7.82E2,8.33E2,4.99E2,5.16E2,4.11E2,8.67E2,8.63E2,6.731E3,8.13E2,6.561E3,3.74E2,4.08E2,4.14E2,4.19E2,3.64E2,5.03E2,4.36E2,4.27E2,3.304E3,3.427E3,3.43E2,4.7E2,3.244E3,3.317E3],"tree_param":{"num_deleted":"0","num_feature":"5","num_nodes":"39","size_leaf_vector":"1"}},{"base_weights":[-6.9301E-6,-5.5620843E-3,5.5183107E-3,-1.5703589E-2,3.3718523E-2,5.082295E-2,-3.0118546E-3,1.4499992E-2,-7.5899586E-2,-3.6039975E-2,1.9507927E-1,7.76047E-2,-8.93557E-3,7.1589136E-3,-4.3459274E-2,-4.5180704E-2,1.1327041E-1,6.918632E-2,-9.584727E-2,-1.01501405E-1,3.0859252E-2,7.331541E-2,4.4155464E-2,1.0640344E-1,9.969886E-3,-3.0771993E-2,6.3821256E-2,1.0470083E-1,-2.5596523E-1,1.139459E-2,-8.3678156E-2,-1.5280794E-3,1.4842804E-1,5.491621E-2,-1.3594284E-2,-4.350347E-2,-1.6796833E-2,2.92638E-3,1.594877E-2,2.4688428E-2,4.027072E-2,7.680808E-3,-4.2762525E-2,-1.0344152E-3,5.4386985E-2,-3.0690588E-2,1.5989693E-1,-1.3297357E-1,-2.8470326E-2],"categories":[],"categories_nodes":[],"categories_segments":[],"categories_sizes":[],"default_left":[0,0,0,0,0,0,0,0,0,0,0,0,0,0,0,0,0,0,0,0,0,0,0,0,0,0,0,0,0,0,0,0,0,0,0,0,0,0,0,0,0,0,0,0,0,0,0,0,0],"id":24,"left_children":[1,3,5,7,9,11,13,15,17,19,21,23,-1,25,27,29,31,33,-1,35,37,-1,-1,39,-1,41,43,45,47,-1,-1,-1,-1,-1,-1,-1,-1,-1,-1,-1,-1,-1,-1,-1,-1,-1,-1,-1,-1],"loss_changes":[6.139326E-1,3.9738166E0,3.8755343E0,1.4415271E1,2.3048643E1,3.4326892E0,3.4723697E0,3.1129066E1,9.364217E1,6.2655582E0,1.4234066E0,1.5209398E0,0E0,1.4498683E1,5.3425198E1,6.4003716E1,8.981512E1,2.1664284E1,0E0,1.4235897E0,3.327396E-1,0E0,0E0,4.740858E-1,0E0,2.5465929E1,2.1375637E1,8.871152E1,2.09823E1,0E0,0E0,0E0,0E0,0E0,0E0,0E0,0E0,0E0,0E0,0E0,0E0,0E0,0E0,0E0,0E0,0E0,0E0,0E0,0E0],"parents":[2147483647,0,0,1,1,2,2,3,3,4,4,5,5,6,6,7,7,8,8,9,9,10,10,11,11,13,13,14,14,15,15,16,16,17,17,19,19,20,20,23,23,25,25,26,26,27,27,28,28],"right_children":[2,4,6,8,10,12,14,16,18,20,22,24,-1,26,28,30,32,34,-1,36,38,-1,-1,40,-1,42,44,46,48,-1,-1,-1,-1,-1,-1,-1,-1,-1,-1,-1,-1,-1,-1,-1,-1,-1,-1,-1,-1],"split_conditions":[7E0,1E0,8E0,5E0,5E0,1E0,1E0,1E0,1E0,3E0,6E0,1E0,-8.93557E-3,1.1E1,1.1E1,4E0,4E0,1E0,-9.584727E-2,2E0,4E0,7.331541E-2,4.4155464E-2,1E0,9.969886E-3,1E1,1E0,1E1,1.2E1,1.139459E-2,-8.3678156E-2,-1.5280794E-3,1.4842804E-1,5.491621E-2,-1.3594284E-2,-4.350347E-2,-1.6796833E-2,2.92638E-3,1.594877E-2,2.4688428E-2,4.027072E-2,7.680808E-3,-4.2762525E-2,-1.0344152E-3,5.4386985E-2,-3.0690588E-2,1.5989693E-1,-1.3297357E-1,-2.8470326E-2],"split_indices":[0,4,0,0,0,2,4,1,1,0,0,3,0,0,0,0,0,2,0,0,0,0,0,1,0,0,1,0,0,0,0,0,0,0,0,0,0,0,0,0,0,0,0,0,0,0,0,0,0],"split_type":[0,0,0,0,0,0,0,0,0,0,0,0,0,0,0,0,0,0,0,0,0,0,0,0,0,0,0,0,0,0,0,0,0,0,0,0,0,0,0,0,0,0,0,0,0,0,0,0,0],"sum_hessian":[2E4,9.973E3,1.0027E4,7.927E3,2.046E3,1.588E3,8.439E3,5.279E3,2.648E3,1.429E3,6.17E2,1.192E3,3.96E2,6.744E3,1.695E3,3.291E3,1.988E3,1.66E3,9.88E2,7.22E2,7.07E2,3.02E2,3.15E2,7.22E2,4.7E2,4.04E3,2.704E3,9.99E2,6.96E2,2.428E3,8.63E2,1.518E3,4.7E2,8.32E2,8.28E2,3.68E2,3.54E2,3.64E2,3.43E2,3.89E2,3.33E2,2.686E3,1.354E3,1.72E3,9.84E2,6.74E2,3.25E2,3.21E2,3.75E2],"tree_param":{"num_deleted":"0","num_feature":"5","num_nodes":"49","size_leaf_vector":"1"}},{"base_weights":[1.9406302E-6,4.1019814E-3,-9.786082E-3,1.6011344E-2,-5.345589E-2,7.936103E-2,-5.505129E-2,-3.037557E-3,1.8473735E-1,-2.4148684E-3,-1.7940731E-1,-3.5687233E-3,1.0399362E-1,-1.1615704E-1,1.2695704E-1,1.3621641E-2,-1.328484E-1,2.7703243E-1,6.789517E-3,-3.7715793E-2,3.089663E-2,-9.320564E-2,-1.9951744E-2,-2.2674793E-2,1.04861315E-2,-4.4429746E-2,-1.405457E-1,5.6841884E-2,2.0579085E-2,-8.916295E-3,1.7476998E-2,-5.7978604E-2,4.732767E-3,6.0956728E-2,1.12075016E-1,1.8988028E-2,-4.166293E-2,-2.4261307E-3,2.1022517E-2,9.405928E-3,-2.2464681E-2,-4.0070698E-2,9.785005E-2],"categories":[],"categories_nodes":[],"categories_segments":[],"categories_sizes":[],"default_left":[0,0,0,0,0,0,0,0,0,0,0,0,0,0,0,0,0,0,0,0,0,0,0,0,0,0,0,0,0,0,0,0,0,0,0,0,0,0,0,0,0,0,0],"id":25,"left_children":[1,3,5,7,9,11,13,15,17,19,21,23,-1,25,27,29,31,33,-1,35,37,-1,-1,39,-1,41,-1,-1,-1,-1,-1,-1,-1,-1,-1,-1,-1,-1,-1,-1,-1,-1,-1],"loss_changes":[8.027062E-1,9.664034E0,2.3832594E1,3.754382E1,1.5537708E1,4.408906E1,4.3578667E1,2.270204E1,1.7723171E1,2.024935E0,1.0309923E1,1.118797E0,0E0,7.4100716E1,3.5807114E0,1.8001236E1,1.072389E1,5.3069725E0,0E0,8.55117E0,1.3537735E0,0E0,0E0,2.8681378E0,0E0,8.058216E1,0E0,0E0,0E0,0E0,0E0,0E0,0E0,0E0,0E0,0E0,0E0,0E0,0E0,0E0,0E0,0E0,0E0],"parents":[2147483647,0,0,1,1,2,2,3,3,4,4,5,5,6,6,7,7,8,8,9,9,10,10,11,11,13,13,14,14,15,15,16,16,17,17,19,19,20,20,23,23,25,25],"right_children":[2,4,6,8,10,12,14,16,18,20,22,24,-1,26,28,30,32,34,-1,36,38,-1,-1,40,-1,42,-1,-1,-1,-1,-1,-1,-1,-1,-1,-1,-1,-1,-1,-1,-1,-1,-1],"split_conditions":[1E0,1.1E1,5E0,1E1,1E0,4E0,1.1E1,9E0,1E0,1E0,1.2E1,3E0,1.0399362E-1,1E1,1.2E1,5E0,1E0,1E0,6.789517E-3,1.2E1,1.2E1,-9.320564E-2,-1.9951744E-2,2E0,1.04861315E-2,9E0,-1.405457E-1,5.6841884E-2,2.0579085E-2,-8.916295E-3,1.7476998E-2,-5.7978604E-2,4.732767E-3,6.0956728E-2,1.12075016E-1,1.8988028E-2,-4.166293E-2,-2.4261307E-3,2.1022517E-2,9.405928E-3,-2.2464681E-2,-4.0070698E-2,9.785005E-2],"split_indices":[3,0,0,0,1,0,0,0,2,2,0,0,0,0,0,0,1,1,0,0,0,0,0,0,0,0,0,0,0,0,0,0,0,0,0,0,0,0,0,0,0,0,0],"split_type":[0,0,0,0,0,0,0,0,0,0,0,0,0,0,0,0,0,0,0,0,0,0,0,0,0,0,0,0,0,0,0,0,0,0,0,0,0,0,0,0,0,0,0],"sum_hessian":[2E4,1.4096E4,5.904E3,1.168E4,2.416E3,1.988E3,3.916E3,1.0496E4,1.184E3,1.72E3,6.96E2,1.518E3,4.7E2,2.932E3,9.84E2,9.303E3,1.193E3,7.54E2,4.3E2,8.35E2,8.85E2,3.21E2,3.75E2,1.015E3,5.03E2,2.437E3,4.95E2,4.74E2,5.1E2,4.72E3,4.583E3,8.48E2,3.45E2,4.29E2,3.25E2,4.18E2,4.17E2,4.44E2,4.41E2,4.99E2,5.16E2,1.965E3,4.72E2],"tree_param":{"num_deleted":"0","num_feature":"5","num_nodes":"43","size_leaf_vector":"1"}},{"base_weights":[7.0742885E-6,8.580752E-3,-2.8756384E-3,3.5503432E-2,-1.6526263E-2,-2.7235916E-2,4.112509E-3,6.93369E-2,2.7909263E-3,-3.5175618E-2,2.0834457E-2,-1.01528175E-1,5.1946327E-2,1.892651E-2,-1.0995399E-2,6.1465944E-3,9.159148E-2,4.3061255E-3,-1.05501465E-4,-6.2231485E-2,-1.5887659E-2,4.71818E-3,7.347534E-3,-2.6360235E-1,5.86068E-2,1.6003302E-1,-5.7685703E-2,6.5772176E-2,-1.4518725E-2,-7.6671764E-2,-3.4081168E-4,3.2790862E-2,2.2136023E-2,1.4687816E-3,1.1139243E-3,-2.7820187E-2,-9.105242E-3,6.589458E-3,-1.5739435E-2,-1.507544E-1,-4.3176436E-3,4.10149E-2,-5.251697E-3,1.3844614E-2,7.286097E-2,4.616608E-2,-5.56583E-2,5.599058E-2,-1.678121E-2,-4.0605213E-2,7.574717E-3,2.5722617E-2,-5.4440852E-2,9.252391E-3,-9.292261E-3],"categories":[],"categories_nodes":[],"categories_segments":[],"categories_sizes":[],"default_left":[0,0,0,0,0,0,0,0,0,0,0,0,0,0,0,0,0,0,0,0,0,0,0,0,0,0,0,0,0,0,0,0,0,0,0,0,0,0,0,0,0,0,0,0,0,0,0,0,0,0,0,0,0,0,0],"id":26,"left_children":[1,3,5,7,9,11,13,15,17,19,21,23,25,27,29,-1,31,33,-1,35,37,-1,-1,39,41,43,45,47,49,51,53,-1,-1,-1,-1,-1,-1,-1,-1,-1,-1,-1,-1,-1,-1,-1,-1,-1,-1,-1,-1,-1,-1,-1,-1],"loss_changes":[4.9435833E-1,3.4026341E0,2.548333E0,2.6881685E0,1.8157752E0,1.9635603E1,2.603773E0,1.2961173E0,5.8869272E-3,9.0599084E-1,1.5827894E-2,4.4707798E1,1.9158451E1,9.204128E0,4.03056E0,0E0,2.5051928E-1,2.7354155E-4,0E0,7.00259E-1,1.407841E0,0E0,0E0,5.095848E1,5.1568007E0,7.667921E0,2.1747982E1,3.6006275E1,1.6475712E1,1.3700123E1,4.735951E0,0E0,0E0,0E0,0E0,0E0,0E0,0E0,0E0,0E0,0E0,0E0,0E0,0E0,0E0,0E0,0E0,0E0,0E0,0E0,0E0,0E0,0E0,0E0,0E0],"parents":[2147483647,0,0,1,1,2,2,3,3,4,4,5,5,6,6,7,7,8,8,9,9,10,10,11,11,12,12,13,13,14,14,16,16,17,17,19,19,20,20,23,23,24,24,25,25,26,26,27,27,28,28,29,29,30,30],"right_children":[2,4,6,8,10,12,14,16,18,20,22,24,26,28,30,-1,32,34,-1,36,38,-1,-1,40,42,44,46,48,50,52,54,-1,-1,-1,-1,-1,-1,-1,-1,-1,-1,-1,-1,-1,-1,-1,-1,-1,-1,-1,-1,-1,-1,-1,-1],"split_conditions":[4E0,1E0,6E0,1E0,3E0,1E0,1E0,2E0,3E0,1E0,1E0,1E0,5E0,9E0,7E0,6.1465944E-3,3E0,2E0,-1.05501465E-4,2E0,2E0,4.71818E-3,7.347534E-3,5E0,5E0,1E0,1E0,1E0,1E1,1E0,1E1,3.2790862E-2,2.2136023E-2,1.4687816E-3,1.1139243E-3,-2.7820187E-2,-9.105242E-3,6.589458E-3,-1.5739435E-2,-1.507544E-1,-4.3176436E-3,4.10149E-2,-5.251697E-3,1.3844614E-2,7.286097E-2,4.616608E-2,-5.56583E-2,5.599058E-2,-1.678121E-2,-4.0605213E-2,7.574717E-3,2.5722617E-2,-5.4440852E-2,9.252391E-3,-9.292261E-3],"split_indices":[0,1,0,2,0,1,1,0,0,3,3,2,0,0,0,0,0,0,0,0,0,0,0,0,0,3,3,2,0,3,0,0,0,0,0,0,0,0,0,0,0,0,0,0,0,0,0,0,0,0,0,0,0,0,0],"split_type":[0,0,0,0,0,0,0,0,0,0,0,0,0,0,0,0,0,0,0,0,0,0,0,0,0,0,0,0,0,0,0,0,0,0,0,0,0,0,0,0,0,0,0,0,0,0,0,0,0,0,0,0,0,0,0],"sum_hessian":[2E4,5.032E3,1.4968E4,2.428E3,2.604E3,3.336E3,1.1632E4,1.193E3,1.235E3,1.737E3,8.67E2,1.721E3,1.615E3,5.873E3,5.759E3,3.74E2,8.19E2,8.33E2,4.02E2,7.22E2,1.015E3,3.64E2,5.03E2,8.55E2,8.66E2,8.13E2,8.02E2,2.446E3,3.427E3,8.03E2,4.956E3,4.08E2,4.11E2,4.14E2,4.19E2,3.68E2,3.54E2,4.99E2,5.16E2,4.36E2,4.19E2,4.27E2,4.39E2,3.43E2,4.7E2,3.02E2,5E2,1.227E3,1.219E3,8.48E2,2.579E3,3.15E2,4.88E2,2.456E3,2.5E3],"tree_param":{"num_deleted":"0","num_feature":"5","num_nodes":"55","size_leaf_vector":"1"}},{"base_weights":[3.0539893E-6,6.012062E-3,-2.017344E-3,2.487823E-2,-1.1581771E-2,-1.9077595E-2,2.876671E-3,4.858712E-2,1.9548533E-3,-2.4649939E-2,1.4598016E-2,-7.11391E-2,3.6410637E-2,1.3249248E-2,-7.701697E-3,4.306726E-3,6.418246E-2,3.0155685E-3,-7.353752E-5,-4.3612693E-2,-1.1131512E-2,3.306424E-3,5.147775E-3,-1.8470322E-1,4.106623E-2,1.1213023E-1,-4.0391553E-2,4.6056885E-2,-1.0173603E-2,-3.8676042E-2,1.5106629E-2,2.2977572E-2,1.5512278E-2,1.0281042E-3,7.8055245E-4,-1.9496627E-2,-6.3812328E-3,4.615874E-3,-1.10267345E-2,-1.05631985E-1,-3.0252568E-3,2.8738959E-2,-3.6794266E-3,9.703626E-3,5.104917E-2,3.236215E-2,-3.8994126E-2,3.920662E-2,-1.1750302E-2,-2.8438471E-2,5.302995E-3,8.9491985E-4,-3.5584E-2,3.827339E-2,-6.505595E-3],"categories":[],"categories_nodes":[],"categories_segments":[],"categories_sizes":[],"default_left":[0,0,0,0,0,0,0,0,0,0,0,0,0,0,0,0,0,0,0,0,0,0,0,0,0,0,0,0,0,0,0,0,0,0,0,0,0,0,0,0,0,0,0,0,0,0,0,0,0,0,0,0,0,0,0],"id":27,"left_children":[1,3,5,7,9,11,13,15,17,19,21,23,25,27,29,-1,31,33,-1,35,37,-1,-1,39,41,43,45,47,49,51,53,-1,-1,-1,-1,-1,-1,-1,-1,-1,-1,-1,-1,-1,-1,-1,-1,-1,-1,-1,-1,-1,-1,-1,-1],"loss_changes":[2.4283604E-1,1.6708829E0,1.2498635E0,1.3200371E0,8.915872E-1,9.642518E0,1.2765324E0,6.364951E-1,2.8850078E-3,4.4504488E-1,7.7621937E-3,2.1950169E1,9.402266E0,4.5143347E0,4.069868E0,0E0,1.22980595E-1,1.3305154E-4,0E0,3.4390974E-1,6.909357E-1,0E0,0E0,2.5018883E1,2.5317922E0,3.7634811E0,1.0680211E1,1.7654625E1,8.080527E0,8.135828E0,1.373278E1,0E0,0E0,0E0,0E0,0E0,0E0,0E0,0E0,0E0,0E0,0E0,0E0,0E0,0E0,0E0,0E0,0E0,0E0,0E0,0E0,0E0,0E0,0E0,0E0],"parents":[2147483647,0,0,1,1,2,2,3,3,4,4,5,5,6,6,7,7,8,8,9,9,10,10,11,11,12,12,13,13,14,14,16,16,17,17,19,19,20,20,23,23,24,24,25,25,26,26,27,27,28,28,29,29,30,30],"right_children":[2,4,6,8,10,12,14,16,18,20,22,24,26,28,30,-1,32,34,-1,36,38,-1,-1,40,42,44,46,48,50,52,54,-1,-1,-1,-1,-1,-1,-1,-1,-1,-1,-1,-1,-1,-1,-1,-1,-1,-1,-1,-1,-1,-1,-1,-1],"split_conditions":[4E0,1E0,6E0,1E0,3E0,1E0,1E0,2E0,3E0,1E0,1E0,1E0,5E0,9E0,9E0,4.306726E-3,3E0,2E0,-7.353752E-5,2E0,2E0,3.306424E-3,5.147775E-3,5E0,5E0,1E0,1E0,1E0,1E1,8E0,1E1,2.2977572E-2,1.5512278E-2,1.0281042E-3,7.8055245E-4,-1.9496627E-2,-6.3812328E-3,4.615874E-3,-1.10267345E-2,-1.05631985E-1,-3.0252568E-3,2.8738959E-2,-3.6794266E-3,9.703626E-3,5.104917E-2,3.236215E-2,-3.8994126E-2,3.920662E-2,-1.1750302E-2,-2.8438471E-2,5.302995E-3,8.9491985E-4,-3.5584E-2,3.827339E-2,-6.505595E-3],"split_indices":[0,1,0,2,0,1,1,0,0,3,3,2,0,0,0,0,0,0,0,0,0,0,0,0,0,3,3,2,0,0,0,0,0,0,0,0,0,0,0,0,0,0,0,0,0,0,0,0,0,0,0,0,0,0,0],"split_type":[0,0,0,0,0,0,0,0,0,0,0,0,0,0,0,0,0,0,0,0,0,0,0,0,0,0,0,0,0,0,0,0,0,0,0,0,0,0,0,0,0,0,0,0,0,0,0,0,0,0,0,0,0,0,0],"sum_hessian":[2E4,5.032E3,1.4968E4,2.428E3,2.604E3,3.336E3,1.1632E4,1.193E3,1.235E3,1.737E3,8.67E2,1.721E3,1.615E3,5.873E3,5.759E3,3.74E2,8.19E2,8.33E2,4.02E2,7.22E2,1.015E3,3.64E2,5.03E2,8.55E2,8.66E2,8.13E2,8.02E2,2.446E3,3.427E3,2.442E3,3.317E3,4.08E2,4.11E2,4.14E2,4.19E2,3.68E2,3.54E2,4.99E2,5.16E2,4.36E2,4.19E2,4.27E2,4.39E2,3.43E2,4.7E2,3.02E2,5E2,1.227E3,1.219E3,8.48E2,2.579E3,1.606E3,8.36E2,8.17E2,2.5E3],"tree_param":{"num_deleted":"0","num_feature":"5","num_nodes":"55","size_leaf_vector":"1"}},{"base_weights":[1.7550544E-6,-2.049859E-3,6.056893E-3,-4.1027364E-4,-1.9209193E-2,-2.0533868E-3,2.1515094E-2,-7.982369E-3,6.028785E-3,-7.269465E-2,1.914909E-2,1.8294264E-2,-2.2448858E-2,1.9951526E-2,6.900928E-3,-3.4226168E-2,4.76207E-3,3.8650963E-2,-1.0681698E-2,-3.304788E-2,-9.255437E-3,1.3708713E-3,2.0137124E-2,-3.1070627E-2,-1.3820827E-2,-7.932707E-3,1.0875164E-2,1.0214357E-2,-3.8825665E-2,-5.1821894E-3,6.055346E-3,2.745396E-2,-3.748052E-3,-1.6379919E-2,-6.022913E-4,6.339972E-4,-5.0706134E-5,-2.5775814E-3,-1.690546E-2,-2.953971E-3,-5.224841E-3,9.032044E-4,-5.5541946E-3],"categories":[],"categories_nodes":[],"categories_segments":[],"categories_sizes":[],"default_left":[0,0,0,0,0,0,0,0,0,0,0,0,0,0,0,0,0,0,0,0,0,0,0,0,0,0,0,0,0,0,0,0,0,0,0,0,0,0,0,0,0,0,0],"id":28,"left_children":[1,3,5,7,9,11,13,15,17,19,-1,21,23,-1,25,27,29,31,33,-1,-1,35,-1,37,39,41,-1,-1,-1,-1,-1,-1,-1,-1,-1,-1,-1,-1,-1,-1,-1,-1,-1],"loss_changes":[2.4848095E-1,4.2031693E-1,6.346688E-1,6.6499835E-1,5.7917905E0,1.3786254E0,1.1448905E0,2.096574E0,4.018584E0,1.2397504E0,0E0,1.3741454E0,1.2298179E-1,0E0,5.7322323E-1,1.3321245E1,1.4345111E0,6.75206E0,1.8570104E0,0E0,0E0,1.413472E-3,0E0,4.7062123E-1,1.17023885E-2,1.0137636E-1,0E0,0E0,0E0,0E0,0E0,0E0,0E0,0E0,0E0,0E0,0E0,0E0,0E0,0E0,0E0,0E0,0E0],"parents":[2147483647,0,0,1,1,2,2,3,3,4,4,5,5,6,6,7,7,8,8,9,9,11,11,12,12,14,14,15,15,16,16,17,17,18,18,21,21,23,23,24,24,25,25],"right_children":[2,4,6,8,10,12,14,16,18,20,-1,22,24,-1,26,28,30,32,34,-1,-1,36,-1,38,40,42,-1,-1,-1,-1,-1,-1,-1,-1,-1,-1,-1,-1,-1,-1,-1,-1,-1],"split_conditions":[1E0,1.2E1,9E0,6E0,1E0,5E0,1E1,1E0,1E0,1E0,1.914909E-2,4E0,7E0,1.9951526E-2,1.2E1,4E0,3E0,9E0,7E0,-3.304788E-2,-9.255437E-3,3E0,2.0137124E-2,6E0,8E0,1.1E1,1.0875164E-2,1.0214357E-2,-3.8825665E-2,-5.1821894E-3,6.055346E-3,2.745396E-2,-3.748052E-3,-1.6379919E-2,-6.022913E-4,6.339972E-4,-5.0706134E-5,-2.5775814E-3,-1.690546E-2,-2.953971E-3,-5.224841E-3,9.032044E-4,-5.5541946E-3],"split_indices":[2,0,0,0,3,0,0,1,1,1,0,0,0,0,0,0,0,0,0,0,0,0,0,0,0,0,0,0,0,0,0,0,0,0,0,0,0,0,0,0,0,0,0],"split_type":[0,0,0,0,0,0,0,0,0,0,0,0,0,0,0,0,0,0,0,0,0,0,0,0,0,0,0,0,0,0,0,0,0,0,0,0,0,0,0,0,0,0,0],"sum_hessian":[2E4,1.4939E4,5.061E3,1.3637E4,1.302E3,3.32E3,1.741E3,6.267E3,7.37E3,7.92E2,5.1E2,1.662E3,1.658E3,4.26E2,1.315E3,2.048E3,4.219E3,2.496E3,4.874E3,4.17E2,3.75E2,1.235E3,4.27E2,8.28E2,8.3E2,8.74E2,4.41E2,1.193E3,8.55E2,1.737E3,2.482E3,1.227E3,1.269E3,8.03E2,4.071E3,8.33E2,4.02E2,4.39E2,3.89E2,3.96E2,4.34E2,4.3E2,4.44E2],"tree_param":{"num_deleted":"0","num_feature":"5","num_nodes":"43","size_leaf_vector":"1"}},{"base_weights":[1.0213341E-7,-1.4378381E-3,4.2440426E-3,-2.8867522E-4,-1.346458E-2,-1.4387243E-3,1.50754005E-2,4.437438E-3,-7.5105084E-3,-5.0939772E-2,1.3415396E-2,1.2819305E-2,-1.5730264E-2,1.3980283E-2,4.8349127E-3,-9.084055E-3,6.553461E-2,-2.2627242E-2,4.4734403E-2,-2.3157582E-2,-6.4859134E-3,9.6147036E-4,1.4109903E-2,-2.1771729E-2,-9.68441E-3,-5.5586393E-3,7.6198336E-3,1.71545E-3,-3.7321866E-2,5.8807462E-2,-2.0306788E-2,2.937089E-3,-9.355677E-2,4.4425306E-4,-3.472416E-5,-1.8057191E-3,-1.1846443E-2,-2.0704295E-3,-3.6606046E-3,6.326087E-4,-3.8916792E-3],"categories":[],"categories_nodes":[],"categories_segments":[],"categories_sizes":[],"default_left":[0,0,0,0,0,0,0,0,0,0,0,0,0,0,0,0,0,0,0,0,0,0,0,0,0,0,0,0,0,0,0,0,0,0,0,0,0,0,0,0,0],"id":29,"left_children":[1,3,5,7,9,11,13,15,17,19,-1,21,23,-1,25,27,29,31,-1,-1,-1,33,-1,35,37,39,-1,-1,-1,-1,-1,-1,-1,-1,-1,-1,-1,-1,-1,-1,-1],"loss_changes":[1.2206285E-1,2.0647714E-1,3.1159833E-1,4.6551466E-1,2.8433428E0,6.7691916E-1,5.6215656E-1,6.811169E0,1.2776906E1,6.087153E-1,0E0,6.746345E-1,6.0385495E-2,0E0,2.814211E-1,1.1524831E1,2.5985592E1,4.6142746E1,0E0,0E0,0E0,6.916862E-4,0E0,2.3112026E-1,5.738139E-3,4.9764756E-2,0E0,0E0,0E0,0E0,0E0,0E0,0E0,0E0,0E0,0E0,0E0,0E0,0E0,0E0,0E0],"parents":[2147483647,0,0,1,1,2,2,3,3,4,4,5,5,6,6,7,7,8,8,9,9,11,11,12,12,14,14,15,15,16,16,17,17,21,21,23,23,24,24,25,25],"right_children":[2,4,6,8,10,12,14,16,18,20,-1,22,24,-1,26,28,30,32,-1,-1,-1,34,-1,36,38,40,-1,-1,-1,-1,-1,-1,-1,-1,-1,-1,-1,-1,-1,-1,-1],"split_conditions":[1E0,1.2E1,9E0,1E0,1E0,5E0,1E1,1E1,1.1E1,1E0,1.3415396E-2,4E0,7E0,1.3980283E-2,1.2E1,9E0,1.1E1,1E1,4.4734403E-2,-2.3157582E-2,-6.4859134E-3,3E0,1.4109903E-2,6E0,8E0,1.1E1,7.6198336E-3,1.71545E-3,-3.7321866E-2,5.8807462E-2,-2.0306788E-2,2.937089E-3,-9.355677E-2,4.4425306E-4,-3.472416E-5,-1.8057191E-3,-1.1846443E-2,-2.0704295E-3,-3.6606046E-3,6.326087E-4,-3.8916792E-3],"split_indices":[2,0,0,3,3,0,0,0,0,1,0,0,0,0,0,0,0,0,0,0,0,0,0,0,0,0,0,0,0,0,0,0,0,0,0,0,0,0,0,0,0],"split_type":[0,0,0,0,0,0,0,0,0,0,0,0,0,0,0,0,0,0,0,0,0,0,0,0,0,0,0,0,0,0,0,0,0,0,0,0,0,0,0,0,0],"sum_hessian":[2E4,1.4939E4,5.061E3,1.3637E4,1.302E3,3.32E3,1.741E3,8.243E3,5.394E3,7.92E2,5.1E2,1.662E3,1.658E3,4.26E2,1.315E3,6.75E3,1.493E3,4.92E3,4.74E2,4.17E2,3.75E2,1.235E3,4.27E2,8.28E2,8.3E2,8.74E2,4.41E2,5.983E3,7.67E2,7.54E2,7.39E2,4.425E3,4.95E2,8.33E2,4.02E2,4.39E2,3.89E2,3.96E2,4.34E2,4.3E2,4.44E2],"tree_param":{"num_deleted":"0","num_feature":"5","num_nodes":"41","size_leaf_vector":"1"}},{"base_weights":[-2.416776E-6,-4.2738705E-3,3.070548E-3,7.020731E-4,-1.1777512E-2,7.46509E-3,-1.4115026E-3,1.1219812E-2,-9.105331E-3,-3.879524E-2,1.7019708E-2,4.5007616E-2,1.5198782E-3,-2.3746671E-2,1.5034015E-2,2.2125473E-2,6.75652E-4,-1.4524301E-2,1.7555825E-3,-9.235285E-2,1.412761E-2,7.009788E-2,-3.6806755E-2,3.4010094E-2,-8.302163E-3,-4.4030596E-2,9.870975E-3,8.132261E-3,-8.4924325E-2,1.0399874E-1,-1.4069616E-2,-5.5089116E-4,9.916986E-3,3.1166078E-4,-2.3308463E-5,-8.130979E-3,-1.6675912E-3,-7.835284E-6,9.127254E-4,-6.290733E-2,8.986405E-3,9.886624E-3,-1.2656439E-3,4.476327E-3,3.307441E-2,2.0360414E-2,-3.0011883E-2,-2.5143797E-2,-1.4517221E-3,2.0449882E-2,-1.4270237E-3,2.0886146E-2,-1.0046449E-2,-4.6618134E-2,-1.16939265E-2,4.4450708E-4,5.3631064E-2,-1.3442878E-2,2.85645E-4],"categories":[],"categories_nodes":[],"categories_segments":[],"categories_sizes":[],"default_left":[0,0,0,0,0,0,0,0,0,0,0,0,0,0,0,0,0,0,0,0,0,0,0,0,0,0,0,0,0,0,0,0,0,0,0,0,0,0,0,0,0,0,0,0,0,0,0,0,0,0,0,0,0,0,0,0,0,0,0],"id":30,"left_children":[1,3,5,7,9,11,13,15,17,19,21,23,25,27,29,31,33,35,37,39,41,43,45,-1,-1,47,49,51,53,55,57,-1,-1,-1,-1,-1,-1,-1,-1,-1,-1,-1,-1,-1,-1,-1,-1,-1,-1,-1,-1,-1,-1,-1,-1,-1,-1,-1,-1],"loss_changes":[2.6254678E-1,3.1248742E-1,2.2914061E-1,5.192647E-1,2.5969644E0,1.3109983E0,2.1160824E0,2.7929828E-1,1.5334265E-1,4.882179E0,4.6195087E0,3.9928112E0,1.9298052E0,4.7652206E0,8.592417E0,3.1280482E-1,3.3828558E-4,1.958588E-1,1.9901905E-3,1.2291038E1,2.9962057E-1,1.8016548E0,5.3217554E0,0E0,0E0,1.2250625E0,3.6559658E0,4.1149106E0,2.703888E0,6.269993E0,1.1549263E0,0E0,0E0,0E0,0E0,0E0,0E0,0E0,0E0,0E0,0E0,0E0,0E0,0E0,0E0,0E0,0E0,0E0,0E0,0E0,0E0,0E0,0E0,0E0,0E0,0E0,0E0,0E0,0E0],"parents":[2147483647,0,0,1,1,2,2,3,3,4,4,5,5,6,6,7,7,8,8,9,9,10,10,11,11,12,12,13,13,14,14,15,15,16,16,17,17,18,18,19,19,20,20,21,21,22,22,25,25,26,26,27,27,28,28,29,29,30,30],"right_children":[2,4,6,8,10,12,14,16,18,20,22,24,26,28,30,32,34,36,38,40,42,44,46,-1,-1,48,50,52,54,56,58,-1,-1,-1,-1,-1,-1,-1,-1,-1,-1,-1,-1,-1,-1,-1,-1,-1,-1,-1,-1,-1,-1,-1,-1,-1,-1,-1,-1],"split_conditions":[6E0,4E0,1E0,1E0,1E0,7E0,9E0,1E0,3E0,1E0,5E0,1E0,8E0,8E0,1E1,2E0,3E0,1E0,1E0,5E0,5E0,1E0,1E0,3.4010094E-2,-8.302163E-3,1E0,9E0,1E0,1E0,1E0,1.1E1,-5.5089116E-4,9.916986E-3,3.1166078E-4,-2.3308463E-5,-8.130979E-3,-1.6675912E-3,-7.835284E-6,9.127254E-4,-6.290733E-2,8.986405E-3,9.886624E-3,-1.2656439E-3,4.476327E-3,3.307441E-2,2.0360414E-2,-3.0011883E-2,-2.5143797E-2,-1.4517221E-3,2.0449882E-2,-1.4270237E-3,2.0886146E-2,-1.0046449E-2,-4.6618134E-2,-1.16939265E-2,4.4450708E-4,5.3631064E-2,-1.3442878E-2,2.85645E-4],"split_indices":[0,0,1,1,1,0,0,2,0,2,0,2,0,0,0,0,0,3,3,0,0,3,3,0,0,2,0,3,3,3,0,0,0,0,0,0,0,0,0,0,0,0,0,0,0,0,0,0,0,0,0,0,0,0,0,0,0,0,0],"split_type":[0,0,0,0,0,0,0,0,0,0,0,0,0,0,0,0,0,0,0,0,0,0,0,0,0,0,0,0,0,0,0,0,0,0,0,0,0,0,0,0,0,0,0,0,0,0,0,0,0,0,0,0,0,0,0,0,0,0,0],"sum_hessian":[2E4,8.368E3,1.1632E4,5.032E3,3.336E3,5.873E3,5.759E3,2.428E3,2.604E3,1.721E3,1.615E3,8.02E2,5.071E3,2.442E3,3.317E3,1.193E3,1.235E3,1.737E3,8.67E2,8.55E2,8.66E2,8.13E2,8.02E2,4.13E2,3.89E2,7.85E2,4.286E3,1.606E3,8.36E2,8.17E2,2.5E3,3.74E2,8.19E2,8.33E2,4.02E2,7.22E2,1.015E3,3.64E2,5.03E2,4.36E2,4.19E2,4.27E2,4.39E2,3.43E2,4.7E2,3.02E2,5E2,3.89E2,3.96E2,8.59E2,3.427E3,6.48E2,9.58E2,3.29E2,5.07E2,3.45E2,4.72E2,8.2E2,1.68E3],"tree_param":{"num_deleted":"0","num_feature":"5","num_nodes":"59","size_leaf_vector":"1"}},{"base_weights":[-2.0475318E-6,-3.421787E-3,3.399277E-3,2.6616806E-3,-1.7720975E-2,-5.039942E-4,1.2859784E-2,-9.611232E-3,2.8095288E-2,1.6844396E-2,-8.721825E-2,1.1471931E-2,-2.3712404E-2,-1.423637E-2,6.635132E-2,1.5224742E-3,-4.2026613E-2,5.025184E-2,-1.0692523E-2,-1.8951988E-3,2.3173446E-2,-2.1026215E-2,-3.137734E-2,-1.6044158E-2,9.27334E-2,4.0216786E-3,-9.2158094E-2,5.1052134E-2,-6.1521374E-2,3.125652E-2,9.315007E-3,2.3570175E-3,-3.7900151E-3,-2.3311153E-2,6.9272453E-3,9.652219E-3,2.0426132E-2,-8.8656344E-4,-5.8183144E-3,4.405724E-3,-3.0063766E-3,-5.51008E-4,-1.3044548E-2,1.1839242E-2,6.989256E-2,7.1051256E-3,-4.7209905E-3,-5.443767E-2,-4.6311943E-3,4.5340615E-3,3.7575833E-2],"categories":[],"categories_nodes":[],"categories_segments":[],"categories_sizes":[],"default_left":[0,0,0,0,0,0,0,0,0,0,0,0,0,0,0,0,0,0,0,0,0,0,0,0,0,0,0,0,0,0,0,0,0,0,0,0,0,0,0,0,0,0,0,0,0,0,0,0,0,0,0],"id":31,"left_children":[1,3,5,7,9,11,13,15,17,19,21,23,25,27,29,31,33,35,37,39,-1,-1,-1,41,43,45,47,49,-1,-1,-1,-1,-1,-1,-1,-1,-1,-1,-1,-1,-1,-1,-1,-1,-1,-1,-1,-1,-1,-1,-1],"loss_changes":[2.3265612E-1,8.6767197E-1,3.7030965E-1,2.1846569E0,7.1528153E0,1.9736615E0,4.2462807E0,1.7038888E0,1.9582602E0,2.2514544E0,2.8700876E-1,1.0474901E1,4.5885096E0,2.4243855E1,1.312427E0,3.152779E-1,2.8059072E0,4.6532083E-1,5.57584E-2,2.0481369E-1,0E0,0E0,0E0,1.364289E0,8.843439E0,6.6896296E-1,4.772503E0,3.8647733E0,0E0,0E0,0E0,0E0,0E0,0E0,0E0,0E0,0E0,0E0,0E0,0E0,0E0,0E0,0E0,0E0,0E0,0E0,0E0,0E0,0E0,0E0,0E0],"parents":[2147483647,0,0,1,1,2,2,3,3,4,4,5,5,6,6,7,7,8,8,9,9,10,10,11,11,12,12,13,13,14,14,15,15,16,16,17,17,18,18,19,19,23,23,24,24,25,25,26,26,27,27],"right_children":[2,4,6,8,10,12,14,16,18,20,22,24,26,28,30,32,34,36,38,40,-1,-1,-1,42,44,46,48,50,-1,-1,-1,-1,-1,-1,-1,-1,-1,-1,-1,-1,-1,-1,-1,-1,-1,-1,-1,-1,-1,-1,-1],"split_conditions":[7E0,1E0,1E0,5E0,5E0,1.1E1,1.1E1,4E0,1E0,4E0,6E0,1E1,1E0,1E1,1.2E1,1E0,1E0,6E0,6E0,2E0,2.3173446E-2,-2.1026215E-2,-3.137734E-2,9E0,1E0,1.2E1,1.2E1,9E0,-6.1521374E-2,3.125652E-2,9.315007E-3,2.3570175E-3,-3.7900151E-3,-2.3311153E-2,6.9272453E-3,9.652219E-3,2.0426132E-2,-8.8656344E-4,-5.8183144E-3,4.405724E-3,-3.0063766E-3,-5.51008E-4,-1.3044548E-2,1.1839242E-2,6.989256E-2,7.1051256E-3,-4.7209905E-3,-5.443767E-2,-4.6311943E-3,4.5340615E-3,3.7575833E-2],"split_indices":[0,3,3,0,0,0,0,0,2,0,0,0,1,0,0,1,2,0,0,0,0,0,0,0,1,0,0,0,0,0,0,0,0,0,0,0,0,0,0,0,0,0,0,0,0,0,0,0,0,0,0],"split_type":[0,0,0,0,0,0,0,0,0,0,0,0,0,0,0,0,0,0,0,0,0,0,0,0,0,0,0,0,0,0,0,0,0,0,0,0,0,0,0,0,0,0,0,0,0,0,0,0,0,0,0],"sum_hessian":[2E4,9.973E3,1.0027E4,6.997E3,2.976E3,7.099E3,2.928E3,4.72E3,2.277E3,1.988E3,9.88E2,4.683E3,2.416E3,1.944E3,9.84E2,3.514E3,1.206E3,1.449E3,8.28E2,1.518E3,4.7E2,5E2,4.88E2,3.499E3,1.184E3,1.72E3,6.96E2,1.449E3,4.95E2,4.74E2,5.1E2,2.428E3,1.086E3,7.79E2,4.27E2,7.21E2,7.28E2,4.39E2,3.89E2,4.99E2,1.019E3,2.306E3,1.193E3,8.59E2,3.25E2,8.62E2,8.58E2,3.21E2,3.75E2,9.77E2,4.72E2],"tree_param":{"num_deleted":"0","num_feature":"5","num_nodes":"51","size_leaf_vector":"1"}},{"base_weights":[-9.2644825E-7,-2.3971498E-3,2.3823935E-3,-6.0169697E-3,1.162353E-2,-3.5143126E-4,9.008468E-3,2.8750002E-3,-1.4829272E-2,-8.845708E-3,3.4764465E-2,8.044366E-3,-1.6621834E-2,-9.975953E-3,4.6486326E-2,5.5002123E-3,-1.3248124E-3,-2.1915067E-2,5.670566E-4,-9.059368E-3,2.1248076E-3,3.5748787E-2,9.792659E-3,-1.1235325E-2,6.498181E-2,2.817023E-3,-6.4595506E-2,3.5764795E-2,-4.3102127E-2,2.1898972E-2,6.525829E-3,3.94165E-3,-5.649882E-4,3.0877166E-3,-2.105466E-3,-9.4435485E-3,-5.1419092E-3,4.853854E-3,-2.24823E-3,1.3037238E-4,1.1288736E-3,1.0110992E-2,1.13859195E-2,-3.862845E-4,-9.133947E-3,8.291412E-3,4.8989017E-2,4.9758563E-3,-3.3058613E-3,-3.8157094E-2,-3.2455765E-3,3.1747504E-3,2.632723E-2],"categories":[],"categories_nodes":[],"categories_segments":[],"categories_sizes":[],"default_left":[0,0,0,0,0,0,0,0,0,0,0,0,0,0,0,0,0,0,0,0,0,0,0,0,0,0,0,0,0,0,0,0,0,0,0,0,0,0,0,0,0,0,0,0,0,0,0,0,0,0,0,0,0],"id":32,"left_children":[1,3,5,7,9,11,13,15,17,19,21,23,25,27,29,31,33,35,37,-1,39,41,-1,43,45,47,49,51,-1,-1,-1,-1,-1,-1,-1,-1,-1,-1,-1,-1,-1,-1,-1,-1,-1,-1,-1,-1,-1,-1,-1,-1,-1],"loss_changes":[1.1423076E-1,5.062737E-1,1.8165565E-1,6.2127066E-1,9.6992487E-1,9.700149E-1,2.0844338E0,4.3524537E-2,4.3442965E-1,2.546879E-1,8.406639E-4,5.1425266E0,2.2541635E0,1.1899664E1,6.442692E-1,1.3701987E-1,1.00541115E-1,1.2399948E-1,1.5819444E-1,0E0,1.9891157E-3,1.6335845E-3,0E0,6.6883564E-1,4.3461547E0,3.2806396E-1,2.3448343E0,1.8975474E0,0E0,0E0,0E0,0E0,0E0,0E0,0E0,0E0,0E0,0E0,0E0,0E0,0E0,0E0,0E0,0E0,0E0,0E0,0E0,0E0,0E0,0E0,0E0,0E0,0E0],"parents":[2147483647,0,0,1,1,2,2,3,3,4,4,5,5,6,6,7,7,8,8,9,9,10,10,11,11,12,12,13,13,14,14,15,15,16,16,17,17,18,18,20,20,21,21,23,23,24,24,25,25,26,26,27,27],"right_children":[2,4,6,8,10,12,14,16,18,20,22,24,26,28,30,32,34,36,38,-1,40,42,-1,44,46,48,50,52,-1,-1,-1,-1,-1,-1,-1,-1,-1,-1,-1,-1,-1,-1,-1,-1,-1,-1,-1,-1,-1,-1,-1,-1,-1],"split_conditions":[7E0,1E0,1E0,4E0,4E0,1.1E1,1.1E1,1E0,1E0,2E0,6E0,1E1,1E0,1E1,1.2E1,1E0,2E0,5E0,5E0,-9.059368E-3,3E0,5E0,9.792659E-3,9E0,1E0,1.2E1,1.2E1,9E0,-4.3102127E-2,2.1898972E-2,6.525829E-3,3.94165E-3,-5.649882E-4,3.0877166E-3,-2.105466E-3,-9.4435485E-3,-5.1419092E-3,4.853854E-3,-2.24823E-3,1.3037238E-4,1.1288736E-3,1.0110992E-2,1.13859195E-2,-3.862845E-4,-9.133947E-3,8.291412E-3,4.8989017E-2,4.9758563E-3,-3.3058613E-3,-3.8157094E-2,-3.2455765E-3,3.1747504E-3,2.632723E-2],"split_indices":[0,4,3,0,0,0,0,1,2,0,0,0,1,0,0,2,0,0,0,0,0,0,0,0,1,0,0,0,0,0,0,0,0,0,0,0,0,0,0,0,0,0,0,0,0,0,0,0,0,0,0,0,0],"split_type":[0,0,0,0,0,0,0,0,0,0,0,0,0,0,0,0,0,0,0,0,0,0,0,0,0,0,0,0,0,0,0,0,0,0,0,0,0,0,0,0,0,0,0,0,0,0,0,0,0,0,0,0,0],"sum_hessian":[2E4,9.973E3,1.0027E4,7.927E3,2.046E3,7.099E3,2.928E3,3.946E3,3.981E3,1.086E3,9.6E2,4.683E3,2.416E3,1.944E3,9.84E2,2.428E3,1.518E3,2.726E3,1.255E3,3.68E2,7.18E2,6.45E2,3.15E2,3.499E3,1.184E3,1.72E3,6.96E2,1.449E3,4.95E2,4.74E2,5.1E2,1.193E3,1.235E3,4.99E2,1.019E3,9.06E2,1.82E3,4.27E2,8.28E2,3.54E2,3.64E2,3.43E2,3.02E2,2.306E3,1.193E3,8.59E2,3.25E2,8.62E2,8.58E2,3.21E2,3.75E2,9.77E2,4.72E2],"tree_param":{"num_deleted":"0","num_feature":"5","num_nodes":"53","size_leaf_vector":"1"}},{"base_weights":[1.4535177E-6,-1.6767713E-3,1.6706411E-3,-4.213226E-3,8.147699E-3,1.0527073E-2,3.0413623E-6,2.012432E-3,-1.0383106E-2,-6.198863E-3,2.4366809E-2,-2.9917778E-2,5.005335E-2,6.633606E-3,-6.839817E-3,3.8499797E-3,-9.272753E-4,-1.5345148E-2,3.986389E-4,-6.3487617E-3,1.4893077E-3,2.5057824E-2,6.8631168E-3,-1.7338391E-2,-7.371264E-4,1.3662999E-2,1.5943581E-2,4.8680592E-2,-3.9168736E-3,-6.381988E-2,7.536058E-3,-1.2020504E-3,2.2875674E-3,-1.4919041E-3,2.1690778E-3,-5.7662176E-3,-2.2447365E-3,1.7050166E-3,-3.4052366E-3,9.157208E-5,7.910564E-4,7.0859822E-3,7.982274E-3,3.806371E-2,-8.403553E-3,-1.1826788E-2,2.3305542E-3,-3.2395158E-2,-1.0501516E-2,1.3604009E-2,-1.4500943E-3],"categories":[],"categories_nodes":[],"categories_segments":[],"categories_sizes":[],"default_left":[0,0,0,0,0,0,0,0,0,0,0,0,0,0,0,0,0,0,0,0,0,0,0,0,0,0,0,0,0,0,0,0,0,0,0,0,0,0,0,0,0,0,0,0,0,0,0,0,0,0,0],"id":33,"left_children":[1,3,5,7,9,11,13,15,17,19,21,23,25,27,29,31,33,35,37,-1,39,41,-1,-1,-1,-1,-1,43,45,47,49,-1,-1,-1,-1,-1,-1,-1,-1,-1,-1,-1,-1,-1,-1,-1,-1,-1,-1,-1,-1],"loss_changes":[5.6031045E-2,2.4857968E-1,1.4810334E-1,3.0454776E-1,4.7646436E-1,2.5417273E0,3.8298514E-1,2.1324683E-2,2.1304098E-1,1.2508357E-1,4.1604042E-4,6.015551E-1,8.791208E-3,1.901972E0,3.4031816E0,7.207808E-2,5.0167892E-2,8.2954705E-2,7.805305E-2,0E0,9.761526E-4,8.110702E-4,0E0,0E0,0E0,0E0,0E0,5.16117E0,1.422578E0,1.0613675E0,1.5520692E0,0E0,0E0,0E0,0E0,0E0,0E0,0E0,0E0,0E0,0E0,0E0,0E0,0E0,0E0,0E0,0E0,0E0,0E0,0E0,0E0],"parents":[2147483647,0,0,1,1,2,2,3,3,4,4,5,5,6,6,7,7,8,8,9,9,10,10,11,11,12,12,13,13,14,14,15,15,16,16,17,17,18,18,20,20,21,21,27,27,28,28,29,29,30,30],"right_children":[2,4,6,8,10,12,14,16,18,20,22,24,26,28,30,32,34,36,38,-1,40,42,-1,-1,-1,-1,-1,44,46,48,50,-1,-1,-1,-1,-1,-1,-1,-1,-1,-1,-1,-1,-1,-1,-1,-1,-1,-1,-1,-1],"split_conditions":[7E0,1E0,8E0,4E0,4E0,1E0,1E0,1E0,1E0,2E0,6E0,1E0,1E0,9E0,9E0,2E0,3E0,6E0,6E0,-6.3487617E-3,3E0,5E0,6.8631168E-3,-1.7338391E-2,-7.371264E-4,1.3662999E-2,1.5943581E-2,1E0,1E1,1E0,1E1,-1.2020504E-3,2.2875674E-3,-1.4919041E-3,2.1690778E-3,-5.7662176E-3,-2.2447365E-3,1.7050166E-3,-3.4052366E-3,9.157208E-5,7.910564E-4,7.0859822E-3,7.982274E-3,3.806371E-2,-8.403553E-3,-1.1826788E-2,2.3305542E-3,-3.2395158E-2,-1.0501516E-2,1.3604009E-2,-1.4500943E-3],"split_indices":[0,4,0,0,0,1,1,1,2,0,0,2,3,0,0,0,0,0,0,0,0,0,0,0,0,0,0,2,0,3,0,0,0,0,0,0,0,0,0,0,0,0,0,0,0,0,0,0,0,0,0],"split_type":[0,0,0,0,0,0,0,0,0,0,0,0,0,0,0,0,0,0,0,0,0,0,0,0,0,0,0,0,0,0,0,0,0,0,0,0,0,0,0,0,0,0,0,0,0,0,0,0,0,0,0],"sum_hessian":[2E4,9.973E3,1.0027E4,7.927E3,2.046E3,1.588E3,8.439E3,3.946E3,3.981E3,1.086E3,9.6E2,7.85E2,8.03E2,4.286E3,4.153E3,2.428E3,1.518E3,2.726E3,1.255E3,3.68E2,7.18E2,6.45E2,3.15E2,3.89E2,3.96E2,3.33E2,4.7E2,8.59E2,3.427E3,8.36E2,3.317E3,7.88E2,1.64E3,1.015E3,5.03E2,1.825E3,9.01E2,8.66E2,3.89E2,3.54E2,3.64E2,3.43E2,3.02E2,4.25E2,4.34E2,8.48E2,2.579E3,3.29E2,5.07E2,8.17E2,2.5E3],"tree_param":{"num_deleted":"0","num_feature":"5","num_nodes":"51","size_leaf_vector":"1"}},{"base_weights":[1.7077546E-6,-1.1722036E-3,1.1692975E-3,1.1461746E-3,-6.6215955E-3,7.3769162E-3,4.4971847E-7,-7.5756987E-3,1.922116E-2,1.5918396E-2,-5.1945582E-2,-2.0962372E-2,3.507257E-2,4.647551E-3,-4.7954395E-3,5.196201E-4,-3.114444E-2,3.2801E-2,-4.5544542E-3,-6.4556533E-4,2.0791275E-2,-1.1464916E-2,-1.977164E-2,-1.2149248E-2,-5.156702E-4,9.575998E-3,1.1170107E-2,3.4109417E-2,-2.7450547E-3,-4.472525E-2,5.2787163E-3,-1.9923525E-3,1.2094495E-3,-1.6044667E-2,2.8912108E-3,1.3268861E-2,5.2030324E-3,-4.5952713E-4,-2.3858997E-3,2.6103104E-3,-1.5679798E-3,2.6671598E-2,-5.889356E-3,-5.554933E-3,3.7589883E-3,-2.2706285E-2,-7.357159E-3,9.528033E-3,-1.0153927E-3],"categories":[],"categories_nodes":[],"categories_segments":[],"categories_sizes":[],"default_left":[0,0,0,0,0,0,0,0,0,0,0,0,0,0,0,0,0,0,0,0,0,0,0,0,0,0,0,0,0,0,0,0,0,0,0,0,0,0,0,0,0,0,0,0,0,0,0,0,0],"id":34,"left_children":[1,3,5,7,9,11,13,15,17,19,21,23,25,27,29,31,33,35,37,39,-1,-1,-1,-1,-1,-1,-1,41,43,45,47,-1,-1,-1,-1,-1,-1,-1,-1,-1,-1,-1,-1,-1,-1,-1,-1,-1,-1],"loss_changes":[2.741568E-2,1.2601663E-1,7.2760776E-2,1.1033645E0,3.0421364E0,1.2479017E0,1.8812443E-1,9.007664E-1,7.3564494E-1,1.7588804E0,1.8703127E-1,2.9540625E-1,4.2892694E-3,9.338021E-1,1.6712207E0,8.8421404E-2,1.1000625E0,2.5538576E-1,8.503946E-3,6.508463E-2,0E0,0E0,0E0,0E0,0E0,0E0,0E0,2.5342429E0,8.2606536E-1,5.2167284E-1,7.6131576E-1,0E0,0E0,0E0,0E0,0E0,0E0,0E0,0E0,0E0,0E0,0E0,0E0,0E0,0E0,0E0,0E0,0E0,0E0],"parents":[2147483647,0,0,1,1,2,2,3,3,4,4,5,5,6,6,7,7,8,8,9,9,10,10,11,11,12,12,13,13,14,14,15,15,16,16,17,17,18,18,19,19,27,27,28,28,29,29,30,30],"right_children":[2,4,6,8,10,12,14,16,18,20,22,24,26,28,30,32,34,36,38,40,-1,-1,-1,-1,-1,-1,-1,42,44,46,48,-1,-1,-1,-1,-1,-1,-1,-1,-1,-1,-1,-1,-1,-1,-1,-1,-1,-1],"split_conditions":[7E0,1E0,8E0,5E0,5E0,1E0,1E0,4E0,1E0,4E0,6E0,1E0,1E0,9E0,9E0,2E0,1E0,1E0,6E0,2E0,2.0791275E-2,-1.1464916E-2,-1.977164E-2,-1.2149248E-2,-5.156702E-4,9.575998E-3,1.1170107E-2,1E0,1E0,1E0,1E1,-1.9923525E-3,1.2094495E-3,-1.6044667E-2,2.8912108E-3,1.3268861E-2,5.2030324E-3,-4.5952713E-4,-2.3858997E-3,2.6103104E-3,-1.5679798E-3,2.6671598E-2,-5.889356E-3,-5.554933E-3,3.7589883E-3,-2.2706285E-2,-7.357159E-3,9.528033E-3,-1.0153927E-3],"split_indices":[0,3,0,0,0,1,1,0,2,0,0,2,3,0,0,0,2,1,0,0,0,0,0,0,0,0,0,2,2,3,0,0,0,0,0,0,0,0,0,0,0,0,0,0,0,0,0,0,0],"split_type":[0,0,0,0,0,0,0,0,0,0,0,0,0,0,0,0,0,0,0,0,0,0,0,0,0,0,0,0,0,0,0,0,0,0,0,0,0,0,0,0,0,0,0,0,0,0,0,0,0],"sum_hessian":[2E4,9.973E3,1.0027E4,6.997E3,2.976E3,1.588E3,8.439E3,4.72E3,2.277E3,1.988E3,9.88E2,7.85E2,8.03E2,4.286E3,4.153E3,3.514E3,1.206E3,1.449E3,8.28E2,1.518E3,4.7E2,5E2,4.88E2,3.89E2,3.96E2,3.33E2,4.7E2,8.59E2,3.427E3,8.36E2,3.317E3,1.156E3,2.358E3,7.79E2,4.27E2,8.32E2,6.17E2,4.39E2,3.89E2,4.99E2,1.019E3,4.25E2,4.34E2,1.686E3,1.741E3,3.29E2,5.07E2,8.17E2,2.5E3],"tree_param":{"num_deleted":"0","num_feature":"5","num_nodes":"49","size_leaf_vector":"1"}},{"base_weights":[8.803881E-7,-7.5975206E-4,2.9737863E-3,-3.5776023E-3,1.3015181E-2,1.2418021E-2,-4.2815372E-2,-1.1803602E-3,-2.4573386E-2,4.065357E-4,3.5031896E-2,1.2593581E-3,3.5074618E-2,-2.6008697E-2,-1.5369522E-3,-3.9450666E-3,4.813472E-3,1.7918365E-2,-2.9459717E-2,1.0044595E-2,-9.276877E-3,1.6080482E-2,5.3105606E-3,8.95884E-3,-2.5890311E-2,-3.1165719E-6,-1.0716428E-2,-8.491017E-4,1.9275622E-2,1.7745E-2,-6.9777523E-3,1.4425885E-2,-7.739101E-3,-1.2431578E-2,6.3478462E-3,-1.340236E-3,6.0691256E-3,-1.5915403E-2,2.6863849E-5],"categories":[],"categories_nodes":[],"categories_segments":[],"categories_sizes":[],"default_left":[0,0,0,0,0,0,0,0,0,0,0,0,0,0,0,0,0,0,0,0,0,0,0,0,0,0,0,0,0,0,0,0,0,0,0,0,0,0,0],"id":35,"left_children":[1,3,5,7,9,11,13,15,17,19,21,23,-1,-1,-1,25,27,29,-1,31,33,-1,-1,35,37,-1,-1,-1,-1,-1,-1,-1,-1,-1,-1,-1,-1,-1,-1],"loss_changes":[4.523029E-2,6.182642E-1,1.7627393E0,6.655108E-1,7.508963E-1,3.939939E0,1.1523551E0,1.9670239E-1,4.2408547E0,1.6071293E-1,3.1603765E-1,6.386352E-1,0E0,0E0,0E0,1.0156162E0,1.7025841E0,1.4614985E0,0E0,1.1779191E0,8.417396E-1,0E0,0E0,3.602689E-1,4.7631153E-1,0E0,0E0,0E0,0E0,0E0,0E0,0E0,0E0,0E0,0E0,0E0,0E0,0E0,0E0],"parents":[2147483647,0,0,1,1,2,2,3,3,4,4,5,5,6,6,7,7,8,8,9,9,10,10,11,11,15,15,16,16,17,17,19,19,20,20,23,23,24,24],"right_children":[2,4,6,8,10,12,14,16,18,20,22,24,-1,-1,-1,26,28,30,-1,32,34,-1,-1,36,38,-1,-1,-1,-1,-1,-1,-1,-1,-1,-1,-1,-1,-1,-1],"split_conditions":[1E0,1.1E1,1.1E1,1E1,1E0,1E1,1.2E1,1E0,1E0,1.2E1,1.2E1,8E0,3.5074618E-2,-2.6008697E-2,-1.5369522E-3,9E0,9E0,1E0,-2.9459717E-2,1E0,1E0,1.6080482E-2,5.3105606E-3,4E0,9E0,-3.1165719E-6,-1.0716428E-2,-8.491017E-4,1.9275622E-2,1.7745E-2,-6.9777523E-3,1.4425885E-2,-7.739101E-3,-1.2431578E-2,6.3478462E-3,-1.340236E-3,6.0691256E-3,-1.5915403E-2,2.6863849E-5],"split_indices":[4,0,0,0,1,0,0,2,1,0,0,0,0,0,0,0,0,2,0,2,2,0,0,0,0,0,0,0,0,0,0,0,0,0,0,0,0,0,0],"split_type":[0,0,0,0,0,0,0,0,0,0,0,0,0,0,0,0,0,0,0,0,0,0,0,0,0,0,0,0,0,0,0,0,0,0,0,0,0,0,0],"sum_hessian":[2E4,1.5926E4,4.074E3,1.3222E4,2.704E3,3.378E3,6.96E2,1.1868E4,1.354E3,1.72E3,9.84E2,3.053E3,3.25E2,3.21E2,3.75E2,8.122E3,3.746E3,8.59E2,4.95E2,8.62E2,8.58E2,4.74E2,5.1E2,2.379E3,6.74E2,7.228E3,8.94E2,3.32E3,4.26E2,4.29E2,4.3E2,4.18E2,4.44E2,4.17E2,4.41E2,1.086E3,1.293E3,3.29E2,3.45E2],"tree_param":{"num_deleted":"0","num_feature":"5","num_nodes":"39","size_leaf_vector":"1"}},{"base_weights":[3.573239E-7,-1.148446E-3,1.1542259E-3,-9.108889E-3,2.7444426E-3,8.163921E-3,-2.4971443E-3,2.9532257E-3,-4.3009084E-2,1.015921E-2,-4.4050766E-3,-1.5671498E-3,3.9295707E-2,-2.0064654E-2,3.1949917E-3,7.7970047E-3,-1.728348E-3,-2.7743611E-2,2.2803824E-3,2.5061617E-2,-4.6415254E-3,-3.1081323E-2,4.3749763E-3,-4.6889395E-3,4.6854285E-3,7.949782E-3,1.4567489E-2,6.093059E-3,-3.638963E-2,2.2067536E-2,-4.585277E-4,-1.3156007E-3,4.0076068E-3,9.778715E-4,-1.2733431E-3,3.6183074E-3,1.868867E-2,-5.1048404E-4,-3.8729755E-3,-3.234911E-2,1.3506466E-2,4.6961075E-3,-1.9409907E-3,-4.136779E-4,-2.3946506E-3,5.9361605E-4,1.9909043E-3,2.2266426E-3,1.4398117E-3,-8.031118E-3,-1.3851154E-2,4.897969E-3,7.827533E-3,-7.5255698E-3,1.7261858E-3],"categories":[],"categories_nodes":[],"categories_segments":[],"categories_sizes":[],"default_left":[0,0,0,0,0,0,0,0,0,0,0,0,0,0,0,0,0,0,0,0,0,0,0,0,0,0,0,0,0,0,0,0,0,0,0,0,0,0,0,0,0,0,0,0,0,0,0,0,0,0,0,0,0,0,0],"id":36,"left_children":[1,3,5,7,9,11,13,15,17,19,21,23,25,27,29,31,33,-1,-1,35,37,39,41,43,45,-1,-1,47,49,51,53,-1,-1,-1,-1,-1,-1,-1,-1,-1,-1,-1,-1,-1,-1,-1,-1,-1,-1,-1,-1,-1,-1,-1,-1],"loss_changes":[2.6514012E-2,3.1062892E-1,2.5543278E-1,1.3462522E0,3.5692173E-1,1.0355296E0,6.562422E-1,5.509471E-2,2.1638784E0,7.290888E-1,8.0303824E-1,5.0869577E-2,9.5195055E-2,6.860224E-1,3.4180123E-1,8.095725E-2,1.5525943E-2,0E0,0E0,7.9650104E-1,4.030558E-2,4.963713E0,3.1567922E-1,1.8934287E-2,4.5704003E-3,0E0,0E0,1.0269769E-3,9.18138E-2,1.814887E-2,6.356768E-1,0E0,0E0,0E0,0E0,0E0,0E0,0E0,0E0,0E0,0E0,0E0,0E0,0E0,0E0,0E0,0E0,0E0,0E0,0E0,