{"learner":{"attributes":{"scikit_learn":"{\"_estimator_type\": \"classifier\"}"},"feature_names":["temp","precip","wind_speed","elevation"],"feature_types":["float","float","float","float"],"gradient_booster":{"model":{"cats":{"enc":[],"feature_segments":[],"sorted_idx":[]},"gbtree_model_param":{"num_parallel_tree":"1","num_trees":"300"},"iteration_indptr":[0,3,6,9,12,15,18,21,24,27,30,33,36,39,42,45,48,51,54,57,60,63,66,69,72,75,78,81,84,87,90,93,96,99,102,105,108,111,114,117,120,123,126,129,132,135,138,141,144,147,150,153,156,159,162,165,168,171,174,177,180,183,186,189,192,195,198,201,204,207,210,213,216,219,222,225,228,231,234,237,240,243,246,249,252,255,258,261,264,267,270,273,276,279,282,285,288,291,294,297,300],"tree_info":[0,1,2,0,1,2,0,1,2,0,1,2,0,1,2,0,1,2,0,1,2,0,1,2,0,1,2,0,1,2,0,1,2,0,1,2,0,1,2,0,1,2,0,1,2,0,1,2,0,1,2,0,1,2,0,1,2,0,1,2,0,1,2,0,1,2,0,1,2,0,1,2,0,1,2,0,1,2,0,1,2,0,1,2,0,1,2,0,1,2,0,1,2,0,1,2,0,1,2,0,1,2,0,1,2,0,1,2,0,1,2,0,1,2,0,1,2,0,1,2,0,1,2,0,1,2,0,1,2,0,1,2,0,1,2,0,1,2,0,1,2,0,1,2,0,1,2,0,1,2,0,1,2,0,1,2,0,1,2,0,1,2,0,1,2,0,1,2,0,1,2,0,1,2,0,1,2,0,1,2,0,1,2,0,1,2,0,1,2,0,1,2,0,1,2,0,1,2,0,1,2,0,1,2,0,1,2,0,1,2,0,1,2,0,1,2,0,1,2,0,1,2,0,1,2,0,1,2,0,1,2,0,1,2,0,1,2,0,1,2,0,1,2,0,1,2,0,1,2,0,1,2,0,1,2,0,1,2,0,1,2,0,1,2,0,1,2,0,1,2,0,1,2,0,1,2,0,1,2,0,1,2,0,1,2,0,1,2,0,1,2,0,1,2,0,1,2,0,1,2],"trees":[{"base_weights":[-1.8815444E-4,-5.0051223E-2,9.003483E0],"categories":[],"categories_nodes":[],"categories_segments":[],"categories_sizes":[],"default_left":[0,0,0],"id":0,"left_children":[1,-1,-1],"loss_changes":[2.8045775E4,0E0,0E0],"parents":[2147483647,0,0],"right_children":[2,-1,-1],"split_conditions":[6.77E1,-5.0051223E-2,9.003483E0],"split_indices":[1,0,0],"split_type":[0,0,0],"sum_hessian":[6.205931E2,6.1815247E2,2.4406292E0],"tree_param":{"num_deleted":"0","num_feature":"4","num_nodes":"3","size_leaf_vector":"1"}},{"base_weights":[1.3555055E-5,4.68969E-1,-6.992236E-1,5.306622E-1,-6.941596E-1,5.3842824E-2,-1.4042326E0,-4.527305E-1,-1.5598361E0,-8.104314E-1,-7.415829E-2,-1.5966182E0,-1.2277246E-2,-1.3998894E-1,2.392274E-3,3.9107345E-2,-5.9470255E-2,-1.6484253E-1,-4.6660215E-2],"categories":[],"categories_nodes":[],"categories_segments":[],"categories_sizes":[],"default_left":[0,0,0,0,0,0,0,0,0,0,0,0,0,0,0,0,0,0,0],"id":1,"left_children":[1,3,-1,5,-1,-1,7,9,11,13,15,17,-1,-1,-1,-1,-1,-1,-1],"loss_changes":[5.1331223E4,6.710705E3,0E0,2.1939502E2,0E0,0E0,7.946823E0,1.24303E0,2.4373932E0,2.417457E0,1.6313483E0,2.0698166E0,0E0,0E0,0E0,0E0,0E0,0E0,0E0],"parents":[2147483647,0,0,1,1,3,3,6,6,7,7,8,8,9,9,10,10,11,11],"right_children":[2,4,-1,6,-1,-1,8,10,12,14,16,18,-1,-1,-1,-1,-1,-1,-1],"split_conditions":[2.01E1,3.56E1,-6.992236E-1,3.39E1,-6.941596E-1,5.3842824E-2,2.75E1,2.67E1,3.02E1,3.2E0,2.73E1,8E0,-1.2277246E-2,-1.3998894E-1,2.392274E-3,3.9107345E-2,-5.9470255E-2,-1.6484253E-1,-4.6660215E-2],"split_indices":[1,2,0,2,0,0,0,0,0,1,0,3,0,0,0,0,0,0,0],"split_type":[0,0,0,0,0,0,0,0,0,0,0,0,0,0,0,0,0,0,0],"sum_hessian":[1.5652281E4,1.4669371E4,9.829108E2,1.4549177E4,1.20193985E2,1.4491733E4,5.7443703E1,8.623189E0,4.8820515E1,3.8472688E0,4.77592E0,4.749387E1,1.3266444E0,1.8573022E0,1.9899666E0,2.6532888E0,2.122631E0,4.4973248E1,2.5206244E0],"tree_param":{"num_deleted":"0","num_feature":"4","num_nodes":"19","size_leaf_vector":"1"}},{"base_weights":[-6.1949527E-6,-4.6498504E-1,6.9327183E0,-5.288613E-1,7.205555E-1,7.259468E-1,2.0028594E0,-5.369022E-2,1.4732622E0,1.340544E0,2.6900296E0,4.8540854E-1,1.6340429E0,1.4952931E0,1.744264E-1,3.5319903E0,9.849545E-1,8.492457E-1,9.32286E-2,1.6720556E0,1.367717E-2,1.8092475E0,7.2063833E-1,6.4129405E-2,-1.3448027E-1,3.898283E0,1.9312528E0,1.9996179E0,-2.6921886E-1,1.4449112E-1,-1.0942641E-3,-3.8622472E-2,6.2268097E-2,1.7255649E-1,4.928947E-2,1.0222372E-1,3.0997044E-1,-2.669853E-3,1.2200729E-1,-3.4475204E-2,2.2202708E-2,2.968282E-1,5.358853E-1,3.1133845E-1,-3.3039153E-3,6.1252713E-2,3.0930692E-1,-4.2308E-2,2.2202708E-2],"categories":[],"categories_nodes":[],"categories_segments":[],"categories_sizes":[],"default_left":[0,0,0,0,0,0,0,0,0,0,0,0,0,0,0,0,0,0,0,0,0,0,0,0,0,0,0,0,0,0,0,0,0,0,0,0,0,0,0,0,0,0,0,0,0,0,0,0,0],"id":2,"left_children":[1,3,5,7,-1,-1,9,-1,11,13,15,17,19,21,23,25,27,29,31,33,-1,35,37,-1,39,41,43,45,47,-1,-1,-1,-1,-1,-1,-1,-1,-1,-1,-1,-1,-1,-1,-1,-1,-1,-1,-1,-1],"loss_changes":[4.873814E4,6.946126E3,1.5162539E3,2.2702661E2,0E0,0E0,2.3907196E1,0E0,8.177452E0,5.6538467E0,3.768875E1,1.2519004E0,2.511917E0,5.7015686E0,8.0330074E-1,3.5005035E0,1.4366037E1,2.4321005E0,1.6652617E0,2.1068115E0,0E0,1.6975975E1,3.7535014E0,0E0,3.6281925E-1,3.5522156E0,1.2838284E1,7.395609E0,5.27847E-1,0E0,0E0,0E0,0E0,0E0,0E0,0E0,0E0,0E0,0E0,0E0,0E0,0E0,0E0,0E0,0E0,0E0,0E0,0E0,0E0],"parents":[2147483647,0,0,1,1,2,2,3,3,6,6,8,8,9,9,10,10,11,11,12,12,13,13,14,14,15,15,16,16,17,17,18,18,19,19,21,21,22,22,24,24,25,25,26,26,27,27,28,28],"right_children":[2,4,6,8,-1,-1,10,-1,12,14,16,18,20,22,24,26,28,30,32,34,-1,36,38,-1,40,42,44,46,48,-1,-1,-1,-1,-1,-1,-1,-1,-1,-1,-1,-1,-1,-1,-1,-1,-1,-1,-1,-1],"split_conditions":[2.01E1,3.56E1,6.77E1,3.39E1,7.205555E-1,7.259468E-1,2.51E1,-5.369022E-2,2.75E1,6.52E2,1.32E1,2.67E1,3.02E1,1.87E1,1.94E1,2.63E1,2.58E1,3.2E0,2.73E1,8E0,1.367717E-2,1.2E1,2.43E1,6.4129405E-2,2.16E1,1.15E1,1.1E1,1.64E1,2.64E1,1.4449112E-1,-1.0942641E-3,-3.8622472E-2,6.2268097E-2,1.7255649E-1,4.928947E-2,1.0222372E-1,3.0997044E-1,-2.669853E-3,1.2200729E-1,-3.4475204E-2,2.2202708E-2,2.968282E-1,5.358853E-1,3.1133845E-1,-3.3039153E-3,6.1252713E-2,3.0930692E-1,-4.2308E-2,2.2202708E-2],"split_indices":[1,2,1,2,0,0,0,0,0,3,2,0,0,2,0,0,0,1,0,3,0,2,0,0,0,2,2,2,2,0,0,0,0,0,0,0,0,0,0,0,0,0,0,0,0,0,0,0,0],"split_type":[0,0,0,0,0,0,0,0,0,0,0,0,0,0,0,0,0,0,0,0,0,0,0,0,0,0,0,0,0,0,0,0,0,0,0,0,0,0,0,0,0,0,0,0,0,0,0,0,0],"sum_hessian":[1.5117305E4,1.4167988E4,9.493161E2,1.4051902E4,1.1608589E2,8.898637E2,5.9452377E1,1.3996422E4,5.5480343E1,3.177627E1,2.7676107E1,8.328458E0,4.7151886E1,2.7804237E1,3.9720337E0,1.7810087E1,9.866019E0,3.7157736E0,4.6126842E0,4.5870583E1,1.2813013E0,1.8835129E1,8.969109E0,1.1531711E0,2.8188627E0,1.3325533E1,4.4845543E0,5.125205E0,4.7408147E0,1.7938217E0,1.9219519E0,2.5626025E0,2.050082E0,4.343611E1,2.4344723E0,1.2813012E1,6.0221157E0,3.9720337E0,4.9970746E0,1.7938217E0,1.025041E0,9.994149E0,3.3313832E0,2.4344723E0,2.050082E0,2.9469929E0,2.1782122E0,3.7157736E0,1.025041E0],"tree_param":{"num_deleted":"0","num_feature":"4","num_nodes":"49","size_leaf_vector":"1"}},{"base_weights":[-7.13277E-1,-5.0044734E-2,-6.0507E0,-6.351454E0,-9.1430016E-2,-6.9589615E0,-2.475089E0,-4.852525E0,-8.247611E0,-2.1205403E-2,-3.1298468E0,-5.239774E0,-1.4248726E-1,-9.2334586E-1,-3.15489E-1,-4.3818972E-1,-2.1364244E-2,-3.2139975E-1,-7.1880937E-1],"categories":[],"categories_nodes":[],"categories_segments":[],"categories_sizes":[],"default_left":[0,0,0,0,0,0,0,0,0,0,0,0,0,0,0,0,0,0,0],"id":3,"left_children":[1,-1,3,5,-1,7,9,11,13,-1,15,17,-1,-1,-1,-1,-1,-1,-1],"loss_changes":[6.9252686E2,0E0,3.032434E1,3.4413086E1,0E0,9.936279E0,6.0380154E0,5.030945E0,2.1023315E1,0E0,1.1606754E1,8.810684E0,0E0,0E0,0E0,0E0,0E0,0E0,0E0],"parents":[2147483647,0,0,2,2,3,3,5,5,6,6,7,7,8,8,10,10,11,11],"right_children":[2,-1,4,6,-1,8,10,12,14,-1,16,18,-1,-1,-1,-1,-1,-1,-1],"split_conditions":[6.77E1,-5.0044734E-2,6.52E2,2.28E1,-9.1430016E-2,2.51E1,2.46E1,1.87E1,1.32E1,-2.1205403E-2,2.55E1,1.2E1,-1.4248726E-1,-9.2334586E-1,-3.15489E-1,-4.3818972E-1,-2.1364244E-2,-3.2139975E-1,-7.1880937E-1],"split_indices":[1,0,3,2,0,0,0,2,2,0,0,2,0,0,0,0,0,0,0],"split_type":[0,0,0,0,0,0,0,0,0,0,0,0,0,0,0,0,0,0,0],"sum_hessian":[6.113048E2,5.889156E2,2.2389236E1,2.0927313E1,1.4619241E0,1.7404444E1,3.5228686E0,8.4149275E0,8.989516E0,1.0876155E0,2.435253E0,7.0857205E0,1.3292074E0,6.850356E0,2.1391602E0,1.3521254E0,1.0831276E0,4.7727985E0,2.3129218E0],"tree_param":{"num_deleted":"0","num_feature":"4","num_nodes":"19","size_leaf_vector":"1"}},{"base_weights":[6.1825268E-2,4.6262088E-1,-2.08196E0,5.345079E-2,-1.9067928E0,-2.0938256E-1,-4.85272E-2,-9.949128E-1,-2.1048371E-1,-2.9650134E-1,-1.0617954E0,-6.840924E-1,3.8169086E-2,-9.6735185E-1,-1.75837E0,-9.866639E-2,2.7653206E-2,-1.0810272E-1,-4.124796E-2,-2.2969459E-1,-5.1655143E-2],"categories":[],"categories_nodes":[],"categories_segments":[],"categories_sizes":[],"default_left":[0,0,0,0,0,0,0,0,0,0,0,0,0,0,0,0,0,0,0,0,0],"id":4,"left_children":[1,3,5,-1,7,-1,-1,9,-1,11,13,15,-1,17,19,-1,-1,-1,-1,-1,-1],"loss_changes":[1.3878738E4,2.3189363E3,4.7186523E1,0E0,7.031189E1,0E0,0E0,3.115448E0,0E0,2.312818E0,2.6824265E0,1.8205621E0,0E0,3.395237E0,3.3162022E0,0E0,0E0,0E0,0E0,0E0,0E0],"parents":[2147483647,0,0,1,1,2,2,4,4,7,7,9,9,10,10,11,11,13,13,14,14],"right_children":[2,4,6,-1,8,-1,-1,10,-1,12,14,16,-1,18,20,-1,-1,-1,-1,-1,-1],"split_conditions":[2.01E1,3.39E1,6.77E1,5.345079E-2,3.56E1,-2.0938256E-1,-4.85272E-2,2.73E1,-2.1048371E-1,2.67E1,2.3E0,5.5E0,3.8169086E-2,6E-1,4E0,-9.866639E-2,2.7653206E-2,-1.0810272E-1,-4.124796E-2,-2.2969459E-1,-5.1655143E-2],"split_indices":[1,2,1,0,2,0,0,0,0,0,1,1,0,1,1,0,0,0,0,0,0],"split_type":[0,0,0,0,0,0,0,0,0,0,0,0,0,0,0,0,0,0,0,0,0],"sum_hessian":[1.6150603E4,1.360739E4,2.5432124E3,1.3207456E4,3.9993417E2,2.524143E3,1.9069365E1,7.243531E1,3.2749884E2,6.805282E0,6.563003E1,4.324884E0,2.480398E0,5.9897667E1,5.732362E0,3.2683368E0,1.0565473E0,4.8926064E1,1.09716015E1,3.4056647E0,2.326697E0],"tree_param":{"num_deleted":"0","num_feature":"4","num_nodes":"21","size_leaf_vector":"1"}},{"base_weights":[-3.5915986E-2,-4.5863098E-1,2.1883402E0,-5.3314187E-2,1.9481093E0,2.1307519E-1,3.3869991E0,1.0396953E0,2.1420887E-1,3.2137918E-1,1.1077508E0,7.1593595E-1,-3.768898E-2,1.0106168E0,1.8149226E0,1.0227313E-1,-2.7134085E-2,1.1272364E-1,4.385808E-2,2.3593846E-1,5.3877402E-2],"categories":[],"categories_nodes":[],"categories_segments":[],"categories_sizes":[],"default_left":[0,0,0,0,0,0,0,0,0,0,0,0,0,0,0,0,0,0,0,0,0],"id":5,"left_children":[1,3,5,-1,7,-1,-1,9,-1,11,13,15,-1,17,19,-1,-1,-1,-1,-1,-1],"loss_changes":[1.4709038E4,2.3584417E3,4.48604E3,0E0,6.7372925E1,0E0,0E0,3.1365433E0,0E0,2.3613915E0,2.6205292E0,1.851227E0,0E0,3.4599953E0,3.2975903E0,0E0,0E0,0E0,0E0,0E0,0E0],"parents":[2147483647,0,0,1,1,2,2,4,4,7,7,9,9,10,10,11,11,13,13,14,14],"right_children":[2,4,6,-1,8,-1,-1,10,-1,12,14,16,-1,18,20,-1,-1,-1,-1,-1,-1],"split_conditions":[2.01E1,3.39E1,6.77E1,-5.3314187E-2,3.56E1,2.1307519E-1,3.3869991E0,2.73E1,2.1420887E-1,2.67E1,2.3E0,5.5E0,-3.768898E-2,6E-1,4E0,1.0227313E-1,-2.7134085E-2,1.1272364E-1,4.385808E-2,2.3593846E-1,5.3877402E-2],"split_indices":[1,2,1,0,2,0,0,0,0,0,1,1,0,1,1,0,0,0,0,0,0],"split_type":[0,0,0,0,0,0,0,0,0,0,0,0,0,0,0,0,0,0,0,0,0],"sum_hessian":[1.5642075E4,1.314474E4,2.497335E3,1.2750765E4,3.939756E2,2.4938691E3,3.4659104E0,7.044383E1,3.2353174E2,6.591693E0,6.3852142E1,4.195644E0,2.396049E0,5.8276623E1,5.5755167E0,3.173554E0,1.0220901E0,4.7601627E1,1.0674998E1,3.3131475E0,2.262369E0],"tree_param":{"num_deleted":"0","num_feature":"4","num_nodes":"21","size_leaf_vector":"1"}},{"base_weights":[-4.96083E-1,-3.2711673E-1,-5.0222284E-1,-4.764053E-2,1.0983256E-1,-6.008558E-1,-4.8239E-1,4.4716403E-2,-3.24672E-1,-4.9480088E-2,-8.6108994E-1,-3.4481457E-1,-5.125409E-1,-7.0104115E-2,5.1458413E-3,-1.5153639E0,-2.407672E-1,-4.933668E-2,-9.4624996E-2,-6.389131E-1,-4.8659617E-1,2.9430544E-2,-1.677476E0,-3.9750755E-1,4.409224E-2,-3.0434734E-1,5.8574535E-2,-4.9248137E-2,-1.0941468E0,3.6656767E-2,-4.9212584E-1,-5.3996623E-2,-1.7460166E-1,-1.757841E-2,-1.4441828E-1,2.8917007E-3,-1.0240107E-1,-1.291769E-1,4.0968586E-2,3.5047267E-2,-3.0923827E-2,-2.5492316E-2,-4.9600463E-2],"categories":[],"categories_nodes":[],"categories_segments":[],"categories_sizes":[],"default_left":[0,0,0,0,0,0,0,0,0,0,0,0,0,0,0,0,0,0,0,0,0,0,0,0,0,0,0,0,0,0,0,0,0,0,0,0,0,0,0,0,0,0,0],"id":6,"left_children":[1,3,5,-1,7,9,11,-1,13,-1,15,17,19,-1,-1,21,23,-1,25,27,29,-1,31,33,-1,35,-1,-1,37,39,41,-1,-1,-1,-1,-1,-1,-1,-1,-1,-1,-1,-1],"loss_changes":[5.432739E-1,1.7994094E0,9.938965E-1,0E0,1.2639717E0,2.493763E0,2.110733E0,0E0,5.903502E-1,0E0,1.1519054E1,3.7512436E0,1.1654053E0,0E0,0E0,4.6189003E0,1.9082665E0,0E0,5.787024E0,4.3608418E0,1.1110992E0,0E0,7.502365E-2,2.9285495E0,0E0,7.393614E0,0E0,0E0,5.602318E0,6.38216E-1,2.1755219E-1,0E0,0E0,0E0,0E0,0E0,0E0,0E0,0E0,0E0,0E0,0E0,0E0],"parents":[2147483647,0,0,1,1,2,2,4,4,5,5,6,6,8,8,10,10,11,11,12,12,15,15,16,16,18,18,19,19,20,20,22,22,23,23,25,25,28,28,29,29,30,30],"right_children":[2,4,6,-1,8,10,12,-1,14,-1,16,18,20,-1,-1,22,24,-1,26,28,30,-1,32,34,-1,36,-1,-1,38,40,42,-1,-1,-1,-1,-1,-1,-1,-1,-1,-1,-1,-1],"split_conditions":[2.14E1,6.77E1,9.4E0,-4.764053E-2,7.6E0,6.77E1,1.15E1,4.4716403E-2,9.1E0,-4.9480088E-2,1.24E2,6.77E1,1.32E1,-7.0104115E-2,5.1458413E-3,2.42E1,9E0,-4.933668E-2,1.1E1,6.77E1,2.24E1,2.9430544E-2,5E0,8.5E0,4.409224E-2,2.6E1,5.8574535E-2,-4.9248137E-2,2.64E1,5.1E2,1.34E1,-5.3996623E-2,-1.7460166E-1,-1.757841E-2,-1.4441828E-1,2.8917007E-3,-1.0240107E-1,-1.291769E-1,4.0968586E-2,3.5047267E-2,-3.0923827E-2,-2.5492316E-2,-4.9600463E-2],"split_indices":[0,1,2,0,2,1,2,0,2,0,3,1,2,0,0,0,2,0,2,1,0,0,3,2,0,0,0,0,0,3,2,0,0,0,0,0,0,0,0,0,0,0,0],"split_type":[0,0,0,0,0,0,0,0,0,0,0,0,0,0,0,0,0,0,0,0,0,0,0,0,0,0,0,0,0,0,0,0,0,0,0,0,0,0,0,0,0,0,0],"sum_hessian":[6.810369E2,2.5782831E1,6.552541E2,1.9149796E1,6.6330376E0,1.047943E2,5.5045984E2,3.717662E0,2.9153755E0,7.651357E1,2.8280725E1,1.011877E2,4.4927213E2,1.0254501E0,1.8899252E0,1.3061493E1,1.5219233E1,6.288012E1,3.830758E1,7.250194E1,3.7677017E2,1.006822E0,1.205467E1,1.2713018E1,2.5062149E0,2.9704058E1,8.603522E0,5.643176E1,1.6070179E1,3.8811545E0,3.72889E2,1.1896182E0,1.0865052E1,1.1454491E1,1.2585275E0,2.0958387E1,8.74567E0,1.4328281E1,1.7418967E0,2.0280008E0,1.8531536E0,7.0729136E0,3.658161E2],"tree_param":{"num_deleted":"0","num_feature":"4","num_nodes":"43","size_leaf_vector":"1"}},{"base_weights":[6.3588865E-2,4.562417E-1,-1.5403728E0,5.310095E-2,-1.4177107E0,-1.5488896E-1,-4.9571723E-2,-7.682331E-1,-1.554066E-1,-3.248392E-1,-8.2235926E-1,-4.5037225E-1,3.194426E-2,-7.405187E-1,-1.2432964E0,-6.5006495E-2,-5.2116583E-3,-8.14812E-2,-1.7752538E-2,-1.4734259E-1,-2.3972686E-2],"categories":[],"categories_nodes":[],"categories_segments":[],"categories_sizes":[],"default_left":[0,0,0,0,0,0,0,0,0,0,0,0,0,0,0,0,0,0,0,0,0],"id":7,"left_children":[1,3,5,-1,7,-1,-1,9,-1,11,13,15,-1,17,19,-1,-1,-1,-1,-1,-1],"loss_changes":[9.806405E3,1.7533242E3,2.6476074E1,0E0,4.1331665E1,0E0,0E0,1.7799683E0,0E0,1.0280931E0,1.675663E0,7.2680616E-1,0E0,2.5979729E0,2.1398964E0,0E0,0E0,0E0,0E0,0E0,0E0],"parents":[2147483647,0,0,1,1,2,2,4,4,7,7,9,9,10,10,11,11,13,13,14,14],"right_children":[2,4,6,-1,8,-1,-1,10,-1,12,14,16,-1,18,20,-1,-1,-1,-1,-1,-1],"split_conditions":[2.01E1,3.39E1,6.77E1,5.310095E-2,3.56E1,-1.5488896E-1,-4.9571723E-2,2.75E1,-1.554066E-1,2.74E1,1.6E0,3.2E0,3.194426E-2,6E-1,4E0,-6.5006495E-2,-5.2116583E-3,-8.14812E-2,-1.7752538E-2,-1.4734259E-1,-2.3972686E-2],"split_indices":[1,2,1,0,2,0,0,0,0,0,1,1,0,1,1,0,0,0,0,0,0],"split_type":[0,0,0,0,0,0,0,0,0,0,0,0,0,0,0,0,0,0,0,0,0],"sum_hessian":[1.5568546E4,1.2507421E4,3.0611245E3,1.20282295E4,4.7919128E2,3.0358914E3,2.5233027E1,8.42989E1,3.948924E2,9.932739E0,7.436616E1,8.564907E0,1.367832E0,6.4571144E1,9.7950115E0,5.283422E0,3.281485E0,5.6648453E1,7.922692E0,7.5870366E0,2.2079754E0],"tree_param":{"num_deleted":"0","num_feature":"4","num_nodes":"21","size_leaf_vector":"1"}},{"base_weights":[-4.282172E-2,-4.5221916E-1,1.5343701E0,-5.2978523E-2,1.442813E0,1.5698878E-1,6.453033E-1,8.0118585E-1,1.5751994E-1,9.27102E-1,5.481682E-1,3.4876174E-1,8.557461E-1,1.7742883E0,2.8331372E-1,1.9775176E-1,7.5307417E-1,4.773939E-1,-3.149771E-2,7.7209896E-1,1.2816787E0,4.511479E-2,1.913189E-1,4.14639E-1,-4.171022E-2,4.193261E-1,-5.5196088E-2,1.2024956E0,5.300929E-1,6.789928E-2,6.720777E-3,8.477195E-2,1.952876E-2,1.5140651E-1,2.5449736E-2,2.1531342E-2,1.6238086E-1,5.0211E-3,1.208966E-1,1.3622169E-1,-3.684735E-2,6.585138E-2,-2.998598E-2],"categories":[],"categories_nodes":[],"categories_segments":[],"categories_sizes":[],"default_left":[0,0,0,0,0,0,0,0,0,0,0,0,0,0,0,0,0,0,0,0,0,0,0,0,0,0,0,0,0,0,0,0,0,0,0,0,0,0,0,0,0,0,0],"id":8,"left_children":[1,3,5,-1,7,-1,9,11,-1,13,15,17,19,21,23,25,27,29,-1,31,33,-1,-1,35,-1,37,-1,39,41,-1,-1,-1,-1,-1,-1,-1,-1,-1,-1,-1,-1,-1,-1],"loss_changes":[9.827546E3,1.7769053E3,9.803223E1,0E0,3.9120483E1,0E0,2.836399E0,1.7589569E0,0E0,1.5791363E1,6.551216E0,1.060298E0,1.6358795E0,1.4727211E0,1.8438281E0,6.17636E0,5.2276154E0,7.2547984E-1,0E0,2.6308365E0,2.140421E0,0E0,0E0,3.458121E0,0E0,8.156288E0,0E0,5.174015E0,4.5573664E0,0E0,0E0,0E0,0E0,0E0,0E0,0E0,0E0,0E0,0E0,0E0,0E0,0E0,0E0],"parents":[2147483647,0,0,1,1,2,2,4,4,6,6,7,7,9,9,10,10,11,11,12,12,13,13,14,14,15,15,16,16,17,17,19,19,20,20,23,23,25,25,27,27,28,28],"right_children":[2,4,6,-1,8,-1,10,12,-1,14,16,18,20,22,24,26,28,30,-1,32,34,-1,-1,36,-1,38,-1,40,42,-1,-1,-1,-1,-1,-1,-1,-1,-1,-1,-1,-1,-1,-1],"split_conditions":[2.01E1,3.39E1,6.77E1,-5.2978523E-2,3.56E1,1.5698878E-1,9.4E0,2.75E1,1.5751994E-1,1.24E2,1.15E1,2.74E1,1.6E0,2.45E1,9E0,1.1E1,1.38E1,3.2E0,-3.149771E-2,6E-1,4E0,4.511479E-2,1.913189E-1,8.5E0,-4.171022E-2,2.6E1,-5.5196088E-2,2.64E1,2.58E1,6.789928E-2,6.720777E-3,8.477195E-2,1.952876E-2,1.5140651E-1,2.5449736E-2,2.1531342E-2,1.6238086E-1,5.0211E-3,1.208966E-1,1.3622169E-1,-3.684735E-2,6.585138E-2,-2.998598E-2],"split_indices":[1,2,1,0,2,0,2,0,0,3,2,0,1,0,2,2,2,1,0,1,1,0,0,2,0,0,0,0,0,0,0,0,0,0,0,0,0,0,0,0,0,0,0],"split_type":[0,0,0,0,0,0,0,0,0,0,0,0,0,0,0,0,0,0,0,0,0,0,0,0,0,0,0,0,0,0,0,0,0,0,0,0,0,0,0,0,0,0,0],"sum_hessian":[1.5217953E4,1.2082395E4,3.135558E3,1.1607985E4,4.744092E2,3.0143696E3,1.2118847E2,8.234851E1,3.920607E2,2.887493E1,9.2313545E1,9.6576395E0,7.2690865E1,1.1709685E1,1.7165245E1,3.478746E1,5.752608E1,8.325008E0,1.3326313E0,6.3109737E1,9.581131E0,1.516053E0,1.0193632E1,1.4798579E1,2.3666658E0,2.7191744E1,7.5957184E0,1.7619986E1,3.9906097E1,5.142324E0,3.1826844E0,5.5379734E1,7.730003E0,7.4268937E0,2.1542375E0,1.3715684E1,1.0828949E0,1.9254747E1,7.936995E0,1.6114496E1,1.505488E0,3.4737614E1,5.1684813E0],"tree_param":{"num_deleted":"0","num_feature":"4","num_nodes":"43","size_leaf_vector":"1"}},{"base_weights":[-4.8058692E-1,-5.0014764E-2,-4.0950534E-1,1.1030797E-1,-4.352696E-1,4.4275183E-2,-3.001735E-1,-7.3126453E-1,-3.4501922E-1,-6.655173E-2,6.17183E-3,-1.2198927E0,-2.2101408E-1,-8.435444E-2,-4.8880622E-1,2.9442722E-2,-1.342986E0,-3.5942984E-1,4.2728465E-2,-2.702578E-1,5.6750327E-2,-9.2404026E-1,-3.2582283E-1,-4.5578502E-2,-1.3946919E-1,-1.5999185E-2,-1.2224948E-1,-8.189469E-3,-1.2539992E-1,-1.0799604E-1,3.959278E-2,-4.6075683E-2,3.904184E-2],"categories":[],"categories_nodes":[],"categories_segments":[],"categories_sizes":[],"default_left":[0,0,0,0,0,0,0,0,0,0,0,0,0,0,0,0,0,0,0,0,0,0,0,0,0,0,0,0,0,0,0,0,0],"id":9,"left_children":[1,-1,3,5,7,-1,9,11,13,-1,-1,15,17,19,21,-1,23,25,-1,27,-1,29,31,-1,-1,-1,-1,-1,-1,-1,-1,-1,-1],"loss_changes":[6.91391E-1,0E0,1.9847984E0,1.1737168E0,3.4338856E0,0E0,5.7111675E-1,7.546486E0,3.9931192E0,0E0,0E0,3.3392086E0,1.6392832E0,4.9371243E0,4.605133E0,0E0,4.257393E-2,2.246346E0,0E0,5.714475E0,0E0,4.1936855E0,5.1923957E0,0E0,0E0,0E0,0E0,0E0,0E0,0E0,0E0,0E0,0E0],"parents":[2147483647,0,0,2,2,3,3,4,4,6,6,7,7,8,8,11,11,12,12,13,13,14,14,16,16,17,17,19,19,21,21,22,22],"right_children":[2,-1,4,6,8,-1,10,12,14,-1,-1,16,18,20,22,-1,24,26,-1,28,-1,30,32,-1,-1,-1,-1,-1,-1,-1,-1,-1,-1],"split_conditions":[6.77E1,-5.0014764E-2,2.14E1,7.6E0,9.4E0,4.4275183E-2,1.93E1,1.24E2,1.15E1,-6.655173E-2,6.17183E-3,2.42E1,9E0,1.1E1,1.32E1,2.9442722E-2,5E0,8.5E0,4.2728465E-2,1.06E1,5.6750327E-2,2.64E1,2.58E1,-4.5578502E-2,-1.3946919E-1,-1.5999185E-2,-1.2224948E-1,-8.189469E-3,-1.2539992E-1,-1.0799604E-1,3.959278E-2,-4.6075683E-2,3.904184E-2],"split_indices":[1,0,0,2,2,0,0,3,2,0,0,0,2,2,2,0,3,2,0,2,0,0,0,0,0,0,0,0,0,0,0,0,0],"split_type":[0,0,0,0,0,0,0,0,0,0,0,0,0,0,0,0,0,0,0,0,0,0,0,0,0,0,0,0,0,0,0,0,0],"sum_hessian":[6.43566E2,4.9995E2,1.4361598E2,6.627135E0,1.3698885E2,3.6181908E0,3.008944E0,3.034932E1,1.0663953E2,1.0798244E0,1.9291197E0,1.47927E1,1.5556619E1,3.8475586E1,6.816394E1,1.0074106E0,1.378529E1,1.3186748E1,2.3698714E0,3.039316E1,8.082425E0,1.729895E1,5.0864994E1,1.2996726E0,1.2485617E1,1.1674393E1,1.5123552E0,2.641799E1,3.9751706E0,1.5634022E1,1.6649272E0,4.310169E1,7.7633047E0],"tree_param":{"num_deleted":"0","num_feature":"4","num_nodes":"33","size_leaf_vector":"1"}},{"base_weights":[6.386012E-2,4.5054168E-1,-1.2642171E0,5.2788395E-2,-1.1566788E0,-1.2697701E-1,-4.948123E-2,-6.1745155E-1,-1.2727226E-1,-5.655574E-1,-9.74815E-1,-2.0587504E-1,-5.982287E-1,-1.658222E-1,-5.180999E-1,-5.0851364E-2,3.8323037E-2,-5.359723E-2,-1.0100784E-1,3.5895105E-2,-8.061197E-2],"categories":[],"categories_nodes":[],"categories_segments":[],"categories_sizes":[],"default_left":[0,0,0,0,0,0,0,0,0,0,0,0,0,0,0,0,0,0,0,0,0],"id":10,"left_children":[1,3,5,-1,7,-1,-1,9,-1,11,13,15,17,-1,19,-1,-1,-1,-1,-1,-1],"loss_changes":[7.608511E3,1.4269768E3,1.3645996E1,0E0,3.2199463E1,0E0,0E0,1.2159424E0,0E0,8.8267326E-1,2.4810734E0,1.7374238E0,1.4570637E0,0E0,2.2771592E0,0E0,0E0,0E0,0E0,0E0,0E0],"parents":[2147483647,0,0,1,1,2,2,4,4,7,7,9,9,10,10,11,11,12,12,14,14],"right_children":[2,4,6,-1,8,-1,-1,10,-1,12,14,16,18,-1,20,-1,-1,-1,-1,-1,-1],"split_conditions":[2.01E1,3.39E1,6.77E1,5.2788395E-2,3.56E1,-1.2697701E-1,-4.948123E-2,2.96E1,-1.2727226E-1,2.73E1,2.98E1,2.67E1,2.3E0,-1.658222E-1,2.99E1,-5.0851364E-2,3.8323037E-2,-5.359723E-2,-1.0100784E-1,3.5895105E-2,-8.061197E-2],"split_indices":[1,2,1,0,2,0,0,0,0,0,0,0,1,0,0,0,0,0,0,0,0],"split_type":[0,0,0,0,0,0,0,0,0,0,0,0,0,0,0,0,0,0,0,0,0],"sum_hessian":[1.4813615E4,1.1473627E4,3.3399883E3,1.0947486E4,5.261408E2,3.3154094E3,2.457892E1,9.429517E1,4.3184564E2,8.45936E1,9.701573E0,7.6520853E0,7.694151E1,2.832459E0,6.869115E0,5.145509E0,2.5065768E0,6.883726E1,8.1042595E0,1.637248E0,5.231867E0],"tree_param":{"num_deleted":"0","num_feature":"4","num_nodes":"21","size_leaf_vector":"1"}},{"base_weights":[-4.3834493E-2,-4.4648045E-1,1.256563E0,-5.2678462E-2,1.174439E0,1.283781E-1,5.539414E-1,6.4330333E-1,1.2867995E-1,-3.503335E-2,5.813493E-1,5.9034824E-1,1.0048895E0,-4.1772623E-2,4.0473527E-1,9.0399927E-1,4.809003E-1,2.2486705E-1,6.2304306E-1,1.6909848E-1,5.3939176E-1,6.593748E-2,3.30971E-3,1.3948557E0,3.471911E-1,1.9247863E-1,6.38607E-1,5.313015E-2,-3.789197E-2,5.5972554E-2,1.0374179E-1,-3.5511367E-2,8.320465E-2,3.87157E-2,1.4937489E-1,5.0173283E-2,-3.9715108E-2,3.9262615E-2,-5.364297E-2,7.535099E-2,5.899723E-3],"categories":[],"categories_nodes":[],"categories_segments":[],"categories_sizes":[],"default_left":[0,0,0,0,0,0,0,0,0,0,0,0,0,0,0,0,0,0,0,0,0,0,0,0,0,0,0,0,0,0,0,0,0,0,0,0,0,0,0,0,0],"id":11,"left_children":[1,3,5,-1,7,-1,9,11,-1,13,15,17,19,-1,21,23,25,27,29,-1,31,-1,-1,33,35,37,39,-1,-1,-1,-1,-1,-1,-1,-1,-1,-1,-1,-1,-1,-1],"loss_changes":[7.601081E3,1.4434729E3,6.492627E1,0E0,3.0416931E1,0E0,2.1149788E0,1.1954803E0,0E0,1.2988242E0,3.5855217E0,8.6252975E-1,2.444295E0,0E0,3.2183176E-1,7.254034E0,4.2769947E0,1.7655756E0,1.4252357E0,0E0,2.3189294E0,0E0,0E0,8.8822746E-1,1.8783545E0,5.4080586E0,4.091673E0,0E0,0E0,0E0,0E0,0E0,0E0,0E0,0E0,0E0,0E0,0E0,0E0,0E0,0E0],"parents":[2147483647,0,0,1,1,2,2,4,4,6,6,7,7,9,9,10,10,11,11,12,12,14,14,15,15,16,16,17,17,18,18,20,20,23,23,24,24,25,25,26,26],"right_children":[2,4,6,-1,8,-1,10,12,-1,14,16,18,20,-1,22,24,26,28,30,-1,32,-1,-1,34,36,38,40,-1,-1,-1,-1,-1,-1,-1,-1,-1,-1,-1,-1,-1,-1],"split_conditions":[2.01E1,3.39E1,6.77E1,-5.2678462E-2,3.56E1,1.283781E-1,2.14E1,2.96E1,1.2867995E-1,7.6E0,9.4E0,2.73E1,2.98E1,-4.1772623E-2,1.06E1,1.24E2,1.15E1,2.67E1,2.3E0,1.6909848E-1,2.99E1,6.593748E-2,3.30971E-3,7E0,9E0,1.1E1,2.59E1,5.313015E-2,-3.789197E-2,5.5972554E-2,1.0374179E-1,-3.5511367E-2,8.320465E-2,3.87157E-2,1.4937489E-1,5.0173283E-2,-3.9715108E-2,3.9262615E-2,-5.364297E-2,7.535099E-2,5.899723E-3],"split_indices":[1,2,1,0,2,0,0,0,0,2,2,0,0,0,2,3,2,0,1,0,0,0,0,2,2,2,0,0,0,0,0,0,0,0,0,0,0,0,0,0,0],"split_type":[0,0,0,0,0,0,0,0,0,0,0,0,0,0,0,0,0,0,0,0,0,0,0,0,0,0,0,0,0,0,0,0,0,0,0,0,0,0,0,0,0],"sum_hessian":[1.45148955E4,1.108368E4,3.4312163E3,1.0561131E4,5.2254816E2,3.3024592E3,1.28757E2,9.24162E1,4.3013193E2,5.7128963E0,1.23044106E2,8.290695E1,9.509245E0,3.0814755E0,2.6314209E0,2.7313025E1,9.573108E1,7.4544706E0,7.5452484E1,2.779667E0,6.7295775E0,1.1020665E0,1.5293545E0,1.3716286E1,1.3596738E1,3.462596E1,6.110512E1,5.0244884E0,2.4299822E0,6.749052E1,7.9619613E0,1.6063408E0,5.1232367E0,1.6650194E0,1.2051267E1,1.1529002E1,2.067736E0,2.7528414E1,7.0975475E0,5.0745262E1,1.035986E1],"tree_param":{"num_deleted":"0","num_feature":"4","num_nodes":"41","size_leaf_vector":"1"}},{"base_weights":[-4.6563855E-1,-4.9997807E-2,-3.5706893E-1,-5.4003865E-1,-2.933343E-1,-1.033425E0,-1.2805028E-1,-6.295159E-2,-4.1585296E-1,2.9390916E-2,-1.1359017E0,-2.220858E-1,4.2520046E-2,-2.2130346E-1,5.5093426E-2,-7.6601946E-1,-2.5559792E-1,-3.9193578E-2,-1.1794474E-1,-7.409923E-2,-1.1049153E-1,6.1815392E-2,-8.0900055E-1,-9.0670896E-1,2.0086737E-1,-3.418322E-1,3.415537E-1,-3.3021927E-2,9.598258E-3,2.3981728E-2,-9.8736994E-2,-1.07247286E-1,-4.5987364E-2,-1.5635772E-2,-9.392861E-2,3.9696112E-2,-1.469333E-2,-8.603695E-2,-2.1818934E-2,4.6928708E-2,-1.8088149E-2],"categories":[],"categories_nodes":[],"categories_segments":[],"categories_sizes":[],"default_left":[0,0,0,0,0,0,0,0,0,0,0,0,0,0,0,0,0,0,0,0,0,0,0,0,0,0,0,0,0,0,0,0,0,0,0,0,0,0,0,0,0],"id":12,"left_children":[1,-1,3,5,7,9,11,13,15,-1,17,19,-1,21,-1,23,25,-1,-1,27,-1,29,31,33,35,37,39,-1,-1,-1,-1,-1,-1,-1,-1,-1,-1,-1,-1,-1,-1],"loss_changes":[2.0863342E0,0E0,1.5846367E0,7.4751863E0,3.1646376E0,2.6311169E0,1.2148832E0,4.051605E0,3.935461E0,0E0,5.232048E-2,2.4088879E0,0E0,5.5156565E0,0E0,3.2582474E0,2.7948282E0,0E0,0E0,7.896506E-1,0E0,4.550507E0,4.9570942E-1,3.4012413E-1,3.1006557E-1,2.7578907E0,5.5619913E-1,0E0,0E0,0E0,0E0,0E0,0E0,0E0,0E0,0E0,0E0,0E0,0E0,0E0,0E0],"parents":[2147483647,0,0,2,2,3,3,4,4,5,5,6,6,7,7,8,8,10,10,11,11,13,13,15,15,16,16,19,19,21,21,22,22,23,23,24,24,25,25,26,26],"right_children":[2,-1,4,6,8,10,12,14,16,-1,18,20,-1,22,-1,24,26,-1,-1,28,-1,30,32,34,36,38,40,-1,-1,-1,-1,-1,-1,-1,-1,-1,-1,-1,-1,-1,-1],"split_conditions":[6.77E1,-4.9997807E-2,9.4E0,1.24E2,1.15E1,2.42E1,9E0,1.1E1,1.38E1,2.9390916E-2,5E0,8.5E0,4.2520046E-2,2.6E1,5.5093426E-2,2.63E1,2.58E1,-3.9193578E-2,-1.1794474E-1,6E0,-1.1049153E-1,3.76E2,1.02E1,2.24E1,1.6E1,6E0,2.64E1,-3.3021927E-2,9.598258E-3,2.3981728E-2,-9.8736994E-2,-1.07247286E-1,-4.5987364E-2,-1.5635772E-2,-9.392861E-2,3.9696112E-2,-1.469333E-2,-8.603695E-2,-2.1818934E-2,4.6928708E-2,-1.8088149E-2],"split_indices":[1,0,2,3,2,0,2,2,2,0,3,2,0,0,0,0,0,0,0,2,0,3,2,0,3,3,0,0,0,0,0,0,0,0,0,0,0,0,0,0,0],"split_type":[0,0,0,0,0,0,0,0,0,0,0,0,0,0,0,0,0,0,0,0,0,0,0,0,0,0,0,0,0,0,0,0,0,0,0,0,0,0,0,0,0],"sum_hessian":[6.064839E2,4.580135E2,1.4847038E2,3.6425777E1,1.1204461E2,1.5889068E1,2.0536709E1,3.942468E1,7.2619934E1,1.0049071E0,1.488416E1,1.8064827E1,2.4718819E0,3.1848787E1,7.575892E0,2.1613401E1,5.100653E1,1.3760078E0,1.3508153E1,1.6399717E1,1.6651112E0,2.2098036E1,9.7507515E0,1.89223E1,2.6911018E0,4.4943787E1,6.062743E0,6.1688046E0,1.0230912E1,1.9552275E1,2.54576E0,4.3762774E0,5.374474E0,1.0286629E0,1.7893637E1,1.6304756E0,1.0606261E0,7.506076E0,3.7437714E1,4.95339E0,1.1093531E0],"tree_param":{"num_deleted":"0","num_feature":"4","num_nodes":"41","size_leaf_vector":"1"}},{"base_weights":[6.3504264E-2,4.4540235E-1,-1.0933498E0,5.250861E-2,-9.9106103E-1,-1.0973398E-1,-4.9366843E-2,-5.118818E-1,-1.0991378E-1,-4.6988833E-1,-7.9344654E-1,-4.9144942E-1,-1.1898375E-1,-9.8060584E-1,6.1182022E-2,-1.5271457E-2,-5.1841047E-2,-3.894584E-2,3.7109364E-2,-1.054739E-1,-1.801826E-2,-1.9790292E-2,2.903921E-2],"categories":[],"categories_nodes":[],"categories_segments":[],"categories_sizes":[],"default_left":[0,0,0,0,0,0,0,0,0,0,0,0,0,0,0,0,0,0,0,0,0,0,0],"id":13,"left_children":[1,3,5,-1,7,-1,-1,9,-1,11,13,15,17,19,21,-1,-1,-1,-1,-1,-1,-1,-1],"loss_changes":[6.1765396E3,1.2035833E3,7.760254E0,0E0,2.8062988E1,0E0,0E0,8.520889E-1,0E0,6.421547E-1,1.9783368E0,7.146759E-1,1.0299886E0,3.9724255E-1,2.413182E-1,0E0,0E0,0E0,0E0,0E0,0E0,0E0,0E0],"parents":[2147483647,0,0,1,1,2,2,4,4,7,7,9,9,10,10,11,11,12,12,13,13,14,14],"right_children":[2,4,6,-1,8,-1,-1,10,-1,12,14,16,18,20,22,-1,-1,-1,-1,-1,-1,-1,-1],"split_conditions":[2.01E1,3.39E1,6.77E1,5.250861E-2,3.56E1,-1.0973398E-1,-4.9366843E-2,2.96E1,-1.0991378E-1,8E0,3.02E1,2.73E1,2.81E1,8E-1,6E0,-1.5271457E-2,-5.1841047E-2,-3.894584E-2,3.7109364E-2,-1.054739E-1,-1.801826E-2,-1.9790292E-2,2.903921E-2],"split_indices":[1,2,1,0,2,0,0,0,0,3,0,0,0,1,3,0,0,0,0,0,0,0,0],"split_type":[0,0,0,0,0,0,0,0,0,0,0,0,0,0,0,0,0,0,0,0,0,0,0],"sum_hessian":[1.3978284E4,1.050952E4,3.4687644E3,9.957775E3,5.5174475E2,3.4450132E3,2.3751242E1,1.0259705E2,4.491477E2,9.16038E1,1.0993255E1,8.592375E1,5.680044E0,8.89737E0,2.0958846E0,6.82608E0,7.909767E1,3.792351E0,1.8876932E0,7.8523774E0,1.0449929E0,1.0479423E0,1.0479423E0],"tree_param":{"num_deleted":"0","num_feature":"4","num_nodes":"23","size_leaf_vector":"1"}},{"base_weights":[-4.406073E-2,-4.4130415E-1,1.0840244E0,-5.2409876E-2,1.004716E0,1.1074702E-1,4.8255953E-1,5.331135E-1,1.10931E-1,6.806151E-1,4.1212273E-1,4.9043885E-1,8.1677616E-1,1.1625406E0,2.3761386E-1,1.6234492E-1,5.427977E-1,5.121505E-1,1.3289443E-1,1.0053991E0,-5.3116053E-2,3.4432415E-2,1.2396234E-1,3.420344E-1,-3.967316E-2,3.3019343E-1,-5.2209068E-2,8.4159213E-1,3.4243208E-1,4.0477622E-2,6.1692137E-2,4.0746137E-2,-3.67381E-2,1.0803068E-1,1.875717E-2,2.0663626E-2,-2.866661E-2,1.7544776E-2,1.22783236E-1,2.141553E-3,9.346225E-2,1.0624691E-1,1.9055426E-2,-2.8184963E-2,4.6299446E-2],"categories":[],"categories_nodes":[],"categories_segments":[],"categories_sizes":[],"default_left":[0,0,0,0,0,0,0,0,0,0,0,0,0,0,0,0,0,0,0,0,0,0,0,0,0,0,0,0,0,0,0,0,0,0,0,0,0,0,0,0,0,0,0,0,0],"id":14,"left_children":[1,3,5,-1,7,-1,9,11,-1,13,15,17,19,21,23,25,27,29,31,33,35,-1,-1,37,-1,39,-1,41,43,-1,-1,-1,-1,-1,-1,-1,-1,-1,-1,-1,-1,-1,-1,-1,-1],"loss_changes":[6.15242E3,1.2161503E3,4.9887695E1,0E0,2.65495E1,0E0,1.6156635E0,8.317871E-1,0E0,7.008787E0,3.267189E0,6.38319E-1,1.9912043E0,5.877552E-1,1.3966398E0,4.392576E0,3.7267666E0,7.114029E-1,1.0507243E0,3.950119E-1,2.4452573E-1,0E0,0E0,2.275826E0,0E0,5.6001225E0,0E0,3.5699081E0,3.2788057E0,0E0,0E0,0E0,0E0,0E0,0E0,0E0,0E0,0E0,0E0,0E0,0E0,0E0,0E0,0E0,0E0],"parents":[2147483647,0,0,1,1,2,2,4,4,6,6,7,7,9,9,10,10,11,11,12,12,13,13,14,14,15,15,16,16,17,17,18,18,19,19,20,20,23,23,25,25,27,27,28,28],"right_children":[2,4,6,-1,8,-1,10,12,-1,14,16,18,20,22,24,26,28,30,32,34,36,-1,-1,38,-1,40,-1,42,44,-1,-1,-1,-1,-1,-1,-1,-1,-1,-1,-1,-1,-1,-1,-1,-1],"split_conditions":[2.01E1,3.39E1,6.77E1,-5.2409876E-2,3.56E1,1.1074702E-1,9.4E0,2.96E1,1.10931E-1,1.24E2,1.15E1,8E0,3.02E1,7E0,9E0,1.1E1,1.46E1,2E-1,2.81E1,8E-1,6E0,3.4432415E-2,1.2396234E-1,8.5E0,-3.967316E-2,2.6E1,-5.2209068E-2,2.59E1,1.6E1,4.0477622E-2,6.1692137E-2,4.0746137E-2,-3.67381E-2,1.0803068E-1,1.875717E-2,2.0663626E-2,-2.866661E-2,1.7544776E-2,1.22783236E-1,2.141553E-3,9.346225E-2,1.0624691E-1,1.9055426E-2,-2.8184963E-2,4.6299446E-2],"split_indices":[1,2,1,0,2,0,2,0,0,3,2,3,0,2,2,2,2,1,0,1,3,0,0,2,0,0,0,0,2,0,0,0,0,0,0,0,0,0,0,0,0,0,0,0,0],"split_type":[0,0,0,0,0,0,0,0,0,0,0,0,0,0,0,0,0,0,0,0,0,0,0,0,0,0,0,0,0,0,0,0,0,0,0,0,0,0,0,0,0,0,0,0,0],"sum_hessian":[1.3727201E4,1.0152658E4,3.5745437E3,9.603433E3,5.492253E2,3.4396223E3,1.3492134E2,1.0080471E2,4.4842053E2,3.3122917E1,1.01798416E2,8.9994736E1,1.0809976E1,1.5086553E1,1.8036366E1,3.5735123E1,6.606329E1,8.443507E1,5.5596724E0,8.755667E0,2.0543087E0,1.7695994E0,1.3316954E1,1.5882698E1,2.1536672E0,2.91131E1,6.622023E0,2.5233562E1,4.082973E1,4.4101326E1,4.033374E1,3.7093759E0,1.8502966E0,7.7269797E0,1.0286874E0,1.0271543E0,1.0271543E0,1.4376975E1,1.5057231E0,1.9954565E1,9.158534E0,1.8369425E1,6.864138E0,6.392267E0,3.443746E1],"tree_param":{"num_deleted":"0","num_feature":"4","num_nodes":"45","size_leaf_vector":"1"}},{"base_weights":[-4.517818E-1,-4.997992E-2,-3.1671074E-1,1.0933725E-1,-3.3666E-1,4.341607E-2,-2.637094E-1,-5.625462E-1,-2.664578E-1,-6.219361E-2,8.084408E-3,-9.0335065E-1,-1.823832E-1,-6.953244E-2,-3.671167E-1,2.9299214E-2,-9.935163E-1,-5.6716055E-1,4.947872E-3,-2.181953E-1,5.3574365E-2,-7.392896E-1,-2.3247066E-1,-3.4063447E-2,-1.0327375E-1,-8.573454E-2,-2.5704563E-2,-1.4584059E-2,4.516956E-2,-4.974484E-3,-1.0535413E-1,-8.6327784E-2,3.8703766E-2,-3.3687547E-2,3.8614776E-2],"categories":[],"categories_nodes":[],"categories_segments":[],"categories_sizes":[],"default_left":[0,0,0,0,0,0,0,0,0,0,0,0,0,0,0,0,0,0,0,0,0,0,0,0,0,0,0,0,0,0,0,0,0,0,0],"id":15,"left_children":[1,-1,3,5,7,-1,9,11,13,-1,-1,15,17,19,21,-1,23,25,27,29,-1,31,33,-1,-1,-1,-1,-1,-1,-1,-1,-1,-1,-1,-1],"loss_changes":[3.5472717E0,0E0,1.3335629E0,1.0329067E0,2.1652012E0,0E0,5.6249464E-1,4.2033434E0,2.2198896E0,0E0,0E0,2.1814518E0,1.2418739E0,3.675695E0,3.572835E0,0E0,7.1344376E-2,2.869308E-1,9.114776E-1,4.51548E0,0E0,3.0425177E0,3.7684598E0,0E0,0E0,0E0,0E0,0E0,0E0,0E0,0E0,0E0,0E0,0E0,0E0],"parents":[2147483647,0,0,2,2,3,3,4,4,6,6,7,7,8,8,11,11,12,12,13,13,14,14,16,16,17,17,18,18,19,19,21,21,22,22],"right_children":[2,-1,4,6,8,-1,10,12,14,-1,-1,16,18,20,22,-1,24,26,28,30,-1,32,34,-1,-1,-1,-1,-1,-1,-1,-1,-1,-1,-1,-1],"split_conditions":[6.77E1,-4.997992E-2,2.14E1,7.6E0,9.4E0,4.341607E-2,9.1E0,1.24E2,1.15E1,-6.219361E-2,8.084408E-3,2.42E1,6E0,1.1E1,1.32E1,2.9299214E-2,5E0,2.27E1,2.47E1,1.06E1,5.3574365E-2,2.64E1,2.58E1,-3.4063447E-2,-1.0327375E-1,-8.573454E-2,-2.5704563E-2,-1.4584059E-2,4.516956E-2,-4.974484E-3,-1.0535413E-1,-8.6327784E-2,3.8703766E-2,-3.3687547E-2,3.8614776E-2],"split_indices":[1,0,0,2,2,0,2,3,2,0,0,0,2,2,2,0,3,0,0,2,0,0,0,0,0,0,0,0,0,0,0,0,0,0,0],"split_type":[0,0,0,0,0,0,0,0,0,0,0,0,0,0,0,0,0,0,0,0,0,0,0,0,0,0,0,0,0,0,0,0,0,0,0],"sum_hessian":[5.7033905E2,4.1876797E2,1.515711E2,6.579284E0,1.4499182E2,3.429386E0,3.1498985E0,3.2714565E1,1.1227725E2,1.1496139E0,2.0002847E0,1.6524574E1,1.6189993E1,3.8550076E1,7.372717E1,1.0004776E0,1.5524096E1,4.6373367E0,1.1552656E1,3.1462122E1,7.087953E0,1.8394E1,5.5333176E1,1.428587E0,1.4095509E1,1.4840531E0,3.1532834E0,9.140919E0,2.411737E0,2.70641E1,4.398021E0,1.6780334E1,1.6136638E0,4.773272E1,7.600458E0],"tree_param":{"num_deleted":"0","num_feature":"4","num_nodes":"35","size_leaf_vector":"1"}},{"base_weights":[6.2918745E-2,4.4074202E-1,-9.767286E-1,5.2257925E-2,-8.742266E-1,-9.7977124E-2,-4.9229644E-2,-4.3005076E-1,-9.808683E-2,-4.3922213E-1,2.8195515E-2,-3.9728186E-1,-6.9174236E-1,-4.5794286E-2,-1.1129079E-2,-1.0096395E-1,-1.4496145E-2],"categories":[],"categories_nodes":[],"categories_segments":[],"categories_sizes":[],"default_left":[0,0,0,0,0,0,0,0,0,0,0,0,0,0,0,0,0],"id":16,"left_children":[1,3,5,-1,7,-1,-1,9,-1,11,-1,13,15,-1,-1,-1,-1],"loss_changes":[5.1502783E3,1.035335E3,4.6689453E0,0E0,2.6284058E1,0E0,0E0,8.482609E-1,0E0,8.892803E-1,0E0,1.6250725E0,2.3403602E0,0E0,0E0,0E0,0E0],"parents":[2147483647,0,0,1,1,2,2,4,4,7,7,9,9,11,11,12,12],"right_children":[2,4,6,-1,8,-1,-1,10,-1,12,-1,14,16,-1,-1,-1,-1],"split_conditions":[2.01E1,3.39E1,6.77E1,5.2257925E-2,3.56E1,-9.7977124E-2,-4.9229644E-2,1.3E1,-9.808683E-2,2.3E0,2.8195515E-2,6E-1,4E0,-4.5794286E-2,-1.1129079E-2,-1.0096395E-1,-1.4496145E-2],"split_indices":[1,2,1,0,2,0,0,3,0,1,0,1,1,0,0,0,0],"split_type":[0,0,0,0,0,0,0,0,0,0,0,0,0,0,0,0,0],"sum_hessian":[1.3109511E4,9.615626E3,3.493885E3,9.052825E3,5.6280115E2,3.4710615E3,2.2823425E1,1.0993605E2,4.528651E2,1.08916214E2,1.0198321E0,9.560993E1,1.3306283E1,7.8383026E1,1.7226912E1,7.8789587E0,5.4273243E0],"tree_param":{"num_deleted":"0","num_feature":"4","num_nodes":"17","size_leaf_vector":"1"}},{"base_weights":[-4.39301E-2,-4.36606E-1,9.6603185E-1,-5.2169185E-2,8.853113E-1,9.8747365E-2,4.2817134E-1,4.4795692E-1,9.886002E-2,-9.558994E-2,4.4634745E-1,1.553085E-1,4.701484E-1,4.3211542E-2,-4.152581E-2,6.636284E-1,3.758755E-1,4.0253064E-1,-3.7861176E-2,4.2710742E-1,7.7961105E-1,1.0042853E0,2.597779E-1,1.6370155E-1,4.8086905E-1,5.960707E-2,-2.9014537E-2,4.508007E-2,-1.9556766E-2,1.09590404E-1,3.9015006E-2,3.0372048E-2,1.0709287E-1,3.6896538E-2,-3.738181E-2,3.1880453E-2,-5.0873112E-2,8.371329E-2,3.4289908E-2],"categories":[],"categories_nodes":[],"categories_segments":[],"categories_sizes":[],"default_left":[0,0,0,0,0,0,0,0,0,0,0,0,0,0,0,0,0,0,0,0,0,0,0,0,0,0,0,0,0,0,0,0,0,0,0,0,0,0,0],"id":17,"left_children":[1,3,5,-1,7,-1,9,11,-1,13,15,17,19,-1,-1,21,23,25,-1,27,29,31,33,35,37,-1,-1,-1,-1,-1,-1,-1,-1,-1,-1,-1,-1,-1,-1],"loss_changes":[5.1170796E3,1.0454237E3,4.1235596E1,0E0,2.4953735E1,0E0,1.3777962E0,6.363888E-1,0E0,1.111848E0,1.8287029E0,1.3658127E0,1.0128613E0,0E0,0E0,4.132099E0,2.2555962E0,1.0802717E0,0E0,1.4294739E0,9.429388E-1,4.6713257E-1,1.2420238E0,3.9381406E0,3.1331768E0,0E0,0E0,0E0,0E0,0E0,0E0,0E0,0E0,0E0,0E0,0E0,0E0,0E0,0E0],"parents":[2147483647,0,0,1,1,2,2,4,4,6,6,7,7,9,9,10,10,11,11,12,12,15,15,16,16,17,17,19,19,20,20,21,21,22,22,23,23,24,24],"right_children":[2,4,6,-1,8,-1,10,12,-1,14,16,18,20,-1,-1,22,24,26,-1,28,30,32,34,36,38,-1,-1,-1,-1,-1,-1,-1,-1,-1,-1,-1,-1,-1,-1],"split_conditions":[2.01E1,3.39E1,6.77E1,-5.2169185E-2,3.56E1,9.8747365E-2,2.11E1,2.73E1,9.886002E-2,1.93E1,9.4E0,2.67E1,2.3E0,4.3211542E-2,-4.152581E-2,1.24E2,1.15E1,5.5E0,-3.7861176E-2,1.8E0,6E0,2.45E1,9E0,1.1E1,1.32E1,5.960707E-2,-2.9014537E-2,4.508007E-2,-1.9556766E-2,1.09590404E-1,3.9015006E-2,3.0372048E-2,1.0709287E-1,3.6896538E-2,-3.738181E-2,3.1880453E-2,-5.0873112E-2,8.371329E-2,3.4289908E-2],"split_indices":[1,2,1,0,2,0,0,0,0,0,2,0,1,0,0,3,2,1,0,1,3,0,2,2,2,0,0,0,0,0,0,0,0,0,0,0,0,0,0],"split_type":[0,0,0,0,0,0,0,0,0,0,0,0,0,0,0,0,0,0,0,0,0,0,0,0,0,0,0,0,0,0,0,0,0,0,0,0,0,0,0],"sum_hessian":[1.2900706E4,9.289494E3,3.6112122E3,8.728298E3,5.611958E2,3.4719666E3,1.3924548E2,1.0823499E2,4.529608E2,4.52733E0,1.3471815E2,8.192715E0,1.00042274E2,1.5752157E0,2.9521143E0,3.0931728E1,1.0378642E2,5.7680216E0,2.4246936E0,8.991657E1,1.0125705E1,1.5972116E1,1.4959611E1,3.5204113E1,6.858231E1,4.6173563E0,1.1506653E0,8.68865E1,3.0300713E0,4.58676E0,5.538945E0,1.8701565E0,1.410196E1,1.3116851E1,1.8427601E0,2.9033218E1,6.170893E0,1.7730751E1,5.085156E1],"tree_param":{"num_deleted":"0","num_feature":"4","num_nodes":"39","size_leaf_vector":"1"}},{"base_weights":[-4.3759766E-1,-4.9961142E-2,-2.8140482E-1,-3.1530353E-1,-4.653712E-2,-2.719705E-1,-1.5166411E-1,-2.5561568E-1,2.9220882E-1,-2.9619393E-1,4.6749644E-2,2.3029637E-1,-4.4956562E-1,5.1622838E-2,-5.809765E-2,1.4714919E-1,-3.157256E-1,4.0227175E-2,-1.1677767E-2,-7.7632517E-1,7.433426E-2,-3.2244645E-2,4.297472E-2,-4.838272E-2,-2.4631305E-2,-1.03587165E-1,-3.4550787E-3,-1.906274E-2,3.7843596E-2],"categories":[],"categories_nodes":[],"categories_segments":[],"categories_sizes":[],"default_left":[0,0,0,0,0,0,0,0,0,0,0,0,0,0,0,0,0,0,0,0,0,0,0,0,0,0,0,0,0],"id":18,"left_children":[1,-1,3,5,7,9,-1,11,13,15,-1,17,19,-1,-1,21,23,-1,-1,25,27,-1,-1,-1,-1,-1,-1,-1,-1],"loss_changes":[5.063843E0,0E0,1.2193251E0,6.6293344E0,1.5423024E0,2.4989471E0,0E0,1.361357E0,1.9381781E0,1.1566687E0,0E0,3.1370926E-1,1.748695E0,0E0,0E0,9.4704056E-1,1.3174257E0,0E0,0E0,1.1522665E0,4.514047E-1,0E0,0E0,0E0,0E0,0E0,0E0,0E0,0E0],"parents":[2147483647,0,0,2,2,3,3,4,4,5,5,7,7,8,8,9,9,11,11,12,12,15,15,16,16,19,19,20,20],"right_children":[2,-1,4,6,8,10,-1,12,14,16,-1,18,20,-1,-1,22,24,-1,-1,26,28,-1,-1,-1,-1,-1,-1,-1,-1],"split_conditions":[6.77E1,-4.9961142E-2,2.28E1,2.24E1,8E0,2.02E1,-1.5166411E-1,2.46E1,2.87E1,2.11E1,4.6749644E-2,3.39E1,3.1E1,5.1622838E-2,-5.809765E-2,1.93E1,9.4E0,4.0227175E-2,-1.1677767E-2,2.55E1,6E0,-3.2244645E-2,4.297472E-2,-4.838272E-2,-2.4631305E-2,-1.03587165E-1,-3.4550787E-3,-1.906274E-2,3.7843596E-2],"split_indices":[1,0,2,2,3,2,0,0,2,0,0,2,2,0,0,0,2,0,0,0,3,0,0,0,0,0,0,0,0],"split_type":[0,0,0,0,0,0,0,0,0,0,0,0,0,0,0,0,0,0,0,0,0,0,0,0,0,0,0,0,0],"sum_hessian":[5.363095E2,3.8231793E2,1.5399158E2,1.342698E2,1.9721767E1,1.3077892E2,3.4908886E0,1.2346653E1,7.375115E0,1.2721119E2,3.5677269E0,3.4687717E0,8.877881E0,6.1946487E0,1.1804662E0,5.0921535E0,1.2211904E2,2.2131283E0,1.2556435E0,5.170924E0,3.706957E0,1.8601382E0,3.2320156E0,3.3944E1,8.817504E1,3.53689E0,1.6340342E0,2.1803658E0,1.5265913E0],"tree_param":{"num_deleted":"0","num_feature":"4","num_nodes":"29","size_leaf_vector":"1"}},{"base_weights":[6.2243283E-2,4.3648583E-1,-8.920681E-1,5.2033074E-2,-7.869115E-1,-8.944884E-2,-4.9085807E-2,-3.6644253E-1,-8.951115E-2,-3.744369E-1,2.7980482E-2,-3.3798066E-1,-5.93384E-1,-3.8927067E-2,-8.947635E-3,-8.617092E-2,-1.1640555E-2],"categories":[],"categories_nodes":[],"categories_segments":[],"categories_sizes":[],"default_left":[0,0,0,0,0,0,0,0,0,0,0,0,0,0,0,0,0],"id":19,"left_children":[1,3,5,-1,7,-1,-1,9,-1,11,-1,13,15,-1,-1,-1,-1],"loss_changes":[4.3706943E3,9.0209863E2,2.9082031E0,0E0,2.5340546E1,0E0,0E0,7.1009445E-1,0E0,7.2665787E-1,0E0,1.2640295E0,1.8524599E0,0E0,0E0,0E0,0E0],"parents":[2147483647,0,0,1,1,2,2,4,4,7,7,9,9,11,11,12,12],"right_children":[2,4,6,-1,8,-1,-1,10,-1,12,-1,14,16,-1,-1,-1,-1],"split_conditions":[2.01E1,3.39E1,6.77E1,5.2033074E-2,3.56E1,-8.944884E-2,-4.9085807E-2,1.3E1,-8.951115E-2,2.3E0,2.7980482E-2,6E-1,4E0,-3.8927067E-2,-8.947635E-3,-8.617092E-2,-1.1640555E-2],"split_indices":[1,2,1,0,2,0,0,3,0,1,0,1,1,0,0,0,0],"split_type":[0,0,0,0,0,0,0,0,0,0,0,0,0,0,0,0,0],"sum_hessian":[1.2235818E4,8.78948E3,3.446338E3,8.226271E3,5.632086E2,3.4244507E3,2.188718E1,1.16166855E2,4.4704175E2,1.15162834E2,1.0040188E0,1.0090509E2,1.4257749E1,8.31723E1,1.7732788E1,8.608449E0,5.6492996E0],"tree_param":{"num_deleted":"0","num_feature":"4","num_nodes":"17","size_leaf_vector":"1"}},{"base_weights":[-4.3638013E-2,-4.3231145E-1,8.7991494E-1,-5.1953245E-2,7.962702E-1,9.005489E-2,3.814271E-1,3.8189083E-1,9.011945E-2,4.16578E-1,1.259879E-1,3.4956554E-1,5.964357E-1,3.7020683E-1,1.6677189E-1,3.5214815E-1,-2.5101718E-1,3.1469882E-1,5.278513E-1,1.0356384E-1,2.9832736E-1,3.9600632E-1,-4.468352E-2,-1.9069196E-1,5.5939215E-1,-4.9742576E-2,6.492605E-2,3.705938E-2,7.1542407E-3,7.987561E-2,8.762914E-3,-3.901917E-2,5.18938E-2,-8.860674E-3,4.1550215E-2,-3.808272E-2,1.6612193E-2,9.078548E-2,-1.9883313E-3],"categories":[],"categories_nodes":[],"categories_segments":[],"categories_sizes":[],"default_left":[0,0,0,0,0,0,0,0,0,0,0,0,0,0,0,0,0,0,0,0,0,0,0,0,0,0,0,0,0,0,0,0,0,0,0,0,0,0,0],"id":20,"left_children":[1,3,5,-1,7,-1,9,11,-1,13,15,17,19,21,-1,23,25,27,29,-1,31,33,-1,35,37,-1,-1,-1,-1,-1,-1,-1,-1,-1,-1,-1,-1,-1,-1],"loss_changes":[4.3315913E3,9.1048425E2,3.641992E1,0E0,2.414978E1,0E0,1.2386932E0,5.929489E-1,0E0,6.6911583E0,1.693765E0,4.7319603E-1,1.486825E0,2.7645607E0,0E0,1.4774548E0,2.0185897E0,1.1762924E0,1.7602243E0,0E0,1.6568384E0,1.1661186E0,0E0,3.422565E-1,1.849361E0,0E0,0E0,0E0,0E0,0E0,0E0,0E0,0E0,0E0,0E0,0E0,0E0,0E0,0E0],"parents":[2147483647,0,0,1,1,2,2,4,4,6,6,7,7,9,9,10,10,11,11,12,12,13,13,15,15,16,16,17,17,18,18,20,20,21,21,23,23,24,24],"right_children":[2,4,6,-1,8,-1,10,12,-1,14,16,18,20,22,-1,24,26,28,30,-1,32,34,-1,36,38,-1,-1,-1,-1,-1,-1,-1,-1,-1,-1,-1,-1,-1,-1],"split_conditions":[2.01E1,3.39E1,6.77E1,-5.1953245E-2,3.56E1,9.005489E-2,2.28E1,2.96E1,9.011945E-2,2.24E1,8E0,2.3E0,2.98E1,2.02E1,1.6677189E-1,2.46E1,2.87E1,6E-1,4E0,1.0356384E-1,2.99E1,2.11E1,-4.468352E-2,3.39E1,3.1E1,-4.9742576E-2,6.492605E-2,3.705938E-2,7.1542407E-3,7.987561E-2,8.762914E-3,-3.901917E-2,5.18938E-2,-8.860674E-3,4.1550215E-2,-3.808272E-2,1.6612193E-2,9.078548E-2,-1.9883313E-3],"split_indices":[1,2,1,0,2,0,2,0,0,2,3,1,0,2,0,0,2,1,1,0,0,0,0,2,2,0,0,0,0,0,0,0,0,0,0,0,0,0,0],"split_type":[0,0,0,0,0,0,0,0,0,0,0,0,0,0,0,0,0,0,0,0,0,0,0,0,0,0,0,0,0,0,0,0,0,0,0,0,0,0,0],"sum_hessian":[1.2064982E4,8.491783E3,3.5731997E3,7.929425E3,5.623584E2,3.4303984E3,1.4280136E2,1.1456089E2,4.477975E2,1.2497305E2,1.782832E1,1.0184529E2,1.2715602E1,1.2175628E2,3.2167678E0,1.11847E1,6.643618E0,8.749862E1,1.4346672E1,4.140854E0,8.574748E0,1.18528854E2,3.2274306E0,3.1123364E0,8.072364E0,5.567306E0,1.0763122E0,7.0718315E1,1.6780302E1,8.37711E0,5.9695625E0,1.8942289E0,6.680519E0,4.446878E0,1.1408197E2,1.9864948E0,1.1258416E0,4.6861753E0,3.386189E0],"tree_param":{"num_deleted":"0","num_feature":"4","num_nodes":"39","size_leaf_vector":"1"}},{"base_weights":[-4.2194432E-1,-4.994146E-2,-2.4813862E-1,-3.7612653E-1,-1.960432E-1,-6.7697906E-1,-6.563818E-2,2.7072912E-1,-2.4564272E-1,3.0340338E-2,-7.3888904E-1,-1.5146588E-1,4.30822E-2,6.1341282E-2,-9.14107E-2,-9.337409E-2,-2.0778914E-1,-8.457652E-1,-2.883114E-1,-2.4857352E-2,-8.839939E-2,3.1215715E-1,-2.6141757E-1,-2.708207E-2,-8.834099E-2,4.7338855E-2,-8.563127E-2,-1.5870003E-2,2.372315E-2,5.343557E-2,-5.895937E-3,-8.1975535E-2,-2.187447E-2],"categories":[],"categories_nodes":[],"categories_segments":[],"categories_sizes":[],"default_left":[0,0,0,0,0,0,0,0,0,0,0,0,0,0,0,0,0,0,0,0,0,0,0,0,0,0,0,0,0,0,0,0,0],"id":21,"left_children":[1,-1,3,5,7,9,11,13,15,-1,17,19,-1,-1,-1,-1,21,23,25,27,-1,29,31,-1,-1,-1,-1,-1,-1,-1,-1,-1,-1],"loss_changes":[6.7014847E0,0E0,9.815502E-1,4.1307554E0,2.7190928E0,1.5954952E0,1.0496987E0,5.222296E0,2.5172958E0,0E0,7.9355335E-1,1.873538E0,0E0,0E0,0E0,0E0,2.8686504E0,1.2642479E-1,2.848676E0,6.8502825E-1,0E0,8.3972114E-1,1.9924264E0,0E0,0E0,0E0,0E0,0E0,0E0,0E0,0E0,0E0,0E0],"parents":[2147483647,0,0,2,2,3,3,4,4,5,5,6,6,7,7,8,8,10,10,11,11,16,16,17,17,18,18,19,19,21,21,22,22],"right_children":[2,-1,4,6,8,10,12,14,16,-1,18,20,-1,-1,-1,-1,22,24,26,28,-1,30,32,-1,-1,-1,-1,-1,-1,-1,-1,-1,-1],"split_conditions":[6.77E1,-4.994146E-2,9.5E0,1.24E2,1.01E1,2.42E1,9E0,1.24E2,1.02E1,3.0340338E-2,9.4E0,8.5E0,4.30822E-2,6.1341282E-2,-9.14107E-2,-9.337409E-2,1.06E1,5E0,2.57E1,2.35E1,-8.839939E-2,2.56E1,1.1E1,-2.708207E-2,-8.834099E-2,4.7338855E-2,-8.563127E-2,-1.5870003E-2,2.372315E-2,5.343557E-2,-5.895937E-3,-8.1975535E-2,-2.187447E-2],"split_indices":[1,0,2,3,2,0,2,3,2,0,2,2,0,0,0,0,2,3,0,0,0,0,2,0,0,0,0,0,0,0,0,0,0],"split_type":[0,0,0,0,0,0,0,0,0,0,0,0,0,0,0,0,0,0,0,0,0,0,0,0,0,0,0,0,0,0,0,0,0],"sum_hessian":[5.0590866E2,3.486374E2,1.5727129E2,4.3696907E1,1.1357437E2,2.1593338E1,2.2103569E1,1.0481024E1,1.03093346E2,1.0509043E0,2.0542433E1,1.9438042E1,2.6655276E0,8.503798E0,1.9772263E0,4.1415496E0,9.89518E1,1.58950815E1,4.6473517E0,1.7455078E1,1.9829637E0,8.801123E0,9.015067E1,1.4803257E0,1.4414756E1,2.0563374E0,2.5910141E0,1.1815604E1,5.639474E0,5.2299414E0,3.5711813E0,5.1079063E0,8.504277E1],"tree_param":{"num_deleted":"0","num_feature":"4","num_nodes":"33","size_leaf_vector":"1"}},{"base_weights":[6.1536755E-2,4.3256584E-1,-8.2793194E-1,5.1831186E-2,-7.187591E-1,-8.299271E-2,-4.895175E-2,-3.1625307E-1,-8.302023E-2,-3.2346877E-1,2.7977346E-2,-2.4821162E-1,-4.086025E-1,-1.2956686E-2,-3.250159E-2,-9.298274E-3,-4.6714947E-2],"categories":[],"categories_nodes":[],"categories_segments":[],"categories_sizes":[],"default_left":[0,0,0,0,0,0,0,0,0,0,0,0,0,0,0,0,0],"id":22,"left_children":[1,3,5,-1,7,-1,-1,9,-1,11,-1,13,15,-1,-1,-1,-1],"loss_changes":[3.7550715E3,7.9300916E2,1.8549805E0,0E0,2.471988E1,0E0,0E0,6.1682796E-1,0E0,6.762552E-1,0E0,5.681925E-1,9.803772E-1,0E0,0E0,0E0,0E0],"parents":[2147483647,0,0,1,1,2,2,4,4,7,7,9,9,11,11,12,12],"right_children":[2,4,6,-1,8,-1,-1,10,-1,12,-1,14,16,-1,-1,-1,-1],"split_conditions":[2.01E1,3.39E1,6.77E1,5.1831186E-2,3.56E1,-8.299271E-2,-4.895175E-2,1.3E1,-8.302023E-2,2E-1,2.7977346E-2,2.86E1,2.75E1,-1.2956686E-2,-3.250159E-2,-9.298274E-3,-4.6714947E-2],"split_indices":[1,2,1,0,2,0,0,3,0,1,0,0,0,0,0,0,0],"split_type":[0,0,0,0,0,0,0,0,0,0,0,0,0,0,0,0,0],"sum_hessian":[1.1376273E4,8.028016E3,3.3482578E3,7.472076E3,5.559402E2,3.3271897E3,2.106805E1,1.2138054E2,4.3455963E2,1.2038046E2,1.0000782E0,6.597496E1,5.4405502E1,2.6981613E1,3.8993347E1,8.917967E0,4.5487537E1],"tree_param":{"num_deleted":"0","num_feature":"4","num_nodes":"17","size_leaf_vector":"1"}},{"base_weights":[-4.3252993E-2,-4.283522E-1,8.139767E-1,-5.1759314E-2,7.2690696E-1,8.3481595E-2,3.3839756E-1,3.2984006E-1,8.351096E-2,4.7228214E-1,2.8259787E-1,3.3933294E-1,-1.0581659E-1,7.5802135E-1,1.4850472E-1,-2.2089708E-1,3.3523142E-1,3.0064967E-1,6.549678E-1,1.3321536E-2,-3.045167E-2,3.447935E-1,8.499683E-1,2.4069348E-1,-4.06292E-2,-5.8713086E-2,1.0176213E-1,1.0272179E-1,2.9493824E-1,2.2449372E-2,3.7639838E-2,9.172146E-2,3.8126968E-2,4.2735167E-2,2.911834E-3,6.403282E-2,1.0654252E-1,1.0244034E-2,9.64529E-2,-2.6668046E-2,3.521237E-2],"categories":[],"categories_nodes":[],"categories_segments":[],"categories_sizes":[],"default_left":[0,0,0,0,0,0,0,0,0,0,0,0,0,0,0,0,0,0,0,0,0,0,0,0,0,0,0,0,0,0,0,0,0,0,0,0,0,0,0,0,0],"id":23,"left_children":[1,3,5,-1,7,-1,9,11,-1,13,15,17,19,21,23,25,27,29,31,-1,-1,33,35,37,-1,-1,-1,-1,39,-1,-1,-1,-1,-1,-1,-1,-1,-1,-1,-1,-1],"loss_changes":[3.711389E3,8.0014905E2,3.4256348E1,0E0,2.3642212E1,0E0,9.720478E-1,5.357723E-1,0E0,3.7769403E0,2.9079876E0,1.250287E0,1.9919313E-1,5.462074E-1,1.1694319E0,5.4616146E0,2.4075937E0,5.3526974E-1,5.1821375E-1,0E0,0E0,1.3618374E-1,1.03076935E-1,1.7620435E0,0E0,0E0,0E0,0E0,3.0893373E0,0E0,0E0,0E0,0E0,0E0,0E0,0E0,0E0,0E0,0E0,0E0,0E0],"parents":[2147483647,0,0,1,1,2,2,4,4,6,6,7,7,9,9,10,10,11,11,12,12,13,13,14,14,15,15,16,16,17,17,18,18,21,21,22,22,23,23,28,28],"right_children":[2,4,6,-1,8,-1,10,12,-1,14,16,18,20,22,24,26,28,30,32,-1,-1,34,36,38,-1,-1,-1,-1,40,-1,-1,-1,-1,-1,-1,-1,-1,-1,-1,-1,-1],"split_conditions":[2.01E1,3.39E1,6.77E1,-5.1759314E-2,3.56E1,8.3481595E-2,9.5E0,3.02E1,8.351096E-2,1.24E2,1.01E1,2.96E1,6E0,8E0,9E0,1.24E2,1.02E1,2E-1,2.98E1,1.3321536E-2,-3.045167E-2,9.3E0,2.57E1,8.5E0,-4.06292E-2,-5.8713086E-2,1.0176213E-1,1.0272179E-1,1.06E1,2.2449372E-2,3.7639838E-2,9.172146E-2,3.8126968E-2,4.2735167E-2,2.911834E-3,6.403282E-2,1.0654252E-1,1.0244034E-2,9.64529E-2,-2.6668046E-2,3.521237E-2],"split_indices":[1,2,1,0,2,0,2,0,0,3,2,0,3,3,2,3,2,1,0,0,0,2,0,2,0,0,0,0,2,0,0,0,0,0,0,0,0,0,0,0,0],"split_type":[0,0,0,0,0,0,0,0,0,0,0,0,0,0,0,0,0,0,0,0,0,0,0,0,0,0,0,0,0,0,0,0,0,0,0,0,0,0,0,0,0],"sum_hessian":[1.124054E4,7.756524E3,3.4840166E3,7.2008296E3,5.556945E2,3.337037E3,1.4697954E2,1.1986798E2,4.358265E2,4.1041527E1,1.05938E2,1.1752817E2,2.339816E0,2.1088964E1,1.995256E1,9.723708E0,9.6214294E1,1.0643619E2,1.1091982E1,1.211715E0,1.1281011E0,4.7029395E0,1.6386026E1,1.7595015E1,2.3575468E0,7.9104924E0,1.8132163E0,3.9463816E0,9.2267914E1,5.505195E1,5.138424E1,4.463776E0,6.6282053E0,3.4475386E0,1.2554008E0,1.0318272E1,6.067754E0,1.573176E1,1.8632541E0,8.188194E0,8.407972E1],"tree_param":{"num_deleted":"0","num_feature":"4","num_nodes":"41","size_leaf_vector":"1"}},{"base_weights":[-4.0735325E-1,-4.992081E-2,-2.2207287E-1,-2.5132424E-1,-1.9498631E-2,-2.13871E-1,-1.17830835E-1,3.462446E-1,-1.7381765E-1,-2.3503855E-1,4.6111103E-2,4.7932822E-2,-1.9138228E-2,-3.6893365E-1,2.6960137E-1,1.07458636E-1,-2.5359905E-1,-5.102266E-1,1.8490335E-3,4.2586777E-2,-1.5165768E-2,4.2713083E-2,-2.3944173E-2,-4.130171E-2,-1.8909484E-2,-8.596056E-2,2.3053396E-3,4.2616002E-2,-6.1187405E-2],"categories":[],"categories_nodes":[],"categories_segments":[],"categories_sizes":[],"default_left":[0,0,0,0,0,0,0,0,0,0,0,0,0,0,0,0,0,0,0,0,0,0,0,0,0,0,0,0,0],"id":24,"left_children":[1,-1,3,5,7,9,-1,11,13,15,-1,-1,-1,17,19,21,23,25,27,-1,-1,-1,-1,-1,-1,-1,-1,-1,-1],"loss_changes":[8.02066E0,0E0,9.4415903E-1,4.604081E0,1.2619987E0,2.0466504E0,0E0,5.6772465E-1,1.4526641E0,8.676195E-1,0E0,0E0,0E0,5.920788E-1,4.1723424E-1,9.337716E-1,1.2144842E0,1.5427334E0,1.3309809E0,0E0,0E0,0E0,0E0,0E0,0E0,0E0,0E0,0E0,0E0],"parents":[2147483647,0,0,2,2,3,3,4,4,5,5,7,7,8,8,9,9,13,13,14,14,15,15,16,16,17,17,18,18],"right_children":[2,-1,4,6,8,10,-1,12,14,16,-1,-1,-1,18,20,22,24,26,28,-1,-1,-1,-1,-1,-1,-1,-1,-1,-1],"split_conditions":[6.77E1,-4.992081E-2,2.28E1,2.24E1,2.46E1,2.02E1,-1.17830835E-1,3.56E1,2.55E1,2.14E1,4.6111103E-2,4.7932822E-2,-1.9138228E-2,8E0,2.64E1,7.6E0,9.4E0,3.1E1,2.73E1,4.2586777E-2,-1.5165768E-2,4.2713083E-2,-2.3944173E-2,-4.130171E-2,-1.8909484E-2,-8.596056E-2,2.3053396E-3,4.2616002E-2,-6.1187405E-2],"split_indices":[1,0,2,2,0,2,0,2,0,0,0,0,0,3,0,2,2,2,2,0,0,0,0,0,0,0,0,0,0],"split_type":[0,0,0,0,0,0,0,0,0,0,0,0,0,0,0,0,0,0,0,0,0,0,0,0,0,0,0,0,0],"sum_hessian":[4.7679395E2,3.1763068E2,1.5916328E2,1.3887004E2,2.029325E1,1.3466003E2,4.2099977E0,5.652609E0,1.464064E1,1.3119745E2,3.4625874E0,4.6179285E0,1.0346802E0,1.0283577E1,4.3570633E0,6.498113E0,1.2469934E2,7.1737995E0,3.109777E0,3.1701527E0,1.1869109E0,3.2614114E0,3.2367017E0,3.436514E1,9.03342E1,3.9645188E0,3.2092807E0,2.0193028E0,1.0904744E0],"tree_param":{"num_deleted":"0","num_feature":"4","num_nodes":"29","size_leaf_vector":"1"}},{"base_weights":[6.084379E-2,4.289153E-1,-7.7782416E-1,5.1649738E-2,-6.6306E-1,-7.795029E-2,-4.880374E-2,-2.7435634E-1,-7.795048E-2,-2.8116706E-1,2.9046271E-2,-2.489154E-1,-4.8274076E-1,-2.9440297E-2,-3.1278771E-3,-8.915182E-2,-2.8873002E-2],"categories":[],"categories_nodes":[],"categories_segments":[],"categories_sizes":[],"default_left":[0,0,0,0,0,0,0,0,0,0,0,0,0,0,0,0,0],"id":25,"left_children":[1,3,5,-1,7,-1,-1,9,-1,11,-1,13,15,-1,-1,-1,-1],"loss_changes":[3.2553833E3,7.0127844E2,1.1844482E0,0E0,2.4437119E1,0E0,0E0,5.705509E-1,0E0,6.995039E-1,0E0,1.0872426E0,1.037354E0,0E0,0E0,0E0,0E0],"parents":[2147483647,0,0,1,1,2,2,4,4,7,7,9,9,11,11,12,12],"right_children":[2,4,6,-1,8,-1,-1,10,-1,12,-1,14,16,-1,-1,-1,-1],"split_conditions":[2.01E1,3.39E1,6.77E1,5.1649738E-2,3.56E1,-7.795029E-2,-4.880374E-2,1.22E1,-7.795048E-2,2.3E0,2.9046271E-2,6E-1,2.9E0,-2.9440297E-2,-3.1278771E-3,-8.915182E-2,-2.8873002E-2],"split_indices":[1,2,1,0,2,0,0,1,0,1,0,1,1,0,0,0,0],"split_type":[0,0,0,0,0,0,0,0,0,0,0,0,0,0,0,0,0],"sum_hessian":[1.0543729E4,7.3280913E3,3.2156372E3,6.7844688E3,5.436227E2,3.1954363E3,2.02008E1,1.2608731E2,4.175354E2,1.25081245E2,1.0060593E0,1.0975534E2,1.5325909E1,9.0489655E1,1.9265684E1,3.7755933E0,1.1550316E1],"tree_param":{"num_deleted":"0","num_feature":"4","num_nodes":"17","size_leaf_vector":"1"}},{"base_weights":[-4.2813115E-2,-4.2466173E-1,7.6226705E-1,-5.158499E-2,6.7032975E-1,7.8352146E-2,3.046428E-1,2.8644967E-1,7.8353964E-2,3.3466172E-1,8.694604E-2,2.3498645E-1,3.745541E-1,2.9544866E-1,1.2741302E-1,-3.169729E-1,2.517315E-1,3.580603E-1,1.358672E-1,3.231353E-1,1.075441E-1,3.1762025E-1,-4.424038E-2,1.4027675E-2,-4.5590524E-2,3.982781E-1,-3.9045464E-2,2.513854E-2,6.963388E-2,1.8392053E-2,-2.8809259E-2,3.9032705E-2,-1.5911873E-2,-4.9695233E-3,3.359201E-2,1.01308385E-2,6.156657E-2],"categories":[],"categories_nodes":[],"categories_segments":[],"categories_sizes":[],"default_left":[0,0,0,0,0,0,0,0,0,0,0,0,0,0,0,0,0,0,0,0,0,0,0,0,0,0,0,0,0,0,0,0,0,0,0,0,0],"id":26,"left_children":[1,3,5,-1,7,-1,9,11,-1,13,15,17,19,21,-1,23,25,27,29,31,-1,33,-1,-1,-1,35,-1,-1,-1,-1,-1,-1,-1,-1,-1,-1,-1],"loss_changes":[3.2096584E3,7.074573E2,3.2431763E1,0E0,2.3453995E1,0E0,9.5583916E-1,4.8175526E-1,0E0,4.4900923E0,1.3853844E0,9.5179176E-1,1.2616963E0,2.2363167E0,0E0,4.531358E-1,1.5190718E0,1.1230593E0,1.0112615E0,1.4564242E0,0E0,8.5661983E-1,0E0,0E0,0E0,7.311678E-1,0E0,0E0,0E0,0E0,0E0,0E0,0E0,0E0,0E0,0E0,0E0],"parents":[2147483647,0,0,1,1,2,2,4,4,6,6,7,7,9,9,10,10,11,11,12,12,13,13,15,15,16,16,17,17,18,18,19,19,21,21,25,25],"right_children":[2,4,6,-1,8,-1,10,12,-1,14,16,18,20,22,-1,24,26,28,30,32,-1,34,-1,-1,-1,36,-1,-1,-1,-1,-1,-1,-1,-1,-1,-1,-1],"split_conditions":[2.01E1,3.39E1,6.77E1,-5.158499E-2,3.56E1,7.8352146E-2,2.28E1,2.89E1,7.8353964E-2,2.24E1,2.46E1,2.81E1,1.6E0,2.02E1,1.2741302E-1,6E0,9E0,2.8E1,7E0,5E-1,1.075441E-1,2.14E1,-4.424038E-2,1.4027675E-2,-4.5590524E-2,2.73E1,-3.9045464E-2,2.513854E-2,6.963388E-2,1.8392053E-2,-2.8809259E-2,3.9032705E-2,-1.5911873E-2,-4.9695233E-3,3.359201E-2,1.01308385E-2,6.156657E-2],"split_indices":[1,2,1,0,2,0,2,0,0,2,0,0,1,2,0,3,3,0,3,1,0,0,0,0,0,2,0,0,0,0,0,0,0,0,0,0,0],"split_type":[0,0,0,0,0,0,0,0,0,0,0,0,0,0,0,0,0,0,0,0,0,0,0,0,0,0,0,0,0,0,0,0,0,0,0,0,0],"sum_hessian":[1.043862E4,7.080717E3,3.3579033E3,6.536871E3,5.438456E2,3.2081868E3,1.4971654E2,1.24662254E2,4.1918335E2,1.3110126E2,1.8615278E1,8.1010086E1,4.365217E1,1.27110214E2,3.9910462E0,5.126283E0,1.3488996E1,3.4972816E1,4.6037266E1,4.2029797E1,1.6223735E0,1.2395505E2,3.155166E0,1.1923573E0,3.9339256E0,1.129198E1,2.1970158E0,2.7913519E1,7.0592976E0,4.1858982E1,4.178284E0,3.7057278E1,4.9725175E0,5.8010297E0,1.18154015E2,5.392034E0,5.8999457E0],"tree_param":{"num_deleted":"0","num_feature":"4","num_nodes":"37","size_leaf_vector":"1"}},{"base_weights":[-3.9148605E-1,-4.989908E-2,-1.969527E-1,-3.2086554E-1,-1.5461054E-1,-6.652816E-1,-4.436569E-2,1.0129162E-2,-2.3784123E-1,3.1529434E-2,-7.4866205E-1,-1.1418242E-1,4.1210905E-2,-1.15222275E-1,5.407048E-2,-5.582314E-1,-1.3013598E-1,-2.3278067E-2,-7.8381546E-2,-1.938346E-2,-8.786576E-2,9.1398545E-2,-5.8764005E-1,-6.7429084E-1,4.158333E-2,-2.13638E-1,3.974811E-1,-1.4896522E-2,2.5153056E-2,2.4068711E-2,-7.144749E-2,-9.016255E-2,-2.7424112E-2,-9.686092E-3,-7.859176E-2,-8.5970186E-2,-1.573891E-2,5.013429E-2,-1.4240711E-2],"categories":[],"categories_nodes":[],"categories_segments":[],"categories_sizes":[],"default_left":[0,0,0,0,0,0,0,0,0,0,0,0,0,0,0,0,0,0,0,0,0,0,0,0,0,0,0,0,0,0,0,0,0,0,0,0,0,0,0],"id":27,"left_children":[1,-1,3,5,7,9,11,13,15,-1,17,19,-1,21,-1,23,25,-1,-1,27,-1,29,31,33,-1,35,37,-1,-1,-1,-1,-1,-1,-1,-1,-1,-1,-1,-1],"loss_changes":[9.344551E0,0E0,8.02268E-1,3.81982E0,1.6881185E0,1.7018933E0,7.9575515E-1,2.8705807E0,2.7472477E0,0E0,1.2256813E-1,1.5164046E0,0E0,3.4680986E0,0E0,2.5702682E0,2.8368223E0,0E0,0E0,7.342211E-1,0E0,3.203855E0,8.133514E-1,1.1150637E0,0E0,1.8480768E0,5.695708E-1,0E0,0E0,0E0,0E0,0E0,0E0,0E0,0E0,0E0,0E0,0E0,0E0],"parents":[2147483647,0,0,2,2,3,3,4,4,5,5,6,6,7,7,8,8,10,10,11,11,13,13,15,15,16,16,19,19,21,21,22,22,23,23,25,25,26,26],"right_children":[2,-1,4,6,8,10,12,14,16,-1,18,20,-1,22,-1,24,26,-1,-1,28,-1,30,32,34,-1,36,38,-1,-1,-1,-1,-1,-1,-1,-1,-1,-1,-1,-1],"split_conditions":[6.77E1,-4.989908E-2,9.4E0,1.24E2,1.15E1,2.42E1,9E0,1.1E1,1.32E1,3.1529434E-2,5E0,8.9E0,4.1210905E-2,2.62E1,5.407048E-2,2.64E1,2.58E1,-2.3278067E-2,-7.8381546E-2,2.35E1,-8.786576E-2,3.76E2,1.02E1,2.48E1,4.158333E-2,1.39E1,2.64E1,-1.4896522E-2,2.5153056E-2,2.4068711E-2,-7.144749E-2,-9.016255E-2,-2.7424112E-2,-9.686092E-3,-7.859176E-2,-8.5970186E-2,-1.573891E-2,5.013429E-2,-1.4240711E-2],"split_indices":[1,0,2,3,2,0,2,2,2,0,3,2,0,0,0,0,0,0,0,0,0,3,2,0,0,2,0,0,0,0,0,0,0,0,0,0,0,0,0],"split_type":[0,0,0,0,0,0,0,0,0,0,0,0,0,0,0,0,0,0,0,0,0,0,0,0,0,0,0,0,0,0,0,0,0,0,0,0,0,0,0],"sum_hessian":[4.505234E2,2.8916013E2,1.6136327E2,3.942104E1,1.2194222E2,1.6928429E1,2.2492613E1,4.1224422E1,8.0717804E1,1.108679E0,1.5819749E1,2.0159176E1,2.333438E0,3.397943E1,7.2449927E0,1.9255531E1,6.146227E1,1.4954617E0,1.4324287E1,1.8847359E1,1.3118168E0,2.4201138E1,9.778293E0,1.7480492E1,1.7750382E0,5.3577976E1,7.884296E0,1.3053726E1,5.793632E0,2.10103E1,3.1908371E0,3.94699E0,5.8313026E0,3.1343966E0,1.4346096E1,3.1471007E0,5.0430874E1,6.67213E0,1.2121658E0],"tree_param":{"num_deleted":"0","num_feature":"4","num_nodes":"39","size_leaf_vector":"1"}},{"base_weights":[6.0168415E-2,4.2549092E-1,-7.377328E-1,5.1486522E-2,-6.1670554E-1,-7.391723E-2,-4.8656177E-2,-2.402102E-1,-7.389471E-2,-2.4685131E-1,3.0107249E-2,-2.1557839E-1,-4.7827822E-1,-2.225559E-2,2.8591087E-2,-6.457931E-2,-1.283744E-2],"categories":[],"categories_nodes":[],"categories_segments":[],"categories_sizes":[],"default_left":[0,0,0,0,0,0,0,0,0,0,0,0,0,0,0,0,0],"id":28,"left_children":[1,3,5,-1,7,-1,-1,9,-1,11,-1,13,15,-1,-1,-1,-1],"loss_changes":[2.8415505E3,6.231499E2,7.4731445E-1,0E0,2.4149734E1,0E0,0E0,5.4536676E-1,0E0,8.3775616E-1,0E0,4.7073984E-1,7.7609396E-1,0E0,0E0,0E0,0E0],"parents":[2147483647,0,0,1,1,2,2,4,4,7,7,9,9,11,11,12,12],"right_children":[2,4,6,-1,8,-1,-1,10,-1,12,-1,14,16,-1,-1,-1,-1],"split_conditions":[2.01E1,3.39E1,6.77E1,5.1486522E-2,3.56E1,-7.391723E-2,-4.8656177E-2,3.03E1,-7.389471E-2,2.96E1,3.0107249E-2,1.3E1,6E0,-2.225559E-2,2.8591087E-2,-6.457931E-2,-1.283744E-2],"split_indices":[1,2,1,0,2,0,0,0,0,0,0,3,3,0,0,0,0],"split_type":[0,0,0,0,0,0,0,0,0,0,0,0,0,0,0,0,0],"sum_hessian":[9.746244E3,6.6856553E3,3.060589E3,6.1580713E3,5.275839E2,3.0412166E3,1.9372555E1,1.3003879E2,3.9754514E2,1.2900002E2,1.0387772E0,1.1534487E2,1.3655138E1,1.1431061E2,1.0342635E0,8.662416E0,4.9927225E0],"tree_param":{"num_deleted":"0","num_feature":"4","num_nodes":"17","size_leaf_vector":"1"}},{"base_weights":[-4.2369172E-2,-4.2119628E-1,7.202543E-1,-5.142815E-2,6.2332034E-1,7.425246E-2,2.7257484E-1,2.5110167E-1,7.423144E-2,4.0140483E-1,2.2752437E-1,2.5779966E-1,-2.9834766E-2,7.234859E-1,1.1563218E-1,5.744059E-2,3.1167603E-1,2.2631875E-1,4.8935083E-1,-2.9755658E-2,8.0290914E-1,1.89303E-1,-3.8908195E-2,1.8601687E-1,-5.186398E-2,5.44307E-1,1.6447225E-1,2.333402E-2,-2.8305484E-2,6.5745495E-2,1.3599353E-2,2.6504427E-2,8.3747946E-2,6.8262825E-3,8.093279E-2,-3.241143E-3,6.552292E-2,7.2179966E-2,4.1400176E-3,-3.5220757E-2,2.6280735E-2],"categories":[],"categories_nodes":[],"categories_segments":[],"categories_sizes":[],"default_left":[0,0,0,0,0,0,0,0,0,0,0,0,0,0,0,0,0,0,0,0,0,0,0,0,0,0,0,0,0,0,0,0,0,0,0,0,0,0,0,0,0],"id":29,"left_children":[1,3,5,-1,7,-1,9,11,-1,13,15,17,-1,19,21,23,25,27,29,-1,31,33,-1,35,-1,37,39,-1,-1,-1,-1,-1,-1,-1,-1,-1,-1,-1,-1,-1,-1],"loss_changes":[2.794025E3,6.285575E2,3.1798096E1,0E0,2.3251175E1,0E0,8.006296E-1,5.5422974E-1,0E0,3.4608126E0,1.644886E0,8.272047E-1,0E0,1.6916618E0,8.7661475E-1,3.0355573E0,2.564229E0,4.7782612E-1,7.7426314E-1,0E0,9.211922E-2,1.4094694E0,0E0,3.4213638E0,0E0,2.612276E0,2.5768127E0,0E0,0E0,0E0,0E0,0E0,0E0,0E0,0E0,0E0,0E0,0E0,0E0,0E0,0E0],"parents":[2147483647,0,0,1,1,2,2,4,4,6,6,7,7,9,9,10,10,11,11,13,13,14,14,15,15,16,16,17,17,18,18,20,20,21,21,23,23,25,25,26,26],"right_children":[2,4,6,-1,8,-1,10,12,-1,14,16,18,-1,20,22,24,26,28,30,-1,32,34,-1,36,-1,38,40,-1,-1,-1,-1,-1,-1,-1,-1,-1,-1,-1,-1,-1,-1],"split_conditions":[2.01E1,3.39E1,6.77E1,-5.142815E-2,3.56E1,7.425246E-2,9.4E0,3.03E1,7.423144E-2,1.24E2,1.15E1,2.96E1,-2.9834766E-2,2.42E1,9E0,1.1E1,1.46E1,1.3E1,6E0,-2.9755658E-2,5E0,8.5E0,-3.8908195E-2,2.62E1,-5.186398E-2,2.59E1,1.6E1,2.333402E-2,-2.8305484E-2,6.5745495E-2,1.3599353E-2,2.6504427E-2,8.3747946E-2,6.8262825E-3,8.093279E-2,-3.241143E-3,6.552292E-2,7.2179966E-2,4.1400176E-3,-3.5220757E-2,2.6280735E-2],"split_indices":[1,2,1,0,2,0,2,0,0,3,2,0,0,0,2,2,2,3,3,0,3,2,0,0,0,0,2,0,0,0,0,0,0,0,0,0,0,0,0,0,0],"split_type":[0,0,0,0,0,0,0,0,0,0,0,0,0,0,0,0,0,0,0,0,0,0,0,0,0,0,0,0,0,0,0,0,0,0,0,0,0,0,0,0,0],"sum_hessian":[9.669121E3,6.4604116E3,3.20871E3,5.932249E3,5.281625E2,3.0560261E3,1.5268399E2,1.2869836E2,3.9946408E2,3.7509296E1,1.151747E2,1.2767279E2,1.0255752E0,1.6914295E1,2.0595001E1,3.8679634E1,7.6495056E1,1.1413305E2,1.35397415E1,1.0225257E0,1.589177E1,1.8517078E1,2.077923E0,3.2175446E1,6.5041885E0,2.8599958E1,4.78951E1,1.13115715E2,1.0173337E0,8.591755E0,4.947986E0,1.4831344E0,1.4408635E1,1.6421415E1,2.095663E0,2.2590168E1,9.585279E0,2.0817509E1,7.7824492E0,7.245184E0,4.0649918E1],"tree_param":{"num_deleted":"0","num_feature":"4","num_nodes":"41","size_leaf_vector":"1"}},{"base_weights":[-3.778139E-1,-4.9876135E-2,-1.784897E-1,-1.058182E-1,-2.4539383E-1,-1.6085361E-1,4.7167096E-2,-5.7868844E-1,-1.6872825E-1,-5.7227463E-2,-6.9077784E-1,-4.1671455E-1,1.8491456E-1,-6.909612E-1,1.2233661E-2,-3.13204E-1,-2.6242863E-2,-1.2592971E-1,5.782808E-2,5.1273674E-2,-1.1246385E-1,3.00133E-3,-6.2700045E-1,3.801133E-1,3.2690305E-2,-2.187775E-2,-7.324412E-2,2.58678E-1,-4.780803E-1,-1.5419446E-1,3.9223534E-1,-2.3500197E-2,3.0745476E-2,-1.6300755E-2,-7.631294E-2,-2.003595E-2,5.0023437E-2,4.0007956E-2,-9.952353E-3,4.265779E-2,-1.6618129E-2,-2.5260603E-2,-8.5894704E-2,-5.3213816E-3,-7.609018E-2,4.9686432E-2,-1.3172689E-2],"categories":[],"categories_nodes":[],"categories_segments":[],"categories_sizes":[],"default_left":[0,0,0,0,0,0,0,0,0,0,0,0,0,0,0,0,0,0,0,0,0,0,0,0,0,0,0,0,0,0,0,0,0,0,0,0,0,0,0,0,0,0,0,0,0,0,0],"id":30,"left_children":[1,-1,3,5,7,9,11,13,15,17,19,21,23,25,-1,27,29,31,-1,-1,-1,-1,33,35,37,-1,-1,39,41,43,45,-1,-1,-1,-1,-1,-1,-1,-1,-1,-1,-1,-1,-1,-1,-1,-1],"loss_changes":[1.0161842E1,0E0,7.623315E-1,6.767375E-1,2.040019E0,3.1825738E0,1.4700307E0,1.2834725E0,1.4209477E0,2.263226E0,5.540732E0,5.1657E-1,5.076045E-1,9.9876404E-2,0E0,3.3653913E0,1.9905012E0,2.2511904E0,0E0,0E0,0E0,0E0,1.060462E-1,6.283463E-1,5.705898E-1,0E0,0E0,6.660101E-1,2.1049018E0,1.6947035E0,5.4362786E-1,0E0,0E0,0E0,0E0,0E0,0E0,0E0,0E0,0E0,0E0,0E0,0E0,0E0,0E0,0E0,0E0],"parents":[2147483647,0,0,2,2,3,3,4,4,5,5,6,6,7,7,8,8,9,9,10,10,11,11,12,12,13,13,15,15,16,16,17,17,22,22,23,23,24,24,27,27,28,28,29,29,30,30],"right_children":[2,-1,4,6,8,10,12,14,16,18,20,22,24,26,-1,28,30,32,-1,-1,-1,-1,34,36,38,-1,-1,40,42,44,46,-1,-1,-1,-1,-1,-1,-1,-1,-1,-1,-1,-1,-1,-1,-1,-1],"split_conditions":[6.77E1,-4.9876135E-2,2.51E1,1.87E1,9.4E0,1.6E1,6E0,1.24E2,2.58E1,1.52E1,2.29E1,2.86E1,2.43E1,5E0,1.2233661E-2,1.03E1,1.32E1,2.47E1,5.782808E-2,5.1273674E-2,-1.1246385E-1,3.00133E-3,2.44E1,2.31E1,2.24E1,-2.187775E-2,-7.324412E-2,1.24E2,2.56E1,1.25E1,2.64E1,-2.3500197E-2,3.0745476E-2,-1.6300755E-2,-7.631294E-2,-2.003595E-2,5.0023437E-2,4.0007956E-2,-9.952353E-3,4.265779E-2,-1.6618129E-2,-2.5260603E-2,-8.5894704E-2,-5.3213816E-3,-7.609018E-2,4.9686432E-2,-1.3172689E-2],"split_indices":[1,0,0,2,2,2,3,3,0,2,0,2,0,3,0,2,2,0,0,0,0,0,0,0,2,0,0,3,0,2,0,0,0,0,0,0,0,0,0,0,0,0,0,0,0,0,0],"split_type":[0,0,0,0,0,0,0,0,0,0,0,0,0,0,0,0,0,0,0,0,0,0,0,0,0,0,0,0,0,0,0,0,0,0,0,0,0,0,0,0,0,0,0,0,0,0,0],"sum_hessian":[4.2421005E2,2.6307632E2,1.6113373E2,7.8475266E1,8.265846E1,5.7675476E1,2.0799788E1,1.423318E1,6.8425285E1,4.91686E1,8.506878E0,4.2985797E0,1.6501207E1,1.2280716E1,1.9524635E0,3.338042E1,3.504486E1,4.5095364E1,4.0732346E0,2.2059228E0,6.300955E0,1.6501987E0,2.648381E0,6.574104E0,9.927104E0,1.4983752E0,1.0782341E1,7.342759E0,2.6037663E1,2.732244E1,7.7224236E0,3.639371E1,8.7016535E0,1.0992063E0,1.5491747E0,1.0126408E0,5.561463E0,2.0909293E0,7.8361745E0,5.260013E0,2.0827463E0,1.740003E1,8.637632E0,2.4356277E1,2.966161E0,6.4801354E0,1.2422881E0],"tree_param":{"num_deleted":"0","num_feature":"4","num_nodes":"47","size_leaf_vector":"1"}},{"base_weights":[5.9543125E-2,4.2225206E-1,-7.050637E-1,5.1339585E-2,-5.764586E-1,-7.063072E-2,-4.8478577E-2,-2.1016571E-1,-7.058835E-2,-2.1630204E-1,2.9614253E-2,-1.8688445E-1,-4.0491638E-1,-2.2574825E-2,8.17017E-5,-6.6137314E-2,-1.7099401E-2],"categories":[],"categories_nodes":[],"categories_segments":[],"categories_sizes":[],"default_left":[0,0,0,0,0,0,0,0,0,0,0,0,0,0,0,0,0],"id":31,"left_children":[1,3,5,-1,7,-1,-1,9,-1,11,-1,13,15,-1,-1,-1,-1],"loss_changes":[2.4935625E3,5.554016E2,4.5007324E-1,0E0,2.405162E1,0E0,0E0,4.8255062E-1,0E0,6.6597795E-1,0E0,8.572316E-1,9.1739583E-1,0E0,0E0,0E0,0E0],"parents":[2147483647,0,0,1,1,2,2,4,4,7,7,9,9,11,11,12,12],"right_children":[2,4,6,-1,8,-1,-1,10,-1,12,-1,14,16,-1,-1,-1,-1],"split_conditions":[2.01E1,3.39E1,6.77E1,5.1339585E-2,3.56E1,-7.063072E-2,-4.8478577E-2,1.22E1,-7.058835E-2,2.3E0,2.9614253E-2,6E-1,6E0,-2.2574825E-2,8.17017E-5,-6.6137314E-2,-1.7099401E-2],"split_indices":[1,2,1,0,2,0,0,1,0,1,0,1,3,0,0,0,0],"split_type":[0,0,0,0,0,0,0,0,0,0,0,0,0,0,0,0,0],"sum_hessian":[8.989254E3,6.097304E3,2.8919497E3,5.5878364E3,5.0946805E2,2.8735208E3,1.8428938E1,1.3369997E2,3.7576807E2,1.326649E2,1.0350764E0,1.1648753E2,1.6177362E1,9.633795E1,2.0149578E1,6.845308E0,9.332055E0],"tree_param":{"num_deleted":"0","num_feature":"4","num_nodes":"17","size_leaf_vector":"1"}},{"base_weights":[-4.1925166E-2,-4.179151E-1,6.8603796E-1,-5.1286913E-2,5.825763E-1,7.0913695E-2,2.4868743E-1,2.200356E-1,7.087275E-2,2.742293E-1,6.340131E-2,2.2621311E-1,-2.9355688E-2,2.3981053E-1,1.03504136E-1,-2.523241E-1,2.414312E-1,1.9654606E-1,4.1552553E-1,2.5938642E-1,-4.3604624E-2,-4.473371E-2,1.7547281E-2,4.5232385E-1,-2.2791618E-1,2.3554549E-2,7.2951854E-4,6.7251265E-2,1.7961167E-2,2.3556115E-2,5.6041297E-2,2.0051323E-2,-1.0402472E-2,1.983538E-2,6.311223E-2,-3.994172E-2,1.7547728E-2],"categories":[],"categories_nodes":[],"categories_segments":[],"categories_sizes":[],"default_left":[0,0,0,0,0,0,0,0,0,0,0,0,0,0,0,0,0,0,0,0,0,0,0,0,0,0,0,0,0,0,0,0,0,0,0,0,0],"id":32,"left_children":[1,3,5,-1,7,-1,9,11,-1,13,15,17,-1,19,-1,21,23,25,27,29,-1,-1,31,33,35,-1,-1,-1,-1,-1,-1,-1,-1,-1,-1,-1,-1],"loss_changes":[2.446201E3,5.6016833E2,3.057434E1,0E0,2.3228592E1,0E0,7.1257305E-1,4.8977137E-1,0E0,3.2935991E0,1.1843703E0,6.6203403E-1,0E0,1.8423638E0,0E0,4.128575E-1,1.4187183E0,8.5721207E-1,9.124255E-1,7.8350353E-1,0E0,0E0,1.14069074E-1,3.064716E-1,4.011745E-1,0E0,0E0,0E0,0E0,0E0,0E0,0E0,0E0,0E0,0E0,0E0,0E0],"parents":[2147483647,0,0,1,1,2,2,4,4,6,6,7,7,9,9,10,10,11,11,13,13,15,15,16,16,17,17,18,18,19,19,22,22,23,23,24,24],"right_children":[2,4,6,-1,8,-1,10,12,-1,14,16,18,-1,20,-1,22,24,26,28,30,-1,-1,32,34,36,-1,-1,-1,-1,-1,-1,-1,-1,-1,-1,-1,-1],"split_conditions":[2.01E1,3.39E1,6.77E1,-5.1286913E-2,3.56E1,7.0913695E-2,2.28E1,1.22E1,7.087275E-2,2.24E1,2.47E1,2.3E0,-2.9355688E-2,2.02E1,1.03504136E-1,3.02E1,2.55E1,6E-1,6E0,1.72E1,-4.3604624E-2,-4.473371E-2,6E0,2.79E1,2.64E1,2.3554549E-2,7.2951854E-4,6.7251265E-2,1.7961167E-2,2.3556115E-2,5.6041297E-2,2.0051323E-2,-1.0402472E-2,1.983538E-2,6.311223E-2,-3.994172E-2,1.7547728E-2],"split_indices":[1,2,1,0,2,0,2,1,0,2,0,1,0,2,0,2,0,1,3,2,0,0,3,2,0,0,0,0,0,0,0,0,0,0,0,0,0],"split_type":[0,0,0,0,0,0,0,0,0,0,0,0,0,0,0,0,0,0,0,0,0,0,0,0,0,0,0,0,0,0,0,0,0,0,0,0,0],"sum_hessian":[8.935256E3,5.892322E3,3.0429338E3,5.382016E3,5.1030576E2,2.889692E3,1.5324211E2,1.3243896E2,3.778668E2,1.3425491E2,1.8987196E1,1.3141782E2,1.0211539E0,1.2970244E2,4.5524716E0,6.6956124E0,1.2291584E1,1.1537558E2,1.6042234E1,1.2665028E2,3.0521607E0,3.505148E0,3.1904645E0,8.505889E0,3.7856946E0,9.545939E1,1.9916185E1,6.7924128E0,9.249822E0,1.1901328E2,7.6369953E0,1.0144217E0,2.1760428E0,4.385698E0,4.1201906E0,2.6632726E0,1.122422E0],"tree_param":{"num_deleted":"0","num_feature":"4","num_nodes":"37","size_leaf_vector":"1"}},{"base_weights":[-3.6264676E-1,-4.9851824E-2,-1.6015194E-1,-9.10971E-2,-2.2447224E-1,-5.396344E-2,-7.3153324E-2,-5.532136E-1,-1.5068348E-1,-1.2854354E-1,7.169785E-2,-6.645318E-1,1.2381344E-2,1.3285674E-1,-2.122248E-1,-6.62924E-2,-9.7861744E-2,2.21029E-1,-2.711837E-1,-2.0609885E-2,-7.063487E-2,-2.3106991E-1,3.7230825E-1,-7.999046E-2,-1.5952723E-1,4.8538364E-2,-1.036781E-2,9.036882E-3,4.860362E-2,-9.288917E-2,2.3576664E-3,4.7026794E-2,-7.379954E-2,5.929054E-2,-4.6416804E-2,-3.532889E-2,1.1287026E-2],"categories":[],"categories_nodes":[],"categories_segments":[],"categories_sizes":[],"default_left":[0,0,0,0,0,0,0,0,0,0,0,0,0,0,0,0,0,0,0,0,0,0,0,0,0,0,0,0,0,0,0,0,0,0,0,0,0],"id":33,"left_children":[1,-1,3,5,7,-1,9,11,13,15,17,19,-1,21,23,25,-1,27,29,-1,-1,31,33,-1,35,-1,-1,-1,-1,-1,-1,-1,-1,-1,-1,-1,-1],"loss_changes":[1.0985744E1,0E0,7.0342016E-1,6.0663164E-1,1.9468994E0,0E0,6.3781357E-1,1.2103667E0,1.2449133E0,2.9531627E0,1.2024717E0,1.038599E-1,0E0,1.2232618E0,1.6586401E0,1.1684643E0,0E0,5.1338243E-1,1.4213789E0,0E0,0E0,2.4076984E0,1.7983043E0,0E0,2.8995433E0,0E0,0E0,0E0,0E0,0E0,0E0,0E0,0E0,0E0,0E0,0E0,0E0],"parents":[2147483647,0,0,2,2,3,3,4,4,6,6,7,7,8,8,9,9,10,10,11,11,13,13,14,14,15,15,17,17,18,18,21,21,22,22,24,24],"right_children":[2,-1,4,6,8,-1,10,12,14,16,18,20,-1,22,24,26,-1,28,30,-1,-1,32,34,-1,36,-1,-1,-1,-1,-1,-1,-1,-1,-1,-1,-1,-1],"split_conditions":[6.77E1,-4.9851824E-2,2.51E1,5E0,9.4E0,-5.396344E-2,1.78E1,1.24E2,9.9E0,1.72E1,3.02E1,5E0,1.2381344E-2,9.5E0,1.02E1,8E0,-9.7861744E-2,2.55E1,3.1E1,-2.0609885E-2,-7.063487E-2,2.57E1,2.6E1,-7.999046E-2,2.59E1,4.8538364E-2,-1.036781E-2,9.036882E-3,4.860362E-2,-9.288917E-2,2.3576664E-3,4.7026794E-2,-7.379954E-2,5.929054E-2,-4.6416804E-2,-3.532889E-2,1.1287026E-2],"split_indices":[1,0,0,3,2,0,2,3,2,2,2,3,0,2,2,3,0,2,2,0,0,0,3,0,0,0,0,0,0,0,0,0,0,0,0,0,0],"split_type":[0,0,0,0,0,0,0,0,0,0,0,0,0,0,0,0,0,0,0,0,0,0,0,0,0,0,0,0,0,0,0,0,0,0,0,0,0],"sum_hessian":[4.01191E2,2.3921733E2,1.619737E2,7.927724E1,8.269646E1,1.931145E0,7.734609E1,1.3968255E1,6.87282E1,5.603227E1,2.1313822E1,1.201172E1,1.9565359E0,1.205022E1,5.6677982E1,5.321342E1,2.818849E0,1.50950365E1,6.2187843E0,1.499667E0,1.0512053E1,4.7960386E0,7.254181E0,3.4972894E0,5.3180695E1,2.6167428E0,5.059668E1,1.1008411E1,4.086625E0,1.2587504E0,4.960034E0,2.0425117E0,2.753527E0,5.97075E0,1.2834309E0,3.0902313E1,2.2278381E1],"tree_param":{"num_deleted":"0","num_feature":"4","num_nodes":"37","size_leaf_vector":"1"}},{"base_weights":[5.8937516E-2,4.1915685E-1,-6.780298E-1,5.120718E-2,-5.414217E-1,-6.791213E-2,-4.8315447E-2,-1.8512851E-1,-6.7851625E-2,-1.2633117E-1,-2.5218114E-1,-3.529999E-2,-1.860859E-1,2.0659616E-2,-3.0831584E-1,1.5421941E-2,-1.1604912E-2,-2.0409837E-2,2.9882008E-2,-3.3951934E-2,2.4557231E-2,-5.7711042E-2,-1.859853E-2],"categories":[],"categories_nodes":[],"categories_segments":[],"categories_sizes":[],"default_left":[0,0,0,0,0,0,0,0,0,0,0,0,0,0,0,0,0,0,0,0,0,0,0],"id":34,"left_children":[1,3,5,-1,7,-1,-1,9,-1,11,13,15,17,19,21,-1,-1,-1,-1,-1,-1,-1,-1],"loss_changes":[2.1974526E3,4.965069E2,2.5E-1,0E0,2.3850342E1,0E0,0E0,5.1128054E-1,0E0,4.0359712E-1,9.767804E-1,4.9408215E-1,4.5655406E-1,1.035119E0,1.622622E0,0E0,0E0,0E0,0E0,0E0,0E0,0E0,0E0],"parents":[2147483647,0,0,1,1,2,2,4,4,7,7,9,9,10,10,11,11,12,12,13,13,14,14],"right_children":[2,4,6,-1,8,-1,-1,10,-1,12,14,16,18,20,22,-1,-1,-1,-1,-1,-1,-1,-1],"split_conditions":[2.01E1,3.39E1,6.77E1,5.120718E-2,3.56E1,-6.791213E-2,-4.8315447E-2,2E-1,-6.7851625E-2,2.86E1,2.75E1,6E0,3.03E1,2.66E1,2.81E1,1.5421941E-2,-1.1604912E-2,-2.0409837E-2,2.9882008E-2,-3.3951934E-2,2.4557231E-2,-5.7711042E-2,-1.859853E-2],"split_indices":[1,2,1,0,2,0,0,1,0,0,0,3,0,0,0,0,0,0,0,0,0,0,0],"split_type":[0,0,0,0,0,0,0,0,0,0,0,0,0,0,0,0,0,0,0,0,0,0,0],"sum_hessian":[8.275527E3,5.5588633E3,2.7166636E3,5.069014E3,4.898493E2,2.6990605E3,1.760305E1,1.3676445E2,3.5308487E2,7.4404465E1,6.235999E1,3.0116037E1,4.4288425E1,1.0748629E1,5.1611362E1,8.726039E0,2.1389997E1,4.326055E1,1.0278736E0,3.9359581E0,6.81267E0,1.4979521E1,3.663184E1],"tree_param":{"num_deleted":"0","num_feature":"4","num_nodes":"23","size_leaf_vector":"1"}},{"base_weights":[-4.1476693E-2,-4.1477644E-1,6.5702385E-1,-5.1159628E-2,5.4715616E-1,6.8153284E-2,2.2527565E-1,1.9414666E-1,6.809422E-2,1.5385251E-1,2.8902024E-1,1.34665E-1,2.6187837E-1,2.059231E-1,2.1198012E-3,5.99361E-1,2.142942E-1,4.289063E-2,1.946739E-1,-1.2768602E-2,3.1794363E-1,1.0541098E-1,6.896459E-1,4.4491872E-1,-1.3978833E-1,7.0115095E-1,-8.81287E-3,-8.490433E-2,2.777919E-1,-1.4878734E-2,1.2429304E-2,2.1278169E-2,-2.9635115E-2,3.4953486E-2,-2.4057137E-2,5.8837146E-2,1.9456843E-2,1.7460711E-2,-5.4716397E-2,-4.874449E-2,1.09227695E-1,-4.1641193E-4,6.4083E-2,-3.4802057E-2,1.2345437E-3,2.3466071E-2,7.4019305E-2,2.8464539E-2,-3.3760812E-2,8.4563315E-2,2.2356799E-2],"categories":[],"categories_nodes":[],"categories_segments":[],"categories_sizes":[],"default_left":[0,0,0,0,0,0,0,0,0,0,0,0,0,0,0,0,0,0,0,0,0,0,0,0,0,0,0,0,0,0,0,0,0,0,0,0,0,0,0,0,0,0,0,0,0,0,0,0,0,0,0],"id":35,"left_children":[1,3,5,-1,7,-1,9,11,-1,13,15,17,19,21,23,25,27,29,31,33,35,37,39,41,43,45,-1,47,49,-1,-1,-1,-1,-1,-1,-1,-1,-1,-1,-1,-1,-1,-1,-1,-1,-1,-1,-1,-1,-1,-1],"loss_changes":[2.149954E3,5.007301E2,3.0234863E1,0E0,2.3097595E1,0E0,6.6467905E-1,5.149822E-1,0E0,5.968139E-1,1.75383E0,4.034667E-1,9.71097E-1,2.6631238E0,1.3392969E0,1.1250906E0,1.2959273E0,4.9978864E-1,4.6255183E-1,1.0421538E0,1.6269279E0,2.2525902E0,5.034886E0,4.576795E-1,5.1599073E-1,6.938362E-2,0E0,1.2625531E0,1.5192151E0,0E0,0E0,0E0,0E0,0E0,0E0,0E0,0E0,0E0,0E0,0E0,0E0,0E0,0E0,0E0,0E0,0E0,0E0,0E0,0E0,0E0,0E0],"parents":[2147483647,0,0,1,1,2,2,4,4,6,6,7,7,9,9,10,10,11,11,12,12,13,13,14,14,15,15,16,16,17,17,18,18,19,19,20,20,21,21,22,22,23,23,24,24,25,25,27,27,28,28],"right_children":[2,4,6,-1,8,-1,10,12,-1,14,16,18,20,22,24,26,28,30,32,34,36,38,40,42,44,46,-1,48,50,-1,-1,-1,-1,-1,-1,-1,-1,-1,-1,-1,-1,-1,-1,-1,-1,-1,-1,-1,-1,-1,-1],"split_conditions":[2.01E1,3.39E1,6.77E1,-5.1159628E-2,3.56E1,6.8153284E-2,2.51E1,2E-1,6.809422E-2,1.87E1,9.4E0,2.86E1,2.75E1,1.6E1,6E0,1.24E2,9.9E0,6E0,3.03E1,2.66E1,2.81E1,1.52E1,2.29E1,2.86E1,2.43E1,5E0,-8.81287E-3,9.5E0,1.02E1,-1.4878734E-2,1.2429304E-2,2.1278169E-2,-2.9635115E-2,3.4953486E-2,-2.4057137E-2,5.8837146E-2,1.9456843E-2,1.7460711E-2,-5.4716397E-2,-4.874449E-2,1.09227695E-1,-4.1641193E-4,6.4083E-2,-3.4802057E-2,1.2345437E-3,2.3466071E-2,7.4019305E-2,2.8464539E-2,-3.3760812E-2,8.4563315E-2,2.2356799E-2],"split_indices":[1,2,1,0,2,0,0,1,0,2,2,0,0,2,3,3,2,3,0,0,0,2,0,2,0,3,0,2,2,0,0,0,0,0,0,0,0,0,0,0,0,0,0,0,0,0,0,0,0,0,0],"split_type":[0,0,0,0,0,0,0,0,0,0,0,0,0,0,0,0,0,0,0,0,0,0,0,0,0,0,0,0,0,0,0,0,0,0,0,0,0,0,0,0,0,0,0,0,0,0,0,0,0,0,0],"sum_hessian":[8.243222E3,5.372436E3,2.8707856E3,4.881568E3,4.9086816E2,2.7160269E3,1.5475894E2,1.355789E2,3.5528928E2,7.459356E1,8.016538E1,7.3776726E1,6.1802177E1,5.5269432E1,1.9324127E1,1.4194438E1,6.597095E1,2.9846241E1,4.393048E1,1.0608171E1,5.1194008E1,4.676923E1,8.5002E0,4.1717305E0,1.5152396E1,1.2346536E1,1.8479025E0,1.1490596E1,5.448035E1,8.650094E0,2.1196146E1,4.291456E1,1.0159241E0,3.8888566E0,6.7193146E0,1.485787E1,3.6336136E1,4.2947685E1,3.821547E0,2.1127965E0,6.3874035E0,1.5644115E0,2.6073189E0,5.853228E0,9.299169E0,1.4949343E0,1.0851601E1,4.6151214E0,6.875474E0,3.476689E0,5.1003662E1],"tree_param":{"num_deleted":"0","num_feature":"4","num_nodes":"51","size_leaf_vector":"1"}},{"base_weights":[-3.4830683E-1,-4.9825948E-2,-1.4524086E-1,-8.206187E-2,-2.0455037E-1,-4.9554493E-2,-6.530193E-2,-5.217453E-1,-1.3593721E-1,-9.909711E-2,1.3141522E-1,-6.2950146E-1,1.1659038E-2,-2.6108703E-1,-9.846125E-3,-1.7179957E-1,1.0649818E-1,3.0494243E-1,-3.9919472E-1,-1.9386226E-2,-6.7109376E-2,2.5253978E-1,-4.043421E-1,-2.527975E-1,1.901582E-1,-1.0963488E-2,-8.7805554E-2,-3.8628694E-2,2.0973472E-2,-1.0162465E-2,3.6841925E-2,-5.9246137E-3,-5.6697626E-2,4.126832E-2,-1.3974518E-2,-1.9824682E-2,-7.569926E-2,2.3176607E-2,-4.6774678E-2,5.1411778E-2,4.7117886E-3],"categories":[],"categories_nodes":[],"categories_segments":[],"categories_sizes":[],"default_left":[0,0,0,0,0,0,0,0,0,0,0,0,0,0,0,0,0,0,0,0,0,0,0,0,0,0,0,0,0,0,0,0,0,0,0,0,0,0,0,0,0],"id":36,"left_children":[1,-1,3,5,7,-1,9,11,13,15,17,19,-1,21,23,25,27,29,31,-1,-1,33,35,37,39,-1,-1,-1,-1,-1,-1,-1,-1,-1,-1,-1,-1,-1,-1,-1,-1],"loss_changes":[1.1511936E1,0E0,5.9402823E-1,5.261923E-1,1.7443769E0,0E0,5.356413E-1,1.0694923E0,1.1009121E0,1.0295804E0,1.2224998E0,9.722662E-2,0E0,2.6815054E0,1.7911489E0,2.1149578E0,1.011592E0,2.8456897E-1,1.5915322E-1,0E0,0E0,5.7661885E-1,1.87007E0,1.8401551E0,9.139519E-1,0E0,0E0,0E0,0E0,0E0,0E0,0E0,0E0,0E0,0E0,0E0,0E0,0E0,0E0,0E0,0E0],"parents":[2147483647,0,0,2,2,3,3,4,4,6,6,7,7,8,8,9,9,10,10,11,11,13,13,14,14,15,15,16,16,17,17,18,18,21,21,22,22,23,23,24,24],"right_children":[2,-1,4,6,8,-1,10,12,14,16,18,20,-1,22,24,26,28,30,32,-1,-1,34,36,38,40,-1,-1,-1,-1,-1,-1,-1,-1,-1,-1,-1,-1,-1,-1,-1,-1],"split_conditions":[6.77E1,-4.9825948E-2,2.51E1,5E0,9.4E0,-4.9554493E-2,2.48E1,1.24E2,2.58E1,1.78E1,2.26E1,5E0,1.1659038E-2,1.03E1,1.1E1,1.72E1,6E0,8.5E0,6E0,-1.9386226E-2,-6.7109376E-2,1.24E2,2.56E1,2.6E1,1.14E1,-1.0963488E-2,-8.7805554E-2,-3.8628694E-2,2.0973472E-2,-1.0162465E-2,3.6841925E-2,-5.9246137E-3,-5.6697626E-2,4.126832E-2,-1.3974518E-2,-1.9824682E-2,-7.569926E-2,2.3176607E-2,-4.6774678E-2,5.1411778E-2,4.7117886E-3],"split_indices":[1,0,0,3,2,0,0,3,0,2,2,3,0,2,2,2,3,2,3,0,0,3,0,0,2,0,0,0,0,0,0,0,0,0,0,0,0,0,0,0,0],"split_type":[0,0,0,0,0,0,0,0,0,0,0,0,0,0,0,0,0,0,0,0,0,0,0,0,0,0,0,0,0,0,0,0,0,0,0,0,0,0,0,0,0],"sum_hessian":[3.7943344E2,2.1742429E2,1.6200916E2,7.959975E1,8.24094E1,1.987951E0,7.76118E1,1.3481408E1,6.892799E1,6.66567E1,1.0955094E1,1.1546163E1,1.9352455E0,3.4055798E1,3.4872192E1,4.9364754E1,1.729195E1,8.575814E0,2.3792803E0,1.4996611E0,1.0046501E1,7.2606363E0,2.6795162E1,1.5626384E1,1.9245808E1,4.6432957E1,2.9317973E0,2.5202284E0,1.4771721E1,1.0769573E0,7.498857E0,1.2333854E0,1.1458948E0,5.118927E0,2.1417096E0,1.789763E1,8.897531E0,4.7777004E0,1.0848683E1,5.1003203E0,1.4145487E1],"tree_param":{"num_deleted":"0","num_feature":"4","num_nodes":"41","size_leaf_vector":"1"}},{"base_weights":[5.8365215E-2,4.161684E-1,-6.5538996E-1,5.1087778E-2,-5.101079E-1,-6.5635554E-2,-4.8136182E-2,-1.6351198E-1,-6.555789E-2,-1.6914731E-1,3.0012062E-2,-1.11706175E-1,-2.3520581E-1,-8.583619E-3,-3.2881133E-2,-3.6739595E-2,-1.400581E-2],"categories":[],"categories_nodes":[],"categories_segments":[],"categories_sizes":[],"default_left":[0,0,0,0,0,0,0,0,0,0,0,0,0,0,0,0,0],"id":37,"left_children":[1,3,5,-1,7,-1,-1,9,-1,11,-1,13,15,-1,-1,-1,-1],"loss_changes":[1.9430897E3,4.4484875E2,1.11083984E-1,0E0,2.3620735E1,0E0,0E0,4.1774607E-1,0E0,5.027232E-1,0E0,4.0129572E-1,7.5272655E-1,0E0,0E0,0E0,0E0],"parents":[2147483647,0,0,1,1,2,2,4,4,7,7,9,9,11,11,12,12],"right_children":[2,4,6,-1,8,-1,-1,10,-1,12,-1,14,16,-1,-1,-1,-1],"split_conditions":[2.01E1,3.39E1,6.77E1,5.1087778E-2,3.56E1,-6.5635554E-2,-4.8136182E-2,1.22E1,-6.555789E-2,2E-1,3.0012062E-2,2.99E1,6E-1,-8.583619E-3,-3.2881133E-2,-3.6739595E-2,-1.400581E-2],"split_indices":[1,2,1,0,2,0,0,1,0,1,0,0,1,0,0,0,0],"split_type":[0,0,0,0,0,0,0,0,0,0,0,0,0,0,0,0,0],"sum_hessian":[7.6064385E3,5.0668564E3,2.5395818E3,4.597248E3,4.6960858E2,2.5228127E3,1.6769056E1,1.3945953E2,3.3014905E2,1.3841234E2,1.0471939E0,7.5474525E1,6.2937805E1,6.8685425E1,6.789105E0,2.5143816E1,3.779399E1],"tree_param":{"num_deleted":"0","num_feature":"4","num_nodes":"17","size_leaf_vector":"1"}},{"base_weights":[-4.1019905E-2,-4.117429E-1,6.3244057E-1,-5.1044818E-2,5.155419E-1,6.5842725E-2,2.0610303E-1,1.7179583E-1,6.576652E-2,2.4903321E-1,1.1145821E-1,1.7746192E-1,-2.977936E-2,1.71246E-1,5.5224746E-1,-2.0499526E-1,2.4901654E-1,1.1944423E-1,2.44074E-1,2.0624545E-1,-5.8789797E-2,7.7668643E-1,2.73514E-1,2.6627025E-2,-5.5899054E-2,9.246188E-2,1.6154112E-1,9.337934E-3,3.3689756E-2,3.7653368E-2,1.4834193E-2,7.3126345E-3,3.135276E-2,8.364147E-2,2.237069E-2,8.550551E-2,-1.3576421E-2,-3.4443956E-2,9.267093E-2,-2.9772192E-2,3.160661E-2],"categories":[],"categories_nodes":[],"categories_segments":[],"categories_sizes":[],"default_left":[0,0,0,0,0,0,0,0,0,0,0,0,0,0,0,0,0,0,0,0,0,0,0,0,0,0,0,0,0,0,0,0,0,0,0,0,0,0,0,0,0],"id":38,"left_children":[1,3,5,-1,7,-1,9,11,-1,13,15,17,-1,19,21,23,25,27,29,31,-1,33,35,37,-1,-1,39,-1,-1,-1,-1,-1,-1,-1,-1,-1,-1,-1,-1,-1,-1],"loss_changes":[1.8962028E3,4.486015E2,2.9738892E1,0E0,2.2933815E1,0E0,6.076045E-1,4.2360878E-1,0E0,2.4236503E0,2.2539768E0,5.05373E-1,0E0,2.4173477E0,1.1231036E0,1.3170475E0,1.9619255E0,3.9863575E-1,7.4845314E-1,1.1674163E0,0E0,1.8553162E-1,2.7499437E0,3.8443062E0,0E0,0E0,2.4247649E0,0E0,0E0,0E0,0E0,0E0,0E0,0E0,0E0,0E0,0E0,0E0,0E0,0E0,0E0],"parents":[2147483647,0,0,1,1,2,2,4,4,6,6,7,7,9,9,10,10,11,11,13,13,14,14,15,15,16,16,17,17,18,18,19,19,21,21,22,22,23,23,26,26],"right_children":[2,4,6,-1,8,-1,10,12,-1,14,16,18,-1,20,22,24,26,28,30,32,-1,34,36,38,-1,-1,40,-1,-1,-1,-1,-1,-1,-1,-1,-1,-1,-1,-1,-1,-1],"split_conditions":[2.01E1,3.39E1,6.77E1,-5.1044818E-2,3.56E1,6.5842725E-2,1.46E1,1.22E1,6.576652E-2,1.26E1,1.72E1,2E-1,-2.977936E-2,1.23E1,1.32E1,1.61E1,1.78E1,2.99E1,6E-1,2.53E1,-5.8789797E-2,2.7E1,2.44E1,1.6E1,-5.5899054E-2,9.246188E-2,2.43E1,9.337934E-3,3.3689756E-2,3.7653368E-2,1.4834193E-2,7.3126345E-3,3.135276E-2,8.364147E-2,2.237069E-2,8.550551E-2,-1.3576421E-2,-3.4443956E-2,9.267093E-2,-2.9772192E-2,3.160661E-2],"split_indices":[1,2,1,0,2,0,2,1,0,2,2,1,0,2,2,2,2,0,1,0,0,3,0,2,0,0,0,0,0,0,0,0,0,0,0,0,0,0,0,0,0],"split_type":[0,0,0,0,0,0,0,0,0,0,0,0,0,0,0,0,0,0,0,0,0,0,0,0,0,0,0,0,0,0,0,0,0,0,0,0,0,0,0,0,0],"sum_hessian":[7.592875E3,4.89738E3,2.695495E3,4.4266343E3,4.7074554E2,2.5401223E3,1.5537292E2,1.3834544E2,3.3240012E2,1.0576671E2,4.9606224E1,1.3731073E2,1.0347077E0,8.541813E1,2.0348576E1,1.4881358E1,3.472487E1,7.488267E1,6.242807E1,8.234981E1,3.0683236E0,1.0282509E1,1.0066066E1,9.554527E0,5.326831E0,2.8836236E0,3.1841244E1,6.814405E1,6.738616E0,2.4959568E1,3.7468502E1,3.75001E1,4.4849705E1,8.817552E0,1.4649581E0,3.7080874E0,6.3579783E0,7.2025423E0,2.3519847E0,7.7829337E0,2.405831E1],"tree_param":{"num_deleted":"0","num_feature":"4","num_nodes":"41","size_leaf_vector":"1"}},{"base_weights":[-3.3420858E-1,-4.979831E-2,-1.3217579E-1,1.3639995E-1,-1.4475805E-1,4.3108113E-2,-1.8204315E-1,-2.6692885E-1,-1.0092203E-1,-6.561516E-2,1.6306315E-1,-4.727422E-1,-3.366443E-2,2.4874102E-1,-1.3685504E-1,3.338883E-2,-1.032384E-2,3.1298988E-2,-5.304517E-1,-3.747944E-1,1.229708E-1,5.8198508E-2,-7.0832855E-1,-6.523397E-2,-1.0779114E-1,-6.1731067E-2,-2.075568E-2,-6.304283E-2,-1.367857E-2,2.6010627E-2,-1.3782767E-2,-1.4475653E-2,-9.111957E-2,3.3717792E-2,-1.5283075E-2],"categories":[],"categories_nodes":[],"categories_segments":[],"categories_sizes":[],"default_left":[0,0,0,0,0,0,0,0,0,0,0,0,0,0,0,0,0,0,0,0,0,0,0,0,0,0,0,0,0,0,0,0,0,0,0],"id":39,"left_children":[1,-1,3,5,7,-1,9,11,13,-1,15,17,19,21,23,-1,-1,-1,25,27,29,-1,31,-1,33,-1,-1,-1,-1,-1,-1,-1,-1,-1,-1],"loss_changes":[1.1850502E1,0E0,5.692153E-1,8.0961764E-1,8.0748844E-1,0E0,8.3473825E-1,1.9301267E0,1.4949483E0,0E0,1.8800527E-1,1.1390195E0,1.1188648E0,3.9812129E0,1.5190167E0,0E0,0E0,0E0,4.4291925E-1,3.1319082E-1,5.548751E-1,0E0,2.5008583E-1,0E0,2.0881007E0,0E0,0E0,0E0,0E0,0E0,0E0,0E0,0E0,0E0,0E0],"parents":[2147483647,0,0,2,2,3,3,4,4,6,6,7,7,8,8,10,10,11,11,12,12,13,13,14,14,18,18,19,19,20,20,22,22,24,24],"right_children":[2,-1,4,6,8,-1,10,12,14,-1,16,18,20,22,24,-1,-1,-1,26,28,30,-1,32,-1,34,-1,-1,-1,-1,-1,-1,-1,-1,-1,-1],"split_conditions":[6.77E1,-4.979831E-2,2.14E1,7.6E0,9.5E0,4.3108113E-2,8.4E0,1.24E2,1.01E1,-6.561516E-2,1.17E1,2.42E1,6E0,1.24E2,1.02E1,3.338883E-2,-1.032384E-2,3.1298988E-2,9.4E0,2.27E1,8.5E0,5.8198508E-2,2.28E1,-6.523397E-2,1.06E1,-6.1731067E-2,-2.075568E-2,-6.304283E-2,-1.367857E-2,2.6010627E-2,-1.3782767E-2,-1.4475653E-2,-9.111957E-2,3.3717792E-2,-1.5283075E-2],"split_indices":[1,0,0,2,2,0,2,3,2,0,2,0,2,3,2,0,0,0,2,0,2,0,0,0,2,0,0,0,0,0,0,0,0,0,0],"split_type":[0,0,0,0,0,0,0,0,0,0,0,0,0,0,0,0,0,0,0,0,0,0,0,0,0,0,0,0,0,0,0,0,0,0,0],"sum_hessian":[3.5914224E2,1.975427E2,1.6159955E2,6.79144E0,1.548081E2,3.343611E0,3.4478288E0,3.953498E1,1.15273125E2,1.0727617E0,2.3750672E0,2.045794E1,1.9077042E1,1.0190199E1,1.05082924E2,1.2922966E0,1.0827706E0,1.0970976E0,1.9360842E1,5.564828E0,1.3512215E1,7.84911E0,2.3410888E0,4.463959E0,1.00618965E2,1.4538244E1,4.8225975E0,1.8881233E0,3.676705E0,8.857392E0,4.6548214E0,1.0732145E0,1.2678741E0,8.652298E0,9.196667E1],"tree_param":{"num_deleted":"0","num_feature":"4","num_nodes":"35","size_leaf_vector":"1"}},{"base_weights":[5.7816498E-2,4.1324097E-1,-6.3623583E-1,5.0980013E-2,-4.8164704E-1,-6.370963E-2,-4.7951408E-2,-1.4481398E-1,-6.36152E-2,-1.5015884E-1,2.9965863E-2,-1.2549122E-1,-3.339629E-1,-2.0449946E-2,-8.637097E-3,-6.1425813E-2,-1.396911E-2],"categories":[],"categories_nodes":[],"categories_segments":[],"categories_sizes":[],"default_left":[0,0,0,0,0,0,0,0,0,0,0,0,0,0,0,0,0],"id":40,"left_children":[1,3,5,-1,7,-1,-1,9,-1,11,-1,13,15,-1,-1,-1,-1],"loss_changes":[1.722902E3,3.9935626E2,1.3366699E-2,0E0,2.3345222E1,0E0,0E0,3.8450146E-1,0E0,6.01372E-1,0E0,3.7392294E-1,7.955791E-1,0E0,0E0,0E0,0E0],"parents":[2147483647,0,0,1,1,2,2,4,4,7,7,9,9,11,11,12,12],"right_children":[2,4,6,-1,8,-1,-1,10,-1,12,-1,14,16,-1,-1,-1,-1],"split_conditions":[2.01E1,3.39E1,6.77E1,5.0980013E-2,3.56E1,-6.370963E-2,-4.7951408E-2,3.03E1,-6.36152E-2,2.96E1,2.9965863E-2,2.81E1,2.98E1,-2.0449946E-2,-8.637097E-3,-6.1425813E-2,-1.396911E-2],"split_indices":[1,2,1,0,2,0,0,0,0,0,0,0,0,0,0,0,0],"split_type":[0,0,0,0,0,0,0,0,0,0,0,0,0,0,0,0,0],"sum_hessian":[6.982204E3,4.617821E3,2.3643833E3,4.1684697E3,4.493511E2,2.3484243E3,1.595911E1,1.4191106E2,3.0744003E2,1.4087914E2,1.0319296E0,1.2569309E2,1.5186036E1,4.0225395E1,8.54677E1,5.331664E0,9.854372E0],"tree_param":{"num_deleted":"0","num_feature":"4","num_nodes":"17","size_leaf_vector":"1"}},{"base_weights":[-4.0563922E-2,-4.0876842E-1,6.1124325E-1,-5.094117E-2,4.868455E-1,6.38888E-2,1.8928389E-1,1.5246142E-1,6.379589E-2,-9.451988E-2,2.0171192E-1,1.5783495E-1,-2.9742554E-2,-4.157361E-2,2.3413636E-1,3.2534128E-1,1.5616032E-1,1.330729E-1,3.4141126E-1,5.955196E-2,-1.0465501E-2,5.1930726E-1,8.6927764E-2,-2.1237081E-1,1.9301063E-1,2.1294573E-2,9.348229E-3,6.204961E-2,1.4640706E-2,-2.9853655E-2,5.7464864E-2,4.403898E-2,-8.004849E-3,-5.6464713E-2,7.69385E-2,6.97404E-2,1.6300261E-2],"categories":[],"categories_nodes":[],"categories_segments":[],"categories_sizes":[],"default_left":[0,0,0,0,0,0,0,0,0,0,0,0,0,0,0,0,0,0,0,0,0,0,0,0,0,0,0,0,0,0,0,0,0,0,0,0,0],"id":41,"left_children":[1,3,5,-1,7,-1,9,11,-1,13,15,17,-1,-1,19,21,23,25,27,-1,-1,29,31,33,35,-1,-1,-1,-1,-1,-1,-1,-1,-1,-1,-1,-1],"loss_changes":[1.6768898E3,4.0269574E2,2.9300781E1,0E0,2.2719688E1,0E0,5.710778E-1,3.8989258E-1,0E0,8.6239135E-1,7.953744E-1,5.947919E-1,0E0,0E0,5.791996E-1,1.7830539E0,1.5582616E0,3.7771082E-1,7.8541124E-1,0E0,0E0,1.1490788E0,1.1528428E0,4.111564E0,1.4315729E0,0E0,0E0,0E0,0E0,0E0,0E0,0E0,0E0,0E0,0E0,0E0,0E0],"parents":[2147483647,0,0,1,1,2,2,4,4,6,6,7,7,9,9,10,10,11,11,14,14,15,15,16,16,17,17,18,18,21,21,22,22,23,23,24,24],"right_children":[2,4,6,-1,8,-1,10,12,-1,14,16,18,-1,-1,20,22,24,26,28,-1,-1,30,32,34,36,-1,-1,-1,-1,-1,-1,-1,-1,-1,-1,-1,-1],"split_conditions":[2.01E1,3.39E1,6.77E1,-5.094117E-2,3.56E1,6.38888E-2,2.14E1,3.03E1,6.379589E-2,7.6E0,9.5E0,2.96E1,-2.9742554E-2,-4.157361E-2,9.1E0,1.24E2,1.01E1,2.81E1,2.98E1,5.955196E-2,-1.0465501E-2,2.42E1,6E0,1.24E2,1.02E1,2.1294573E-2,9.348229E-3,6.204961E-2,1.4640706E-2,-2.9853655E-2,5.7464864E-2,4.403898E-2,-8.004849E-3,-5.6464713E-2,7.69385E-2,6.97404E-2,1.6300261E-2],"split_indices":[1,2,1,0,2,0,0,0,0,2,2,0,0,0,2,3,2,0,0,0,0,0,2,3,2,0,0,0,0,0,0,0,0,0,0,0,0],"split_type":[0,0,0,0,0,0,0,0,0,0,0,0,0,0,0,0,0,0,0,0,0,0,0,0,0,0,0,0,0,0,0,0,0,0,0,0,0],"sum_hessian":[6.985048E3,4.463819E3,2.521229E3,4.0132656E3,4.5055353E2,2.365724E3,1.5550488E2,1.4086218E2,3.0969135E2,6.2468915E0,1.49258E2,1.3984106E2,1.0211161E0,3.025209E0,3.2216828E0,3.8533592E1,1.107244E2,1.2474014E2,1.5100923E1,1.1922026E0,2.02948E0,2.059773E1,1.7935863E1,9.632182E0,1.01092224E2,3.988822E1,8.485192E1,5.313878E0,9.787045E0,1.0269426E0,1.9570787E1,5.2291493E0,1.2706714E1,7.4012904E0,2.2308917E0,4.4277225E0,9.66645E1],"tree_param":{"num_deleted":"0","num_feature":"4","num_nodes":"37","size_leaf_vector":"1"}},{"base_weights":[-3.1935963E-1,-4.9768668E-2,-1.19443566E-1,-1.6012704E-1,-3.4619108E-2,-8.6417936E-2,-4.5510358E-1,2.5141457E-1,-1.5793318E-1,-1.1911457E-1,6.0745418E-2,-6.958381E-1,-1.905118E-1,3.585281E-2,5.751133E-2,-7.898142E-2,-8.205768E-2,-8.261527E-2,-5.512628E-1,-7.5770676E-2,-1.7273879E-2,-7.490861E-2,1.8008657E-1,3.7658057E-1,-8.244916E-2,3.2199073E-1,-2.183271E-1,-1.4827914E-2,5.323094E-2,-7.813515E-4,-6.769342E-2,5.403725E-2,-8.6249165E-2,-1.3030171E-2,4.6401158E-2,4.059072E-2,-1.5641715E-2,-5.254057E-2,-3.6414166E-3],"categories":[],"categories_nodes":[],"categories_segments":[],"categories_sizes":[],"default_left":[0,0,0,0,0,0,0,0,0,0,0,0,0,0,0,0,0,0,0,0,0,0,0,0,0,0,0,0,0,0,0,0,0,0,0,0,0,0,0],"id":42,"left_children":[1,-1,3,5,7,9,11,13,15,17,-1,19,21,23,-1,-1,25,27,29,-1,-1,-1,31,33,-1,35,37,-1,-1,-1,-1,-1,-1,-1,-1,-1,-1,-1,-1],"loss_changes":[1.2131424E1,0E0,5.5535626E-1,2.34306E0,1.9430373E0,2.0892847E0,1.2478566E0,1.1405742E0,1.7724185E0,1.3067902E0,0E0,2.2415829E-1,2.5571644E0,3.551411E0,0E0,0E0,2.015433E0,3.3187072E0,4.387083E-1,0E0,0E0,0E0,3.4111636E0,4.418496E-1,0E0,4.374073E-1,1.4899148E0,0E0,0E0,0E0,0E0,0E0,0E0,0E0,0E0,0E0,0E0,0E0,0E0],"parents":[2147483647,0,0,2,2,3,3,4,4,5,5,6,6,7,7,8,8,9,9,11,11,12,12,13,13,16,16,17,17,18,18,22,22,23,23,25,25,26,26],"right_children":[2,-1,4,6,8,10,12,14,16,18,-1,20,22,24,-1,-1,26,28,30,-1,-1,-1,32,34,-1,36,38,-1,-1,-1,-1,-1,-1,-1,-1,-1,-1,-1,-1],"split_conditions":[6.77E1,-4.9768668E-2,1.46E1,1.26E1,1.72E1,1.23E1,1.32E1,1.61E1,1.78E1,1.15E1,6.0745418E-2,2.7E1,2.44E1,1.6E1,5.751133E-2,-7.898142E-2,2.43E1,1.1E1,2.32E1,-7.5770676E-2,-1.7273879E-2,-7.490861E-2,1.45E1,2.19E1,-8.244916E-2,3.39E1,2.28E1,-1.4827914E-2,5.323094E-2,-7.813515E-4,-6.769342E-2,5.403725E-2,-8.6249165E-2,-1.3030171E-2,4.6401158E-2,4.059072E-2,-1.5641715E-2,-5.254057E-2,-3.6414166E-3],"split_indices":[1,0,2,2,2,2,2,2,2,2,0,3,0,2,0,0,0,2,0,0,0,0,2,0,0,2,2,0,0,0,0,0,0,0,0,0,0,0,0],"split_type":[0,0,0,0,0,0,0,0,0,0,0,0,0,0,0,0,0,0,0,0,0,0,0,0,0,0,0,0,0,0,0,0,0,0,0,0,0,0,0],"sum_hessian":[3.4095566E2,1.7942096E2,1.615347E2,1.0857314E2,5.2961555E1,8.790124E1,2.0671907E1,1.564148E1,3.7320076E1,8.473661E1,3.1646245E0,9.970529E0,1.0701379E1,1.0055769E1,5.585711E0,2.9921882E0,3.432789E1,7.9235535E1,5.5010724E0,8.514944E0,1.4555849E0,3.8608816E0,6.840497E0,7.605861E0,2.4499078E0,8.3138485E0,2.6014042E1,7.227647E1,6.9590735E0,1.232681E0,4.268391E0,5.441695E0,1.3988019E0,1.0467834E0,6.5590777E0,7.202091E0,1.1117569E0,8.975202E0,1.703884E1],"tree_param":{"num_deleted":"0","num_feature":"4","num_nodes":"39","size_leaf_vector":"1"}},{"base_weights":[5.7285562E-2,4.103568E-1,-6.198902E-2,5.0882675E-2,-4.5563376E-1,-1.287915E-1,-6.195512E-2,-1.3391425E-1,2.9730732E-2,-1.1016435E-1,-2.8846833E-1,-1.2677081E-2,2.063006E-2,-6.507505E-2,-1.3606484E-2],"categories":[],"categories_nodes":[],"categories_segments":[],"categories_sizes":[],"default_left":[0,0,0,0,0,0,0,0,0,0,0,0,0,0,0],"id":43,"left_children":[1,3,-1,-1,5,7,-1,9,-1,11,13,-1,-1,-1,-1],"loss_changes":[1.5311451E3,3.5916986E2,0E0,0E0,2.2972702E1,3.562765E-1,0E0,4.9660087E-1,0E0,6.903869E-1,9.3597853E-1,0E0,0E0,0E0,0E0],"parents":[2147483647,0,0,1,1,4,4,5,5,7,7,9,9,10,10],"right_children":[2,4,-1,-1,6,8,-1,10,-1,12,14,-1,-1,-1,-1],"split_conditions":[2.01E1,3.39E1,-6.198902E-2,5.0882675E-2,3.56E1,1.22E1,-6.195512E-2,2.3E0,2.9730732E-2,8E0,2.9E0,-1.2677081E-2,2.063006E-2,-6.507505E-2,-1.3606484E-2],"split_indices":[1,2,0,0,2,1,0,1,0,3,1,0,0,0,0],"split_type":[0,0,0,0,0,0,0,0,0,0,0,0,0,0,0],"sum_hessian":[6.401955E3,4.2082295E3,2.1937258E3,3.778946E3,4.2928342E2,1.4398032E2,2.853031E2,1.4294746E2,1.0328594E0,1.2539166E2,1.7555801E1,1.1970934E2,5.682317E0,4.2301908E0,1.3325611E1],"tree_param":{"num_deleted":"0","num_feature":"4","num_nodes":"15","size_leaf_vector":"1"}},{"base_weights":[-4.0117912E-2,-4.058349E-1,5.925288E-1,-5.084752E-2,4.6064398E-1,6.222218E-2,1.7307338E-1,1.3588525E-1,6.211256E-2,2.1534105E-1,8.258766E-2,1.410302E-1,-2.9519543E-2,1.4086495E-1,5.046075E-1,-2.1569116E-1,2.1064532E-1,1.17136404E-1,2.9590502E-1,1.7445275E-1,-5.8411844E-2,7.2843677E-1,2.392978E-1,7.403514E-3,-5.5779E-2,8.2553856E-2,1.3169819E-1,1.33788455E-2,-2.0188594E-2,6.563052E-2,1.4291341E-2,1.3747582E-2,5.8518488E-2,7.8819916E-2,1.9797988E-2,7.892719E-2,-1.4682523E-2,-3.4749754E-2,8.6110234E-2,-2.9597757E-2,2.7111227E-2],"categories":[],"categories_nodes":[],"categories_segments":[],"categories_sizes":[],"default_left":[0,0,0,0,0,0,0,0,0,0,0,0,0,0,0,0,0,0,0,0,0,0,0,0,0,0,0,0,0,0,0,0,0,0,0,0,0,0,0,0,0],"id":44,"left_children":[1,3,5,-1,7,-1,9,11,-1,13,15,17,-1,19,21,23,25,27,29,31,-1,33,35,37,-1,-1,39,-1,-1,-1,-1,-1,-1,-1,-1,-1,-1,-1,-1,-1,-1],"loss_changes":[1.4858126E3,3.6214294E2,2.919165E1,0E0,2.2405022E1,0E0,5.8231354E-1,3.609903E-1,0E0,2.2195206E0,2.0155973E0,4.9440813E-1,0E0,2.194644E0,1.0954785E0,1.224248E0,1.66762E0,6.9380176E-1,9.2371905E-1,1.1787088E0,0E0,1.961155E-1,2.5099864E0,3.5299952E0,0E0,0E0,2.0847187E0,0E0,0E0,0E0,0E0,0E0,0E0,0E0,0E0,0E0,0E0,0E0,0E0,0E0,0E0],"parents":[2147483647,0,0,1,1,2,2,4,4,6,6,7,7,9,9,10,10,11,11,13,13,14,14,15,15,16,16,17,17,18,18,19,19,21,21,22,22,23,23,26,26],"right_children":[2,4,6,-1,8,-1,10,12,-1,14,16,18,-1,20,22,24,26,28,30,32,-1,34,36,38,-1,-1,40,-1,-1,-1,-1,-1,-1,-1,-1,-1,-1,-1,-1,-1,-1],"split_conditions":[2.01E1,3.39E1,6.77E1,-5.084752E-2,3.56E1,6.222218E-2,1.46E1,1.22E1,6.211256E-2,1.26E1,1.72E1,2.3E0,-2.9519543E-2,1.23E1,1.32E1,1.61E1,1.78E1,8E0,2.9E0,1.15E1,-5.8411844E-2,2.7E1,2.44E1,1.6E1,-5.5779E-2,8.2553856E-2,2.43E1,1.33788455E-2,-2.0188594E-2,6.563052E-2,1.4291341E-2,1.3747582E-2,5.8518488E-2,7.8819916E-2,1.9797988E-2,7.892719E-2,-1.4682523E-2,-3.4749754E-2,8.6110234E-2,-2.9597757E-2,2.7111227E-2],"split_indices":[1,2,1,0,2,0,2,1,0,2,2,1,0,2,2,2,2,3,1,2,0,3,0,2,0,0,0,0,0,0,0,0,0,0,0,0,0,0,0,0,0],"split_type":[0,0,0,0,0,0,0,0,0,0,0,0,0,0,0,0,0,0,0,0,0,0,0,0,0,0,0,0,0,0,0,0,0,0,0,0,0,0,0,0,0],"sum_hessian":[6.4197734E3,4.0683325E3,2.3514412E3,3.637821E3,4.305114E2,2.195537E3,1.5590399E2,1.4299211E2,2.8751932E2,1.05324844E2,5.057915E1,1.4197054E2,1.0215756E0,8.4942154E1,2.0382689E1,1.4986787E1,3.5592365E1,1.24516655E2,1.7453878E1,8.190685E1,3.0352983E0,1.0108778E1,1.02739105E1,9.663341E0,5.3234463E0,2.9737725E0,3.261859E1,1.1889149E2,5.6251645E0,4.2209153E0,1.3232963E1,7.636652E1,5.5403314E0,8.64853E0,1.4602486E0,3.8071315E0,6.466779E0,7.244568E0,2.4187725E0,7.7429132E0,2.4875679E1],"tree_param":{"num_deleted":"0","num_feature":"4","num_nodes":"41","size_leaf_vector":"1"}},{"base_weights":[-3.0554917E-1,-4.9736764E-2,-1.0927239E-1,1.4112146E-1,-1.210931E-1,4.2311262E-2,-1.4706603E-1,-2.4367476E-1,-8.445259E-2,-5.8963668E-2,1.7910577E-1,-4.9374872E-1,-3.0568378E-2,-5.497097E-2,-4.315452E-1,3.3270754E-2,-7.140389E-3,3.0701771E-2,-5.710679E-1,-3.2099867E-1,1.1204819E-1,1.1300498E-1,-1.3710828E-1,-6.945576E-1,4.098563E-2,-1.3848458E-2,-6.0821395E-2,-5.615999E-2,-1.0367626E-2,2.5570696E-2,-1.6909624E-2,5.057949E-2,-7.3845065E-3,-3.9797217E-2,-5.63514E-3,-1.0263141E-1,-4.0560108E-2,-1.0701676E-2,1.2703276E-2],"categories":[],"categories_nodes":[],"categories_segments":[],"categories_sizes":[],"default_left":[0,0,0,0,0,0,0,0,0,0,0,0,0,0,0,0,0,0,0,0,0,0,0,0,0,0,0,0,0,0,0,0,0,0,0,0,0,0,0],"id":45,"left_children":[1,-1,3,5,7,-1,9,11,13,-1,15,17,19,21,23,-1,-1,-1,25,27,29,31,33,35,37,-1,-1,-1,-1,-1,-1,-1,-1,-1,-1,-1,-1,-1,-1],"loss_changes":[1.2169149E1,0E0,4.958408E-1,6.9232625E-1,6.755786E-1,0E0,7.662732E-1,1.8574715E0,1.2130046E0,0E0,1.5465572E-1,1.1721904E0,8.6590326E-1,1.5682542E0,1.1862622E0,0E0,0E0,0E0,1.5732574E-1,3.0034524E-1,6.1592954E-1,2.7901106E0,1.5793767E0,1.6278696E-1,6.804293E-2,0E0,0E0,0E0,0E0,0E0,0E0,0E0,0E0,0E0,0E0,0E0,0E0,0E0,0E0],"parents":[2147483647,0,0,2,2,3,3,4,4,6,6,7,7,8,8,10,10,11,11,12,12,13,13,14,14,18,18,19,19,20,20,21,21,22,22,23,23,24,24],"right_children":[2,-1,4,6,8,-1,10,12,14,-1,16,18,20,22,24,-1,-1,-1,26,28,30,32,34,36,38,-1,-1,-1,-1,-1,-1,-1,-1,-1,-1,-1,-1,-1,-1],"split_conditions":[6.77E1,-4.9736764E-2,2.14E1,7.6E0,9.4E0,4.2311262E-2,8.4E0,1.24E2,3.76E2,-5.8963668E-2,1.17E1,2.42E1,6E0,1.15E1,1.37E1,3.3270754E-2,-7.140389E-3,3.0701771E-2,5E0,2.27E1,8.5E0,2.56E1,1.32E1,2.22E1,2.22E1,-1.3848458E-2,-6.0821395E-2,-5.615999E-2,-1.0367626E-2,2.5570696E-2,-1.6909624E-2,5.057949E-2,-7.3845065E-3,-3.9797217E-2,-5.63514E-3,-1.0263141E-1,-4.0560108E-2,-1.0701676E-2,1.2703276E-2],"split_indices":[1,0,0,2,2,0,2,3,3,0,2,0,2,2,2,0,0,0,3,0,2,0,2,0,0,0,0,0,0,0,0,0,0,0,0,0,0,0,0],"split_type":[0,0,0,0,0,0,0,0,0,0,0,0,0,0,0,0,0,0,0,0,0,0,0,0,0,0,0,0,0,0,0,0,0,0,0,0,0,0,0],"sum_hessian":[3.2366574E2,1.6291617E2,1.6074959E2,6.753529E0,1.5399606E2,3.1768243E0,3.5767047E0,3.413759E1,1.19858475E2,1.1748477E0,2.401857E0,1.5100587E1,1.9037E1,1.11542564E2,8.315914E0,1.285513E0,1.1163439E0,1.0680819E0,1.4032505E1,5.8575864E0,1.3179414E1,3.6507217E1,7.503535E1,5.040491E0,3.2754235E0,1.4835825E0,1.2548923E1,2.0280833E0,3.8295033E0,8.782316E0,4.3970976E0,1.1218051E1,2.5289165E1,1.6809298E1,5.8226048E1,1.1585469E0,3.8819442E0,1.1145983E0,2.1608253E0],"tree_param":{"num_deleted":"0","num_feature":"4","num_nodes":"39","size_leaf_vector":"1"}},{"base_weights":[5.6785613E-2,4.0749976E-1,-6.0585927E-2,5.0794657E-2,-4.31472E-1,-1.1465618E-1,-6.0525592E-2,-1.1968108E-1,2.930975E-2,-9.938089E-2,-2.4929E-1,-1.1446479E-2,2.0576587E-2,-4.3639895E-2,4.840807E-3],"categories":[],"categories_nodes":[],"categories_segments":[],"categories_sizes":[],"default_left":[0,0,0,0,0,0,0,0,0,0,0,0,0,0,0],"id":46,"left_children":[1,3,-1,-1,5,7,-1,9,-1,11,13,-1,-1,-1,-1],"loss_changes":[1.3633112E3,3.234784E2,0E0,0E0,2.2542297E1,3.3568E-1,0E0,3.5840726E-1,0E0,6.1076784E-1,1.0827293E0,0E0,0E0,0E0,0E0],"parents":[2147483647,0,0,1,1,4,4,5,5,7,7,9,9,10,10],"right_children":[2,4,-1,-1,6,8,-1,10,-1,12,14,-1,-1,-1,-1],"split_conditions":[2.01E1,3.39E1,-6.0585927E-2,5.0794657E-2,3.56E1,1.3E1,-6.0525592E-2,2.3E0,2.930975E-2,1.8E0,4E0,-1.1446479E-2,2.0576587E-2,-4.3639895E-2,4.840807E-3],"split_indices":[1,2,0,0,2,3,0,1,0,1,1,0,0,0,0],"split_type":[0,0,0,0,0,0,0,0,0,0,0,0,0,0,0],"sum_hessian":[5.864192E3,3.8349014E3,2.0292906E3,3.425209E3,4.0969232E2,1.457122E2,2.639801E2,1.4463629E2,1.0759206E0,1.26577644E2,1.8058645E1,1.2121088E2,5.3667665E0,